module.exports =  function anonymous(rawInput,isSampleI,temperature
/*``*/) {

  if (typeof rawInput === 'undefined') rawInput = [];
  if (typeof isSampleI === 'undefined') isSampleI = false;
  if (typeof temperature === 'undefined') temperature = 1;
  
var characterTable = {"0":"0","1":"1","2":"d","3":"r","4":"i","5":"v","6":"e","7":" ","8":"n","9":"a","10":"w","11":"p","12":"o","13":"s","14":"u","15":"l","16":"y","17":".","18":"m","19":"t","20":"-","21":"f","22":"g","23":"h","24":"2","25":"T","26":"B","27":"c","28":",","29":"b","30":null,"31":null,"32":null};
var indexTable = {"0":0,"1":1,"2":24,"d":2,"r":3,"i":4,"v":5,"e":6," ":7,"n":8,"a":9,"w":10,"p":11,"o":12,"s":13,"u":14,"l":15,"y":16,".":17,"m":18,"t":19,"-":20,"f":21,"g":22,"h":23,"T":25,"B":26,"c":27,",":28,"b":29,"stop-input":30,"start-output":31,"unrecognized":32};
var characters = ["0","1","d","r","i","v","e"," ","n","a","w","p","o","s","u","l","y",".","m","t","-","f","g","h","2","T","B","c",",","b","stop-input","start-output","unrecognized"];
function toIndexes(value) {
      var maxThreshold = arguments.length > 1 && arguments[1] !== undefined ? arguments[1] : 0;

      var result = [];
      
      for (var i = 0, max = value.length; i < max; i++) {
        var character = value[i];
        var index = indexTable[character];
        if (index === undefined) {
          if (indexTable['unrecognized']) {
            index = indexTable['unrecognized'];
          } else {
            throw new Error('unrecognized character "' + character + '"');
          }
        }
        if (index < maxThreshold) continue;
        result.push(index);
      }

      return result;
    }
function toIndexesInputOutput(value1) {
      var value2 = arguments.length > 1 && arguments[1] !== undefined ? arguments[1] : null;
      var maxThreshold = arguments.length > 2 && arguments[2] !== undefined ? arguments[2] : 0;

      var result = void 0;
      if (typeof value1 === 'string') {
        result = toIndexes(value1.split('').concat(['stop-input', 'start-output']), maxThreshold);
      } else {
        result = toIndexes(value1.concat(['stop-input', 'start-output']), maxThreshold);
      }

      if (value2 === null) return result;

      if (typeof value2 === 'string') {
        return result.concat(toIndexes(value2.split(''), maxThreshold));
      } else {
        return result.concat(toIndexes(value2, maxThreshold));
      }
    }
function toCharacters(indices) {
      var maxThreshold = arguments.length > 1 && arguments[1] !== undefined ? arguments[1] : 0;

      var result = [];
            var indexTable = indexTable;

      for (var i = 0, max = indices.length; i < max; i++) {
        var index = indices[i];
        if (index < maxThreshold) continue;
        var character = characterTable[index];
        if (character === undefined) {
          if (indexTable['unrecognized']) {
            character = characterTable[indexTable['unrecognized']];
          } else {
            throw new Error('unrecognized index "' + index + '"');
          }
        } else if (character !== null) {
          result.push(character);
        }
      }

      return result;
    }

  
  var input = formatDataIn(rawInput);
  var json = {"type":"LSTM","options":{"inputSize":33,"inputRange":33,"hiddenLayers":[20,20],"outputSize":33,"decayRate":0.999,"smoothEps":1e-8,"regc":0.000001,"clipval":5,"maxPredictionLength":100,"dataFormatter":{"values":["0","1","drive","i need a new power supply.","my unit-tests failed.","power supply","program","the drive has a 2TB capacity.","tried the program, but it was buggy.","unit-tests"],"indexTable":{"0":0,"1":1,"2":24,"d":2,"r":3,"i":4,"v":5,"e":6," ":7,"n":8,"a":9,"w":10,"p":11,"o":12,"s":13,"u":14,"l":15,"y":16,".":17,"m":18,"t":19,"-":20,"f":21,"g":22,"h":23,"T":25,"B":26,"c":27,",":28,"b":29,"stop-input":30,"start-output":31,"unrecognized":32},"characterTable":{"0":"0","1":"1","2":"d","3":"r","4":"i","5":"v","6":"e","7":" ","8":"n","9":"a","10":"w","11":"p","12":"o","13":"s","14":"u","15":"l","16":"y","17":".","18":"m","19":"t","20":"-","21":"f","22":"g","23":"h","24":"2","25":"T","26":"B","27":"c","28":",","29":"b","30":null,"31":null,"32":null},"characters":["0","1","d","r","i","v","e"," ","n","a","w","p","o","s","u","l","y",".","m","t","-","f","g","h","2","T","B","c",",","b","stop-input","start-output","unrecognized"],"specialIndexes":[30,31,32]}},"input":{"rows":34,"columns":33,"weights":{"0":-1.42073392868042,"1":0.18880102038383484,"2":0.8411810398101807,"3":0.29559195041656494,"4":0.26563966274261475,"5":0.19222451746463776,"6":-2.33915638923645,"7":1.2741111516952515,"8":0.18082955479621887,"9":-0.5262342691421509,"10":-0.6763510704040527,"11":1.3555850982666016,"12":0.3233523964881897,"13":0.11759712547063828,"14":0.4142206013202667,"15":-0.9085790514945984,"16":1.0231930017471313,"17":0.38512566685676575,"18":-0.4228568971157074,"19":-1.4876689910888672,"20":0.20627465844154358,"21":0.21980427205562592,"22":-0.3463858366012573,"23":0.7237488627433777,"24":0.6855216026306152,"25":-2.846951723098755,"26":-0.25248342752456665,"27":-1.8103625774383545,"28":1.0030559301376343,"29":-0.6685444116592407,"30":0.35843026638031006,"31":1.5643528699874878,"32":-1.0348225831985474,"33":-0.644231915473938,"34":1.6520695686340332,"35":1.0669642686843872,"36":1.1496984958648682,"37":-0.17589068412780762,"38":-0.5163289904594421,"39":-1.4710209369659424,"40":-0.3347591161727905,"41":0.8477743268013,"42":-1.4284870624542236,"43":-1.3557320833206177,"44":-2.8444082736968994,"45":0.3674650192260742,"46":-0.23117640614509583,"47":-0.3953970670700073,"48":-2.4459166526794434,"49":-1.3717100620269775,"50":1.9885382652282715,"51":1.0127406120300293,"52":-0.5432893633842468,"53":-0.9441127777099609,"54":0.38434749841690063,"55":-0.5985371470451355,"56":-0.6650164723396301,"57":-1.713930606842041,"58":0.5615989565849304,"59":1.317488670349121,"60":-1.0875192880630493,"61":2.154552936553955,"62":1.4726967811584473,"63":0.4459390342235565,"64":-1.2139438390731812,"65":-0.7728366851806641,"66":0.7303557991981506,"67":-0.5703219175338745,"68":-1.3363947868347168,"69":0.13364477455615997,"70":0.9721013903617859,"71":-0.5757917761802673,"72":0.7153204083442688,"73":-0.34528952836990356,"74":0.4732855558395386,"75":-0.7133234143257141,"76":1.0756455659866333,"77":-1.3283534049987793,"78":-0.46004819869995117,"79":-2.9058377742767334,"80":-1.007981538772583,"81":-0.0414588637650013,"82":-1.3643879890441895,"83":-0.4330235421657562,"84":-2.1360347270965576,"85":0.46629953384399414,"86":-0.26517951488494873,"87":0.11219257861375809,"88":-0.8145561814308167,"89":-0.8324488997459412,"90":0.26808056235313416,"91":0.9386842250823975,"92":1.2175637483596802,"93":-0.7286959290504456,"94":2.998155117034912,"95":0.2860738933086395,"96":-0.15299437940120697,"97":-0.8894380331039429,"98":0.497676819562912,"99":2.9327516555786133,"100":2.0668628215789795,"101":1.7174015045166016,"102":1.557120442390442,"103":-1.4588850736618042,"104":1.6328941583633423,"105":2.1383023262023926,"106":0.3087692856788635,"107":0.08692073076963425,"108":-0.014132528565824032,"109":-0.6798356771469116,"110":-1.298190951347351,"111":0.8309929370880127,"112":2.5145678520202637,"113":1.8298768997192383,"114":-0.9318643808364868,"115":-1.4586013555526733,"116":0.5536007285118103,"117":0.6548124551773071,"118":2.3175466060638428,"119":2.3131601810455322,"120":0.9279912114143372,"121":1.2955498695373535,"122":-2.7418406009674072,"123":-1.0173777341842651,"124":-0.9908824563026428,"125":-3.5922062397003174,"126":2.4034595489501953,"127":1.9260791540145874,"128":-0.6367794275283813,"129":-1.6264725923538208,"130":-1.6835741996765137,"131":-0.044334378093481064,"132":-0.1480894237756729,"133":0.7345342040061951,"134":2.042301893234253,"135":1.2260321378707886,"136":-1.7827353477478027,"137":0.3964668810367584,"138":1.865399718284607,"139":-1.516947865486145,"140":0.8019651174545288,"141":-0.24515274167060852,"142":-0.7139983177185059,"143":-0.7465256452560425,"144":2.251359701156616,"145":1.8070077896118164,"146":1.1242505311965942,"147":-2.5147385597229004,"148":-0.7307549715042114,"149":1.3076916933059692,"150":1.2500799894332886,"151":1.5555946826934814,"152":0.9483975172042847,"153":-0.0029060798697173595,"154":-0.04891487583518028,"155":-0.9360492825508118,"156":-0.3637171983718872,"157":1.0147273540496826,"158":-1.1596267223358154,"159":1.1589101552963257,"160":0.671648383140564,"161":-0.8007590770721436,"162":-2.5318922996520996,"163":-0.5518745183944702,"164":-0.7192665338516235,"165":0.24048814177513123,"166":-1.4967344999313354,"167":2.0974130630493164,"168":-0.9415696263313293,"169":-2.1092000007629395,"170":-0.11673648655414581,"171":0.774173378944397,"172":-1.2857788801193237,"173":0.7000673413276672,"174":0.6498810052871704,"175":-0.7769425511360168,"176":1.9254721403121948,"177":1.3996020555496216,"178":1.8135552406311035,"179":1.6996930837631226,"180":-1.1437634229660034,"181":0.24936118721961975,"182":1.0077325105667114,"183":0.8165531158447266,"184":-0.002531414618715644,"185":-0.09123561531305313,"186":-0.5688328742980957,"187":-0.4478231966495514,"188":1.226253628730774,"189":0.9730290770530701,"190":-1.4315218925476074,"191":-2.873274326324463,"192":0.09244734048843384,"193":-1.5918225049972534,"194":-1.2622092962265015,"195":0.27411800622940063,"196":1.974541187286377,"197":-1.230873942375183,"198":-0.5313286781311035,"199":-0.35992664098739624,"200":-1.45984947681427,"201":0.595559298992157,"202":2.5917890071868896,"203":-0.8258808255195618,"204":-1.807053804397583,"205":3.2724039554595947,"206":-1.2522649765014648,"207":-1.6772339344024658,"208":1.562127947807312,"209":-0.07780380547046661,"210":-1.8458106517791748,"211":-2.0763301849365234,"212":-2.694350481033325,"213":2.639573812484741,"214":0.26677659153938293,"215":-1.1149673461914062,"216":-2.6514194011688232,"217":-1.5128076076507568,"218":-1.0067046880722046,"219":1.4082590341567993,"220":-0.9590243101119995,"221":0.736437976360321,"222":-1.9415382146835327,"223":-1.25721275806427,"224":1.628322958946228,"225":-1.597267508506775,"226":-0.6029070615768433,"227":2.672619581222534,"228":2.4213409423828125,"229":0.055991873145103455,"230":1.2139787673950195,"231":-0.010767686180770397,"232":-0.7490785717964172,"233":-0.3336021304130554,"234":-0.3187675476074219,"235":-0.1016959398984909,"236":-0.1870523989200592,"237":-0.578170895576477,"238":-0.42649662494659424,"239":-0.05809738114476204,"240":1.9729225635528564,"241":0.11853405088186264,"242":-0.7025343775749207,"243":-0.6056928038597107,"244":0.22731678187847137,"245":-0.2152596265077591,"246":0.17375563085079193,"247":-0.7388870120048523,"248":-0.7597694993019104,"249":-0.023998824879527092,"250":0.4390888810157776,"251":0.439733624458313,"252":-0.8908606767654419,"253":0.6025347113609314,"254":-1.1971807479858398,"255":-0.27880796790122986,"256":0.6876673698425293,"257":0.22538399696350098,"258":-0.11545595526695251,"259":0.5771100521087646,"260":1.0052742958068848,"261":-0.33424216508865356,"262":-0.005305077414959669,"263":0.06784194707870483,"264":-1.011523723602295,"265":1.6837209463119507,"266":-0.5528218746185303,"267":-1.906875491142273,"268":-0.5721292495727539,"269":-0.8495503067970276,"270":-1.7446426153182983,"271":-0.7479096055030823,"272":2.2035722732543945,"273":-0.533791184425354,"274":-1.0089715719223022,"275":0.504252552986145,"276":1.3271681070327759,"277":-0.0476280115544796,"278":0.07188326120376587,"279":-2.8844194412231445,"280":-0.2712768018245697,"281":3.2321488857269287,"282":1.4012699127197266,"283":-2.211716890335083,"284":-1.5655914545059204,"285":-0.266498327255249,"286":-2.8006718158721924,"287":0.857462465763092,"288":0.13799098134040833,"289":0.2230132818222046,"290":1.1042587757110596,"291":-2.3210816383361816,"292":-1.007177710533142,"293":-0.5941168069839478,"294":0.8642371892929077,"295":0.8850347995758057,"296":-1.2108463048934937,"297":1.2530739307403564,"298":0.33618950843811035,"299":1.7999950647354126,"300":-0.5213321447372437,"301":-1.7057560682296753,"302":1.8694336414337158,"303":4.075668811798096,"304":0.20434613525867462,"305":1.1119296550750732,"306":-2.881657361984253,"307":0.6562500596046448,"308":0.7651029825210571,"309":0.7617398500442505,"310":2.4639065265655518,"311":2.1357405185699463,"312":-0.26638829708099365,"313":-0.6030299663543701,"314":0.422588586807251,"315":-2.0256731510162354,"316":0.6717992424964905,"317":1.508406162261963,"318":1.2969931364059448,"319":-1.328181505203247,"320":0.9819226264953613,"321":0.9702576398849487,"322":-0.18549862504005432,"323":-0.14349298179149628,"324":1.141849160194397,"325":-4.44481086730957,"326":-0.40615004301071167,"327":-2.9260144233703613,"328":0.24337251484394073,"329":-0.13887858390808105,"330":0.03917830064892769,"331":1.271243929862976,"332":0.7497962117195129,"333":0.8280354142189026,"334":-1.4859007596969604,"335":0.5744782090187073,"336":-1.0689162015914917,"337":-1.2168678045272827,"338":1.6495845317840576,"339":-0.4256656765937805,"340":-0.028631985187530518,"341":1.745647668838501,"342":0.3946097195148468,"343":0.4712267220020294,"344":0.20476585626602173,"345":-1.6546655893325806,"346":0.3216252028942108,"347":1.1108503341674805,"348":0.3995537757873535,"349":0.3347190022468567,"350":0.4781796634197235,"351":1.7690043449401855,"352":-0.5365684032440186,"353":-0.2761266827583313,"354":0.36436930298805237,"355":-0.43520694971084595,"356":0.6616305708885193,"357":-0.4640442430973053,"358":0.7415262460708618,"359":-1.7397209405899048,"360":-1.4968671798706055,"361":1.5549482107162476,"362":-0.3919464945793152,"363":-1.917656660079956,"364":-1.463183045387268,"365":1.8985172510147095,"366":0.15568643808364868,"367":0.053616270422935486,"368":3.08217716217041,"369":-1.011458396911621,"370":4.8833489418029785,"371":-1.7818976640701294,"372":-1.4698055982589722,"373":-0.8757820129394531,"374":-1.6432572603225708,"375":0.7796538472175598,"376":0.36343976855278015,"377":1.5559056997299194,"378":1.6058553457260132,"379":2.1721091270446777,"380":-1.1638860702514648,"381":1.6785223484039307,"382":-1.3144938945770264,"383":2.8157615661621094,"384":0.6688349843025208,"385":3.266925096511841,"386":-0.1706799417734146,"387":1.2723139524459839,"388":-1.1853054761886597,"389":-0.4308348596096039,"390":0.8792314529418945,"391":0.48256349563598633,"392":-1.0165927410125732,"393":-1.8429912328720093,"394":-0.8394235968589783,"395":0.25823143124580383,"396":0.23826807737350464,"397":0.8544905185699463,"398":0.913871169090271,"399":1.00645112991333,"400":0.8847127556800842,"401":1.5530062913894653,"402":0.43817123770713806,"403":2.829899549484253,"404":0.727565348148346,"405":-2.5670361518859863,"406":1.7005959749221802,"407":-1.1548246145248413,"408":-0.3648812174797058,"409":0.4386374354362488,"410":-0.2141692042350769,"411":2.3202450275421143,"412":1.718543291091919,"413":-0.6935683488845825,"414":-0.98208087682724,"415":1.138037085533142,"416":0.8994176983833313,"417":2.789609432220459,"418":0.335703045129776,"419":-2.8785204887390137,"420":0.13317520916461945,"421":-1.6692639589309692,"422":-0.06840337812900543,"423":1.4691400527954102,"424":-1.6054296493530273,"425":1.2747254371643066,"426":-0.6890784502029419,"427":-0.9002320170402527,"428":2.432267665863037,"429":-0.48156553506851196,"430":-1.5272510051727295,"431":0.8297212719917297,"432":-0.310306191444397,"433":0.5623391270637512,"434":-1.4369786977767944,"435":-1.2012583017349243,"436":-1.3326160907745361,"437":0.017514806240797043,"438":0.00685011176392436,"439":-1.0110507011413574,"440":0.16047805547714233,"441":0.1432274729013443,"442":-0.2827867269515991,"443":1.1801942586898804,"444":-1.5739907026290894,"445":-0.1303045004606247,"446":0.8327734470367432,"447":0.7034500241279602,"448":-1.4207816123962402,"449":-1.3514721393585205,"450":-2.832540512084961,"451":-1.2829078435897827,"452":1.4463456869125366,"453":0.9289292693138123,"454":-0.07337503880262375,"455":-1.0514229536056519,"456":-1.891746163368225,"457":-1.438473105430603,"458":-0.18969367444515228,"459":1.7553324699401855,"460":0.9409175515174866,"461":-1.3090178966522217,"462":0.6858977675437927,"463":-1.6147044897079468,"464":-1.161414623260498,"465":-0.5995509028434753,"466":0.7689658403396606,"467":-0.43284502625465393,"468":0.12115692347288132,"469":0.8826268911361694,"470":-0.7692632079124451,"471":0.41067302227020264,"472":0.3680596351623535,"473":2.6111385822296143,"474":0.2729394733905792,"475":-1.476456642150879,"476":-1.1780802011489868,"477":1.255568504333496,"478":0.05449926108121872,"479":-0.5278392434120178,"480":-1.7164974212646484,"481":-1.2403926849365234,"482":0.0010239452822133899,"483":1.9377150535583496,"484":-0.36722326278686523,"485":0.1944410651922226,"486":1.623916745185852,"487":-0.39011335372924805,"488":0.09832300245761871,"489":-0.22819074988365173,"490":-1.3684659004211426,"491":-1.219177007675171,"492":-0.8046358823776245,"493":2.0344715118408203,"494":-0.45512062311172485,"495":1.3041932582855225,"496":1.5696258544921875,"497":-2.5493435859680176,"498":-1.380993127822876,"499":-1.3268920183181763,"500":-0.7887865900993347,"501":0.2611350119113922,"502":-2.994642734527588,"503":1.2518420219421387,"504":2.435683488845825,"505":-1.2830893993377686,"506":0.7313731908798218,"507":1.6270617246627808,"508":0.14632530510425568,"509":0.44983187317848206,"510":-1.390393853187561,"511":-1.39262056350708,"512":2.241386651992798,"513":1.739721417427063,"514":0.9386351108551025,"515":-0.345885306596756,"516":-0.7085829973220825,"517":-0.8663751482963562,"518":-0.4271348714828491,"519":-1.0650300979614258,"520":0.3692302703857422,"521":0.6391713619232178,"522":0.06342604756355286,"523":0.15941119194030762,"524":-1.8134132623672485,"525":0.836085319519043,"526":-0.23045864701271057,"527":-0.8950036764144897,"528":2.63696551322937,"529":1.6690062284469604,"530":-0.3943285346031189,"531":-0.05249059200286865,"532":2.2377610206604004,"533":-1.117682933807373,"534":2.2581801414489746,"535":-0.31738632917404175,"536":1.1547563076019287,"537":-1.2423121929168701,"538":1.590326189994812,"539":-1.8750003576278687,"540":0.22459165751934052,"541":-2.5026369094848633,"542":-3.7829132080078125,"543":-0.16837680339813232,"544":-1.5573874711990356,"545":2.1791632175445557,"546":-1.5106486082077026,"547":1.0577707290649414,"548":-1.5403215885162354,"549":1.3764982223510742,"550":-0.9465753436088562,"551":-2.4601871967315674,"552":-3.48980712890625,"553":2.130048990249634,"554":0.26061540842056274,"555":0.0032773774582892656,"556":1.3140751123428345,"557":-0.23998171091079712,"558":-0.06371201574802399,"559":-1.626914381980896,"560":2.242047071456909,"561":0.5270524024963379,"562":1.877858281135559,"563":-1.7424637079238892,"564":-1.9379849433898926,"565":2.607177495956421,"566":0.8921394944190979,"567":-1.4143908023834229,"568":1.548647165298462,"569":1.6779687404632568,"570":-2.7503011226654053,"571":3.3440072536468506,"572":3.748640537261963,"573":-3.6849348545074463,"574":-1.9015188217163086,"575":-4.378597259521484,"576":1.4247243404388428,"577":0.7133257985115051,"578":-0.7472696304321289,"579":-3.4323487281799316,"580":-0.7653132081031799,"581":-1.775153398513794,"582":1.5500586032867432,"583":-2.3688831329345703,"584":-0.8052520155906677,"585":-3.096911668777466,"586":-0.7426324486732483,"587":2.696885108947754,"588":-0.5232420563697815,"589":-1.107574462890625,"590":2.063943862915039,"591":-0.6124053001403809,"592":1.4181188344955444,"593":2.6973116397857666,"594":-1.2764033079147339,"595":-0.46853330731391907,"596":-1.3174244165420532,"597":-0.16632583737373352,"598":2.176436185836792,"599":-0.6527361869812012,"600":-0.694686233997345,"601":0.4586576819419861,"602":-1.1862907409667969,"603":-2.249419689178467,"604":1.7785717248916626,"605":-0.06185707077383995,"606":-2.622572183609009,"607":-0.7089011073112488,"608":-1.6667453050613403,"609":1.4194692373275757,"610":0.7937482595443726,"611":-1.6785122156143188,"612":-1.0894190073013306,"613":-0.6101738214492798,"614":-1.295083999633789,"615":-0.008384096436202526,"616":-1.0492409467697144,"617":0.18068383634090424,"618":-1.2261252403259277,"619":-0.2625483274459839,"620":1.0581464767456055,"621":-0.6045347452163696,"622":0.14383423328399658,"623":2.715240240097046,"624":0.7134337425231934,"625":-0.5977511405944824,"626":1.904596209526062,"627":-0.8441851735115051,"628":-0.7855662703514099,"629":-0.3798419237136841,"630":-2.4822089672088623,"631":0.19809216260910034,"632":-1.815321922302246,"633":-2.5150227546691895,"634":-0.6651734113693237,"635":-2.4516868591308594,"636":3.309340715408325,"637":-0.630581796169281,"638":1.8142646551132202,"639":0.17047548294067383,"640":0.09739457070827484,"641":1.4087237119674683,"642":-0.032429952174425125,"643":0.7180649042129517,"644":0.9683661460876465,"645":1.14966881275177,"646":-1.2831833362579346,"647":-0.6576880812644958,"648":-2.4852569103240967,"649":0.4930875301361084,"650":1.0759774446487427,"651":0.5026248097419739,"652":-1.703912615776062,"653":-1.5270644426345825,"654":-0.7934937477111816,"655":-1.0394068956375122,"656":-1.2408796548843384,"657":3.427603006362915,"658":0.8841034173965454,"659":-0.16485154628753662,"660":-0.7213918566703796,"661":0.9879475235939026,"662":-0.4135339856147766,"663":1.8418179750442505,"664":-2.1914916038513184,"665":1.0215191841125488,"666":-5.082676887512207,"667":-1.8072774410247803,"668":3.2650396823883057,"669":0.29888659715652466,"670":-2.8047497272491455,"671":1.064568281173706,"672":1.8770530223846436,"673":-0.7020798325538635,"674":-1.47327721118927,"675":-0.4048289954662323,"676":0.9396224021911621,"677":1.4308159351348877,"678":2.325402021408081,"679":0.5222702622413635,"680":-0.32953640818595886,"681":2.1606509685516357,"682":-0.15103334188461304,"683":-2.367006540298462,"684":0.5410138368606567,"685":0.5232732892036438,"686":1.9500722885131836,"687":-0.8843606114387512,"688":0.8481118083000183,"689":-2.0910146236419678,"690":-2.0314297676086426,"691":0.5705965161323547,"692":-3.459301710128784,"693":-0.1653023660182953,"694":-0.4085196852684021,"695":0.9544464945793152,"696":0.23645322024822235,"697":-1.607997179031372,"698":-0.11233630776405334,"699":-0.949936032295227,"700":1.394859790802002,"701":-0.4860447645187378,"702":2.251608371734619,"703":-0.055378179997205734,"704":2.7380075454711914,"705":1.4403337240219116,"706":2.18792724609375,"707":1.8917007446289062,"708":-0.8285260200500488,"709":1.9949088096618652,"710":2.8924758434295654,"711":2.1504764556884766,"712":-0.05059216544032097,"713":-0.07322439551353455,"714":-3.1756045818328857,"715":1.065464973449707,"716":0.5701784491539001,"717":-0.14003273844718933,"718":-2.584247350692749,"719":-3.5963542461395264,"720":1.3149847984313965,"721":-4.278696537017822,"722":-4.156949520111084,"723":0.4074943959712982,"724":1.6177542209625244,"725":0.14683890342712402,"726":1.9702444076538086,"727":-1.5768917798995972,"728":-3.511139154434204,"729":-1.0650372505187988,"730":5.805484771728516,"731":-0.8241304755210876,"732":-1.2313108444213867,"733":-0.6226186156272888,"734":-2.6857094764709473,"735":-1.4512733221054077,"736":4.866827011108398,"737":0.7212218642234802,"738":-5.606910705566406,"739":-5.531081676483154,"740":-4.434574604034424,"741":1.078081488609314,"742":-1.0797197818756104,"743":-2.785945415496826,"744":-3.3631200790405273,"745":-1.485413670539856,"746":-1.3922557830810547,"747":-0.706992506980896,"748":-1.999467372894287,"749":1.3708289861679077,"750":-2.705444574356079,"751":-0.27802807092666626,"752":2.6820621490478516,"753":-1.4010332822799683,"754":-0.5735489130020142,"755":2.826190948486328,"756":1.125489592552185,"757":0.635387122631073,"758":2.412745475769043,"759":-0.7838891744613647,"760":-2.475536823272705,"761":-0.4119908809661865,"762":1.8223886489868164,"763":1.050905466079712,"764":2.1035053730010986,"765":1.8206976652145386,"766":4.347164154052734,"767":-2.9971704483032227,"768":-0.793827474117279,"769":1.6918140649795532,"770":1.0497900247573853,"771":-1.6906533241271973,"772":-0.5472890734672546,"773":-0.05202197656035423,"774":1.759245753288269,"775":1.335132122039795,"776":-1.8400685787200928,"777":-0.46599721908569336,"778":0.5193766951560974,"779":1.941650629043579,"780":-0.8051861524581909,"781":1.6508392095565796,"782":0.5716395974159241,"783":-0.9268986582756042,"784":-1.50873863697052,"785":-2.7244014739990234,"786":0.24330297112464905,"787":-0.9131588339805603,"788":2.8224034309387207,"789":-0.9210020899772644,"790":0.09547241777181625,"791":0.9241816401481628,"792":-1.2110564708709717,"793":-2.2860074043273926,"794":-0.06037723645567894,"795":-1.1287528276443481,"796":1.8962764739990234,"797":-1.7883309125900269,"798":-0.8399277329444885,"799":-1.4843511581420898,"800":-2.695158004760742,"801":1.7611693143844604,"802":0.6838152408599854,"803":1.3188066482543945,"804":-0.1390397697687149,"805":-2.279926061630249,"806":-1.1092685461044312,"807":1.2551238536834717,"808":0.1834983229637146,"809":-3.8791983127593994,"810":-0.38400471210479736,"811":-0.8942198753356934,"812":-0.7457689642906189,"813":-0.6325491666793823,"814":-0.7026054263114929,"815":1.7007004022598267,"816":-0.19605213403701782,"817":-1.7743861675262451,"818":0.5669170618057251,"819":-0.8989855647087097,"820":1.23953378200531,"821":-1.5139484405517578,"822":-0.21378934383392334,"823":0.7543637752532959,"824":1.0676928758621216,"825":-2.941678762435913,"826":-4.181644439697266,"827":-0.33504652976989746,"828":0.34064340591430664,"829":-2.3174257278442383,"830":-5.18551778793335,"831":-3.314049243927002,"832":-4.1445112228393555,"833":2.886366128921509,"834":5.543338298797607,"835":-4.102022647857666,"836":2.199998140335083,"837":1.463485836982727,"838":1.0254781246185303,"839":2.5689642429351807,"840":-1.2443636655807495,"841":3.266401529312134,"842":0.478743314743042,"843":4.440702438354492,"844":-0.6374651193618774,"845":1.264294981956482,"846":0.18879392743110657,"847":1.3592904806137085,"848":-1.2159143686294556,"849":5.312390327453613,"850":2.2909603118896484,"851":-2.2816169261932373,"852":-2.904365062713623,"853":-0.2291235476732254,"854":-1.6290642023086548,"855":1.3843573331832886,"856":3.8665616512298584,"857":-3.0677340030670166,"858":0.3344731628894806,"859":-2.9841806888580322,"860":0.5993622541427612,"861":-1.633649468421936,"862":-0.9998096823692322,"863":-5.449103832244873,"864":-0.43593016266822815,"865":-6.073388576507568,"866":-0.43951666355133057,"867":6.774123191833496,"868":-0.05641152337193489,"869":0.45547959208488464,"870":0.12659788131713867,"871":0.28019216656684875,"872":0.8238896727561951,"873":-0.8643773198127747,"874":-0.7089771032333374,"875":0.36759886145591736,"876":1.21303391456604,"877":0.3212284743785858,"878":-2.154968500137329,"879":-6.634094715118408,"880":-0.31514090299606323,"881":3.4031975269317627,"882":-3.021868944168091,"883":1.2387617826461792,"884":-0.5890694856643677,"885":-0.25333312153816223,"886":-1.8997470140457153,"887":0.4706595242023468,"888":1.6297968626022339,"889":3.7852485179901123,"890":-0.08979742228984833,"891":0.6874754428863525,"892":-0.9379578828811646,"893":-6.30228328704834,"894":1.5895640850067139,"895":4.599825382232666,"896":-2.4612717628479004,"897":0.5591939687728882,"898":-2.2538158893585205,"899":-3.6032726764678955,"900":-1.7968915700912476,"901":1.1696209907531738,"902":-1.2636487483978271,"903":-2.8652713298797607,"904":-3.912302255630493,"905":-3.720292568206787,"906":2.272972345352173,"907":-0.39087995886802673,"908":-3.9577419757843018,"909":-1.4975526332855225,"910":-1.001179814338684,"911":-4.454113960266113,"912":-1.2413865327835083,"913":-2.056131601333618,"914":0.9695857763290405,"915":-0.8118846416473389,"916":0.43156561255455017,"917":0.3143059015274048,"918":-2.1816747188568115,"919":-0.3778391182422638,"920":4.398229598999023,"921":1.842956781387329,"922":-1.3615490198135376,"923":0.6558910012245178,"924":-0.44956859946250916,"925":0.11663059890270233,"926":-6.483459949493408,"927":-0.47025957703590393,"928":4.49668550491333,"929":2.8131914138793945,"930":-0.85652756690979,"931":0.5991500616073608,"932":-2.032839775085449,"933":-3.0933871269226074,"934":3.182569980621338,"935":-1.804771900177002,"936":-5.983879089355469,"937":-4.48032808303833,"938":-0.35371658205986023,"939":2.3357083797454834,"940":-0.2389826774597168,"941":-3.0524826049804688,"942":-0.9434450268745422,"943":-1.4915879964828491,"944":1.3132662773132324,"945":-0.0659099593758583,"946":-4.628767490386963,"947":0.4972098469734192,"948":-1.9530247449874878,"949":-1.6164978742599487,"950":5.163674354553223,"951":-0.9596836566925049,"952":-1.3892295360565186,"953":3.13028621673584,"954":2.9899346828460693,"955":-1.9474937915802002,"956":-0.16698971390724182,"957":-0.6609373688697815,"958":-1.32584547996521,"959":-4.825444221496582,"960":-1.6778995990753174,"961":2.369685649871826,"962":-1.8637243509292603,"963":1.9080939292907715,"964":-0.1611381322145462,"965":-1.7974116802215576,"966":0.9817583560943604,"967":1.3395477533340454,"968":-2.858341932296753,"969":-2.4809019565582275,"970":-4.391836643218994,"971":-0.3793388903141022,"972":4.416461944580078,"973":-4.191482067108154,"974":-5.677980422973633,"975":-2.4169762134552,"976":-2.3487133979797363,"977":-0.2750689685344696,"978":0.7523010969161987,"979":-0.8228524923324585,"980":0.4332389533519745,"981":0.6958189010620117,"982":0.640352189540863,"983":2.331902503967285,"984":-1.8461812734603882,"985":-1.1043530702590942,"986":1.9376349449157715,"987":0.8377063274383545,"988":-4.510417461395264,"989":1.0112402439117432,"990":0.5906276106834412,"991":-1.5907022953033447,"992":1.5985643863677979,"993":2.6117606163024902,"994":-1.8423199653625488,"995":-1.6231471300125122,"996":-0.37132617831230164,"997":-3.298116445541382,"998":2.6772618293762207,"999":-3.8062686920166016,"1000":-2.095418930053711,"1001":4.253212928771973,"1002":1.4348262548446655,"1003":1.0408567190170288,"1004":2.4925224781036377,"1005":-1.9830783605575562,"1006":-0.97770094871521,"1007":-0.804276168346405,"1008":-3.2763590812683105,"1009":3.3946774005889893,"1010":-2.5404796600341797,"1011":1.0267250537872314,"1012":1.2548785209655762,"1013":1.2525858879089355,"1014":4.3817033767700195,"1015":0.8560006618499756,"1016":3.0294899940490723,"1017":1.5467814207077026,"1018":3.3340632915496826,"1019":-3.300715446472168,"1020":-4.643398761749268,"1021":2.4069862365722656,"1022":-1.7539961338043213,"1023":0.599931538105011,"1024":0.3598806858062744,"1025":0.4519802927970886,"1026":0.2670016288757324,"1027":2.4187428951263428,"1028":-0.4819168150424957,"1029":-0.3821159601211548,"1030":1.6453262567520142,"1031":-2.331242084503174,"1032":-1.4088993072509766,"1033":0.5924713611602783,"1034":-0.8375314474105835,"1035":-1.3591444492340088,"1036":-1.0919698476791382,"1037":-1.0991219282150269,"1038":0.8689738512039185,"1039":-0.6890600323677063,"1040":0.20940618216991425,"1041":0.9103601574897766,"1042":0.17014038562774658,"1043":-0.6816710233688354,"1044":-0.22957870364189148,"1045":1.2479453086853027,"1046":0.679552435874939,"1047":-1.1459908485412598,"1048":0.16779792308807373,"1049":-0.3147887885570526,"1050":1.0311740636825562,"1051":0.9287306666374207,"1052":1.3204727172851562,"1053":0.6590569615364075,"1054":-1.3286372423171997,"1055":2.534668445587158,"1056":-0.19651637971401215,"1057":1.4526323080062866,"1058":-0.016146264970302582,"1059":0.10006967931985855,"1060":0.3934497833251953,"1061":-0.43621745705604553,"1062":-0.6902419328689575,"1063":-0.20887640118598938,"1064":0.887076199054718,"1065":0.2034749984741211,"1066":0.10067165642976761,"1067":1.2579493522644043,"1068":-0.5192089080810547,"1069":-0.21284687519073486,"1070":-0.8612239956855774,"1071":0.04201023653149605,"1072":0.43013304471969604,"1073":0.68119877576828,"1074":0.43244484066963196,"1075":0.37159469723701477,"1076":-1.0249167680740356,"1077":0.5856637954711914,"1078":-0.686117947101593,"1079":0.4759993553161621,"1080":0.14436420798301697,"1081":0.09590117633342743,"1082":1.3425542116165161,"1083":-0.06476449221372604,"1084":0.046000394970178604,"1085":-0.9728280305862427,"1086":0.08384087681770325,"1087":1.330762505531311,"1088":0.33539193868637085,"1089":-0.030679496005177498,"1090":0.03306934982538223,"1091":0.04365001991391182,"1092":-0.01105724461376667,"1093":-0.07403046637773514,"1094":0.06442879140377045,"1095":0.07709747552871704,"1096":-0.05132271721959114,"1097":0.06917184591293335,"1098":0.01527839619666338,"1099":0.025526300072669983,"1100":0.019752779975533485,"1101":-0.05755998194217682,"1102":-0.007180387619882822,"1103":0.01100440975278616,"1104":-0.017094573006033897,"1105":-0.02777961827814579,"1106":0.07736362516880035,"1107":0.07478827983140945,"1108":-0.05133817344903946,"1109":-0.06641913950443268,"1110":-0.03880497068166733,"1111":0.05423540249466896,"1112":-0.034440651535987854,"1113":-0.05882244557142258,"1114":-0.04199287295341492,"1115":0.07855047285556793,"1116":0.032028328627347946,"1117":-0.023056363686919212,"1118":0.036398861557245255,"1119":0.016122791916131973,"1120":-0.013784785754978657,"1121":0.022054165601730347}},"hiddenLayers":[{"inputMatrix":{"rows":20,"columns":33,"weights":{"0":-0.8980838656425476,"1":-0.29419583082199097,"2":-0.4078175127506256,"3":-0.899514377117157,"4":-0.09028997272253036,"5":-1.7477812767028809,"6":-0.9193020462989807,"7":-1.3378485441207886,"8":0.47828584909439087,"9":2.0810635089874268,"10":-1.1765317916870117,"11":-0.36610138416290283,"12":0.34700411558151245,"13":-0.31897127628326416,"14":0.141581192612648,"15":0.4235224425792694,"16":0.6259456872940063,"17":0.34087470173835754,"18":1.1720468997955322,"19":-0.6798303723335266,"20":-0.9966326951980591,"21":-0.9630048274993896,"22":0.5411550998687744,"23":1.0886372327804565,"24":0.22154222428798676,"25":-0.33773916959762573,"26":0.15147727727890015,"27":-0.23313380777835846,"28":-1.2266346216201782,"29":0.07360437512397766,"30":1.4535610675811768,"31":0.08778519928455353,"32":-0.6315050721168518,"33":0.9665210843086243,"34":-0.6748793721199036,"35":1.0266692638397217,"36":-0.5129405856132507,"37":0.0060571953654289246,"38":0.3549613356590271,"39":2.3561947345733643,"40":-0.21803554892539978,"41":-0.22440344095230103,"42":-1.2135124206542969,"43":0.27121007442474365,"44":-0.4361284077167511,"45":-0.1504088193178177,"46":0.10551206767559052,"47":0.330043762922287,"48":0.024150202050805092,"49":-0.8977766633033752,"50":-0.47673821449279785,"51":-0.8638265132904053,"52":0.4191446006298065,"53":0.167857363820076,"54":0.5339329242706299,"55":-0.6567438840866089,"56":0.9229902625083923,"57":0.37642163038253784,"58":-0.1364486813545227,"59":-0.5280810594558716,"60":0.7993437647819519,"61":0.2746659219264984,"62":0.546973705291748,"63":-0.5409703254699707,"64":-0.23620688915252686,"65":0.021492667496204376,"66":0.9056177735328674,"67":1.8816405534744263,"68":0.8432905673980713,"69":0.4433237612247467,"70":-1.4172594547271729,"71":0.4317805767059326,"72":1.1885130405426025,"73":-0.2263677567243576,"74":1.4096347093582153,"75":-0.4880080819129944,"76":-0.7864042520523071,"77":-0.26526302099227905,"78":1.268871545791626,"79":0.6163566708564758,"80":0.07660740613937378,"81":-1.198325276374817,"82":-0.6650730967521667,"83":2.5651066303253174,"84":0.8865801692008972,"85":1.0558688640594482,"86":-0.391767680644989,"87":0.6137415170669556,"88":-0.6556727290153503,"89":0.11405225098133087,"90":-0.3615702986717224,"91":0.4547773003578186,"92":0.5031470656394958,"93":1.1144567728042603,"94":-0.15267352759838104,"95":-1.1097508668899536,"96":-0.9747260212898254,"97":-0.3842606246471405,"98":-0.2506689727306366,"99":-0.48144739866256714,"100":0.2747703194618225,"101":-0.6843568086624146,"102":-0.1259220391511917,"103":1.3141125440597534,"104":0.5315880179405212,"105":1.0340245962142944,"106":0.900431215763092,"107":-0.974672794342041,"108":-1.2192336320877075,"109":0.9479473829269409,"110":0.1382484883069992,"111":-0.9401975274085999,"112":-1.3427512645721436,"113":-0.41802120208740234,"114":1.8699649572372437,"115":0.5690121650695801,"116":-1.372437834739685,"117":-0.464705228805542,"118":-1.2148010730743408,"119":-0.3307303190231323,"120":0.5408385992050171,"121":-0.8575268387794495,"122":1.0425300598144531,"123":0.32680901885032654,"124":-0.703670859336853,"125":0.19682440161705017,"126":0.22393882274627686,"127":-1.0979632139205933,"128":0.3365163207054138,"129":-0.21867436170578003,"130":-0.6146813631057739,"131":0.3202153146266937,"132":1.1600888967514038,"133":0.9674761295318604,"134":0.5363790988922119,"135":0.646300196647644,"136":-0.5166758894920349,"137":-0.7370913624763489,"138":0.3096142113208771,"139":-1.630733847618103,"140":1.5248767137527466,"141":-0.46595725417137146,"142":-0.8872096538543701,"143":0.7724335789680481,"144":1.6594561338424683,"145":0.4087764322757721,"146":0.026223814114928246,"147":-1.228721022605896,"148":-0.9642605185508728,"149":2.55385684967041,"150":0.8290057182312012,"151":0.5330585837364197,"152":-1.2268723249435425,"153":0.03307659924030304,"154":-0.4340221583843231,"155":-0.28275415301322937,"156":0.1065605878829956,"157":0.7767354846000671,"158":-0.5995448231697083,"159":0.25076645612716675,"160":0.8550101518630981,"161":-1.9479942321777344,"162":-0.7519420385360718,"163":0.31131479144096375,"164":-0.3024488091468811,"165":0.3231416344642639,"166":-0.4600558578968048,"167":0.10974545776844025,"168":0.3681686520576477,"169":0.623630940914154,"170":1.5620545148849487,"171":0.8762630224227905,"172":1.5774799585342407,"173":-1.5003843307495117,"174":1.068841576576233,"175":0.8689215779304504,"176":-1.3845605850219727,"177":-0.7081186175346375,"178":-0.20557154715061188,"179":-0.5115066170692444,"180":1.6094028949737549,"181":0.383029043674469,"182":-0.6761679649353027,"183":0.5796138048171997,"184":0.7806015610694885,"185":1.732217788696289,"186":0.033743735402822495,"187":1.1450315713882446,"188":-0.5908362865447998,"189":-0.7699594497680664,"190":-0.41324007511138916,"191":-1.3935397863388062,"192":1.2408314943313599,"193":0.11355666816234589,"194":0.5506590008735657,"195":-0.14981356263160706,"196":-1.9134441614151,"197":1.3132165670394897,"198":0.48381009697914124,"199":0.05182231590151787,"200":0.3640001714229584,"201":0.24207504093647003,"202":-1.224510669708252,"203":-0.46696358919143677,"204":-0.3387562036514282,"205":-1.3140369653701782,"206":0.18720020353794098,"207":1.159019947052002,"208":-1.196416974067688,"209":-0.9484345316886902,"210":0.9201909303665161,"211":1.0449514389038086,"212":0.5741035342216492,"213":-1.4735167026519775,"214":-0.4288210868835449,"215":0.1356530785560608,"216":1.3128958940505981,"217":-0.14171577990055084,"218":0.11602075397968292,"219":-1.414467215538025,"220":0.7110373973846436,"221":-0.7342312335968018,"222":-0.6942710876464844,"223":1.191544532775879,"224":-0.04452058672904968,"225":-0.424287348985672,"226":0.8876002430915833,"227":0.3932415246963501,"228":-0.7357882261276245,"229":0.08596943318843842,"230":-1.2771894931793213,"231":0.1269989013671875,"232":-1.5196658372879028,"233":0.6858845949172974,"234":0.24727575480937958,"235":0.3603571057319641,"236":-1.376150131225586,"237":-1.4580575227737427,"238":0.31213653087615967,"239":-1.0175710916519165,"240":-0.004457282368093729,"241":-0.3678423762321472,"242":1.8777949810028076,"243":0.44790324568748474,"244":-0.24532578885555267,"245":-1.3067206144332886,"246":0.5418543219566345,"247":0.7596017718315125,"248":-0.15176238119602203,"249":-0.4232375919818878,"250":-0.28322872519493103,"251":-1.9597328901290894,"252":0.11920864880084991,"253":0.9215450286865234,"254":0.4420669972896576,"255":0.4334595799446106,"256":-0.19993291795253754,"257":-0.280548095703125,"258":-0.9426918029785156,"259":1.0634186267852783,"260":-0.5588264465332031,"261":-0.8779890537261963,"262":1.4471790790557861,"263":-0.05228731036186218,"264":0.856903612613678,"265":-0.3717745542526245,"266":-1.768630027770996,"267":-0.1505119502544403,"268":0.12136928737163544,"269":-1.2190818786621094,"270":-0.3059403896331787,"271":-1.5684276819229126,"272":0.28158894181251526,"273":0.23359617590904236,"274":0.046848658472299576,"275":1.6856491565704346,"276":-0.17517000436782837,"277":-1.5280574560165405,"278":-1.3247610330581665,"279":0.5471727848052979,"280":-0.5106108784675598,"281":-1.0195209980010986,"282":-0.2503085434436798,"283":0.539892315864563,"284":-1.2658153772354126,"285":1.4090780019760132,"286":0.0839124396443367,"287":-0.16970506310462952,"288":0.6654605269432068,"289":1.14187753200531,"290":2.576402187347412,"291":0.28756579756736755,"292":0.9942215085029602,"293":-0.2587735056877136,"294":-0.6176835894584656,"295":0.9383086562156677,"296":-0.10504893958568573,"297":0.19408109784126282,"298":0.572188138961792,"299":-0.5110489726066589,"300":0.7995248436927795,"301":0.5908825397491455,"302":1.7960926294326782,"303":-0.8554114699363708,"304":0.9487540125846863,"305":-0.06787668168544769,"306":-1.560716152191162,"307":0.550828754901886,"308":1.1144479513168335,"309":0.1295394003391266,"310":-1.795364260673523,"311":-1.9382810592651367,"312":1.2781100273132324,"313":0.9394713044166565,"314":-0.4848373532295227,"315":-0.7734068632125854,"316":0.3184565007686615,"317":0.15897013247013092,"318":2.387467384338379,"319":-0.7796304225921631,"320":-1.079333782196045,"321":0.1473759114742279,"322":-1.3905514478683472,"323":1.1404650211334229,"324":-0.1552148312330246,"325":0.800155758857727,"326":-0.8742900490760803,"327":-1.4267284870147705,"328":-0.3304995000362396,"329":-0.022976741194725037,"330":0.6090354919433594,"331":-0.049232542514801025,"332":1.6520771980285645,"333":0.2291857898235321,"334":-1.85466730594635,"335":0.7390912175178528,"336":-0.10161148756742477,"337":-0.6848577857017517,"338":-0.30883875489234924,"339":0.7848007678985596,"340":-0.8359555602073669,"341":-0.021234093233942986,"342":1.2039772272109985,"343":1.5727229118347168,"344":1.4675945043563843,"345":-0.7315111756324768,"346":-1.4084174633026123,"347":0.5446703433990479,"348":1.2443244457244873,"349":0.5904768705368042,"350":1.0049697160720825,"351":-1.3758201599121094,"352":0.9979807138442993,"353":0.36908021569252014,"354":-0.3677144944667816,"355":0.45332637429237366,"356":-0.9866564273834229,"357":0.14592961966991425,"358":0.5870891809463501,"359":-0.647984504699707,"360":-1.8021483421325684,"361":-0.225166454911232,"362":-0.8635099530220032,"363":-0.7237752676010132,"364":0.019280651584267616,"365":0.9987733960151672,"366":0.5774263739585876,"367":-0.711277186870575,"368":1.1576517820358276,"369":-0.8307790756225586,"370":1.8650858402252197,"371":-0.6602292656898499,"372":-0.07087680697441101,"373":-0.8144932389259338,"374":0.9692543148994446,"375":0.6692975163459778,"376":0.4916265904903412,"377":0.7252592444419861,"378":0.21050725877285004,"379":0.2442682385444641,"380":-0.15428349375724792,"381":1.1298059225082397,"382":0.510897696018219,"383":1.1604175567626953,"384":0.565135657787323,"385":1.3788080215454102,"386":-0.05566397309303284,"387":0.8125053644180298,"388":-0.5625364780426025,"389":-1.2812888622283936,"390":0.41686153411865234,"391":0.41896048188209534,"392":-1.0165208578109741,"393":-0.38272562623023987,"394":0.1135784164071083,"395":-0.20692095160484314,"396":1.1241798400878906,"397":0.16011422872543335,"398":2.277726650238037,"399":0.3815375864505768,"400":-1.01394522190094,"401":0.02926979400217533,"402":-0.28187480568885803,"403":0.31253743171691895,"404":0.20729409158229828,"405":-1.7810893058776855,"406":-1.0226304531097412,"407":0.36865919828414917,"408":2.2007052898406982,"409":1.2544808387756348,"410":1.281709909439087,"411":-1.0021647214889526,"412":0.09555044770240784,"413":0.6929400563240051,"414":0.017658010125160217,"415":-0.963805615901947,"416":-0.36867037415504456,"417":1.278096318244934,"418":0.5723247528076172,"419":-0.5373664498329163,"420":1.259760856628418,"421":-0.38397204875946045,"422":-0.43351876735687256,"423":-0.05233589932322502,"424":-0.08180530369281769,"425":-0.7830103635787964,"426":-1.688913345336914,"427":0.666915774345398,"428":-1.2157111167907715,"429":-1.290853500366211,"430":-0.6552635431289673,"431":0.09428755939006805,"432":-0.3657377064228058,"433":-0.40665507316589355,"434":-1.3235735893249512,"435":-2.158559799194336,"436":-1.1923973560333252,"437":0.21436887979507446,"438":0.5098785758018494,"439":-0.684511125087738,"440":0.9708328247070312,"441":-0.1564270555973053,"442":0.05159290134906769,"443":-0.09179843962192535,"444":-0.6612202525138855,"445":0.5049712061882019,"446":-0.14967525005340576,"447":-0.5311312079429626,"448":-0.641645073890686,"449":-0.8951466083526611,"450":0.001963821705430746,"451":-0.3271804451942444,"452":0.7679459452629089,"453":0.7839027047157288,"454":-0.8642932176589966,"455":0.9059094786643982,"456":-1.6798388957977295,"457":1.1155203580856323,"458":-0.5422565937042236,"459":0.4994705617427826,"460":2.0217583179473877,"461":-0.54558926820755,"462":-0.01299695111811161,"463":-0.462283194065094,"464":1.402873158454895,"465":-0.23620036244392395,"466":-1.9100922346115112,"467":0.037862371653318405,"468":-0.808620274066925,"469":-0.23305459320545197,"470":0.08298397809267044,"471":-0.1428994983434677,"472":-1.8970043659210205,"473":0.40502482652664185,"474":0.8211629390716553,"475":1.5812486410140991,"476":1.3868309259414673,"477":-1.3018856048583984,"478":-0.793851912021637,"479":0.49891725182533264,"480":0.9975050091743469,"481":0.40049704909324646,"482":-0.005098944529891014,"483":-0.44043347239494324,"484":0.676741898059845,"485":-0.046267639845609665,"486":1.1178464889526367,"487":0.6903849840164185,"488":-0.3006359040737152,"489":-0.2703801095485687,"490":0.5682510137557983,"491":-0.7193751335144043,"492":-1.0191667079925537,"493":0.776073157787323,"494":-1.3905301094055176,"495":0.11570011079311371,"496":0.7620835304260254,"497":0.5352208018302917,"498":-0.08211563527584076,"499":-0.3074699640274048,"500":-1.3136721849441528,"501":-1.063227653503418,"502":-0.5130710601806641,"503":0.8384042382240295,"504":-0.7803764343261719,"505":-1.938292384147644,"506":0.6655747890472412,"507":1.2263919115066528,"508":0.02056298218667507,"509":0.8384440541267395,"510":-1.3067405223846436,"511":0.02568584866821766,"512":1.8654543161392212,"513":1.2790369987487793,"514":-1.3284648656845093,"515":-1.8724230527877808,"516":0.2776382863521576,"517":-0.7659379839897156,"518":0.5632315278053284,"519":0.5042728185653687,"520":-0.3875989019870758,"521":-0.3159591853618622,"522":-0.9721366167068481,"523":0.17547060549259186,"524":-1.3944286108016968,"525":0.5246075987815857,"526":0.6324148774147034,"527":-2.309342384338379,"528":0.7847363352775574,"529":-0.22985351085662842,"530":0.4233047664165497,"531":1.3783577680587769,"532":-0.6187756657600403,"533":-0.16614902019500732,"534":1.2301830053329468,"535":-0.10763511061668396,"536":-0.43597325682640076,"537":0.11272116005420685,"538":-0.36111146211624146,"539":-0.5503317713737488,"540":0.6808788180351257,"541":0.5107864141464233,"542":0.3187099099159241,"543":-0.5995718836784363,"544":-1.4108251333236694,"545":0.3510051369667053,"546":-0.01894553191959858,"547":1.5757384300231934,"548":0.17803339660167694,"549":-1.2343549728393555,"550":1.1051511764526367,"551":-0.03311040252447128,"552":-0.767287015914917,"553":1.7750705480575562,"554":-0.6786220073699951,"555":1.2208278179168701,"556":0.9737669825553894,"557":0.11991843581199646,"558":-0.6863714456558228,"559":-0.7555673122406006,"560":-0.12433423846960068,"561":1.3501291275024414,"562":-1.3708354234695435,"563":-0.4449658989906311,"564":-0.6489477157592773,"565":0.7201334834098816,"566":-0.9319788813591003,"567":1.6552660465240479,"568":0.7783784866333008,"569":-1.8409017324447632,"570":-0.05507592484354973,"571":0.9066611528396606,"572":1.219594120979309,"573":-0.6850259304046631,"574":-0.5407702326774597,"575":-0.08589087426662445,"576":1.2199040651321411,"577":-0.1511041224002838,"578":-0.3903299868106842,"579":-1.1956058740615845,"580":0.29359400272369385,"581":-0.5804169178009033,"582":-1.6394412517547607,"583":0.03788238391280174,"584":0.7693926095962524,"585":-1.0515530109405518,"586":-0.9716036319732666,"587":-0.7874598503112793,"588":1.1463340520858765,"589":-0.974983274936676,"590":-0.14826394617557526,"591":0.6293085813522339,"592":-0.40944722294807434,"593":0.8987815380096436,"594":0.2883392870426178,"595":0.7847259640693665,"596":1.3663822412490845,"597":1.29593825340271,"598":0.19874556362628937,"599":1.2126843929290771,"600":0.7663356065750122,"601":1.4931727647781372,"602":0.9770320057868958,"603":-1.024515151977539,"604":0.12676724791526794,"605":-0.9469341039657593,"606":-0.21453921496868134,"607":0.22164860367774963,"608":0.2991836369037628,"609":-0.04140632972121239,"610":0.578021764755249,"611":1.2268847227096558,"612":0.20386295020580292,"613":2.3633995056152344,"614":0.7941878437995911,"615":1.1704468727111816,"616":0.8869554996490479,"617":-0.7344396710395813,"618":-0.2200416624546051,"619":0.09933114796876907,"620":-0.503793478012085,"621":2.319222927093506,"622":1.7715991735458374,"623":-0.2947614789009094,"624":-0.32417914271354675,"625":-1.9390217065811157,"626":1.3033238649368286,"627":-0.48878368735313416,"628":-0.46717023849487305,"629":0.03805170953273773,"630":-0.3833610713481903,"631":0.8315156698226929,"632":-0.4718187749385834,"633":-2.10516357421875,"634":-0.348295658826828,"635":-0.21424667537212372,"636":-0.27967917919158936,"637":-0.1767265498638153,"638":-0.6597427129745483,"639":-0.5473532676696777,"640":-1.534368634223938,"641":-0.6671968102455139,"642":0.20749372243881226,"643":-0.1454547643661499,"644":0.21415665745735168,"645":0.9942474961280823,"646":-0.546237051486969,"647":-0.8375762104988098,"648":-1.0349873304367065,"649":-0.14508342742919922,"650":-0.08212272077798843,"651":-1.0866210460662842,"652":-0.6783475279808044,"653":-0.013817401602864265,"654":-0.7327665090560913,"655":-0.03768887743353844,"656":1.0413501262664795,"657":1.158143162727356,"658":-0.5177324414253235,"659":0.17167147994041443}},"inputHidden":{"rows":20,"columns":20,"weights":{"0":0.3378903865814209,"1":0.5552768111228943,"2":-1.0532219409942627,"3":0.859298825263977,"4":1.804743766784668,"5":-0.3493221700191498,"6":-0.2889438569545746,"7":-0.3247264623641968,"8":-3.2558658123016357,"9":-0.354911744594574,"10":-0.26621049642562866,"11":-2.1278443336486816,"12":-1.4596149921417236,"13":0.8191560506820679,"14":-0.6548684239387512,"15":1.1109943389892578,"16":0.8362507224082947,"17":-2.0233919620513916,"18":0.9394059181213379,"19":1.4533506631851196,"20":0.6144696474075317,"21":0.3074043393135071,"22":0.6026197075843811,"23":2.402745008468628,"24":-1.6059786081314087,"25":1.2842686176300049,"26":1.2073681354522705,"27":1.2593002319335938,"28":-0.4125825762748718,"29":-4.37990140914917,"30":1.7897664308547974,"31":0.08984313905239105,"32":1.209224820137024,"33":-1.6729366779327393,"34":1.3657063245773315,"35":-2.9312262535095215,"36":-0.6814107298851013,"37":1.1027591228485107,"38":0.9081900119781494,"39":-1.7544293403625488,"40":1.6011888980865479,"41":0.09929200261831284,"42":-1.5135926008224487,"43":-0.10270927846431732,"44":0.4440147280693054,"45":1.3419158458709717,"46":-1.0723308324813843,"47":2.282632350921631,"48":0.3814700245857239,"49":1.0196889638900757,"50":0.25219690799713135,"51":0.2746243476867676,"52":-0.3566741347312927,"53":0.1972729116678238,"54":-0.8015207648277283,"55":0.027186919003725052,"56":1.0090336799621582,"57":0.3603217899799347,"58":0.32510724663734436,"59":-0.03255549073219299,"60":-0.5635437369346619,"61":0.5366191864013672,"62":0.06176440790295601,"63":1.3904638290405273,"64":-1.2383400201797485,"65":0.8083120584487915,"66":0.40013694763183594,"67":-0.3034486174583435,"68":0.09125694632530212,"69":-0.2157556712627411,"70":-0.7378842234611511,"71":-1.2693216800689697,"72":-1.266424298286438,"73":-0.5771111249923706,"74":-0.720318615436554,"75":-0.27109548449516296,"76":-2.3714377880096436,"77":-0.7017226815223694,"78":1.0387171506881714,"79":1.9213322401046753,"80":-1.5659350156784058,"81":-0.45106008648872375,"82":-0.020217470824718475,"83":0.028693031519651413,"84":-0.335821270942688,"85":0.4733661711215973,"86":-0.7254809737205505,"87":0.6468934416770935,"88":0.036918818950653076,"89":-0.506316602230072,"90":-1.182918667793274,"91":-0.5385393500328064,"92":-0.6502794623374939,"93":0.3158668279647827,"94":-0.3923599421977997,"95":-0.00900502409785986,"96":-0.5489282011985779,"97":0.4568418264389038,"98":0.14236591756343842,"99":-0.007036632392555475,"100":0.4060259759426117,"101":0.6599152684211731,"102":-1.0901355743408203,"103":0.23004785180091858,"104":-0.647493302822113,"105":0.3461114168167114,"106":-2.103965997695923,"107":0.16166375577449799,"108":-1.8973538875579834,"109":0.5274629592895508,"110":-0.9388608932495117,"111":-0.3880443871021271,"112":-0.5564430952072144,"113":0.9997504353523254,"114":-1.6371320486068726,"115":1.1397433280944824,"116":-0.8034146428108215,"117":-0.5359339118003845,"118":0.1946268081665039,"119":0.10982445627450943,"120":0.3782452940940857,"121":-0.8563228249549866,"122":0.39883941411972046,"123":-0.21377305686473846,"124":1.5363152027130127,"125":-0.4080646336078644,"126":1.988439679145813,"127":-0.9495254158973694,"128":0.622531533241272,"129":1.9666775465011597,"130":0.8269799947738647,"131":0.7460864782333374,"132":1.740995168685913,"133":0.007960207760334015,"134":1.2747704982757568,"135":-0.4345777928829193,"136":0.281147301197052,"137":0.502377450466156,"138":-0.3434295356273651,"139":-0.8032068014144897,"140":-0.19471004605293274,"141":0.4358873665332794,"142":0.690209150314331,"143":-0.11014289408922195,"144":-0.4713047444820404,"145":0.33245280385017395,"146":-0.26483431458473206,"147":1.1136480569839478,"148":1.808408260345459,"149":1.1149972677230835,"150":-1.651422142982483,"151":-0.5047023892402649,"152":-0.82313472032547,"153":0.0506262443959713,"154":-0.007108840625733137,"155":-0.39375948905944824,"156":0.3695710003376007,"157":0.9880903959274292,"158":0.26672643423080444,"159":-1.981431007385254,"160":-0.4428173899650574,"161":0.48607736825942993,"162":0.8695210814476013,"163":0.5980811715126038,"164":-1.437535047531128,"165":0.3266769349575043,"166":1.3898916244506836,"167":-2.34454345703125,"168":-0.5443068742752075,"169":0.6828330159187317,"170":0.3777851462364197,"171":0.23694375157356262,"172":1.0436439514160156,"173":-1.335437536239624,"174":0.14489449560642242,"175":-0.3241773545742035,"176":-1.583488941192627,"177":-0.7200154662132263,"178":-0.31653210520744324,"179":-1.196778655052185,"180":-0.37549611926078796,"181":1.039908528327942,"182":-0.7317072749137878,"183":-1.0008236169815063,"184":-0.8722410202026367,"185":0.45467546582221985,"186":0.04005284979939461,"187":0.2538925111293793,"188":-1.7968391180038452,"189":-0.8661949634552002,"190":-0.4019945561885834,"191":-0.27179446816444397,"192":-0.43838247656822205,"193":-0.5229756236076355,"194":-0.6577841639518738,"195":-1.261495590209961,"196":-1.9187983274459839,"197":0.05203051120042801,"198":-0.7189105749130249,"199":-0.15571866929531097,"200":1.3595408201217651,"201":-1.3977612257003784,"202":-0.8029851913452148,"203":-0.06018980219960213,"204":0.400338739156723,"205":-0.43253353238105774,"206":0.43679964542388916,"207":0.5998857617378235,"208":-0.5031599998474121,"209":-0.9402529001235962,"210":0.3496413230895996,"211":0.2666420638561249,"212":0.9198277592658997,"213":-1.16829252243042,"214":0.8427656292915344,"215":-0.9526963233947754,"216":-1.0262062549591064,"217":1.245701789855957,"218":-0.8366035223007202,"219":-1.6681115627288818,"220":-0.20581339299678802,"221":-0.25252485275268555,"222":0.2608616352081299,"223":-0.24704349040985107,"224":-1.234025001525879,"225":1.7969399690628052,"226":0.9118766188621521,"227":-0.7572919726371765,"228":2.0942506790161133,"229":1.2715270519256592,"230":-0.47870656847953796,"231":0.6025158166885376,"232":0.8112919330596924,"233":-1.6401190757751465,"234":2.055863618850708,"235":-0.8758818507194519,"236":-1.261552095413208,"237":0.6847508549690247,"238":-1.0785701274871826,"239":-1.0828227996826172,"240":-0.3673253655433655,"241":-0.19482573866844177,"242":0.7908268570899963,"243":-0.49029114842414856,"244":-0.8112965822219849,"245":-0.5256811380386353,"246":0.41618436574935913,"247":-0.047378059476614,"248":-0.5911563038825989,"249":0.3181364834308624,"250":-0.974018394947052,"251":1.5449973344802856,"252":0.5427318811416626,"253":-0.10941826552152634,"254":-0.5945295691490173,"255":-1.6756404638290405,"256":-0.7859708666801453,"257":0.03341958671808243,"258":0.17807678878307343,"259":-0.7047773003578186,"260":-0.4397258758544922,"261":0.4898625910282135,"262":-0.7566850185394287,"263":-0.9815205931663513,"264":-0.09331927448511124,"265":-1.6441457271575928,"266":-1.6686441898345947,"267":0.3265902101993561,"268":-0.3234063386917114,"269":-0.5997263193130493,"270":2.3245534896850586,"271":-0.6282384991645813,"272":0.07507000863552094,"273":1.5389740467071533,"274":-1.2295101881027222,"275":1.3859660625457764,"276":0.5286980867385864,"277":-1.4876371622085571,"278":-0.7299787998199463,"279":0.8175852298736572,"280":1.6402219533920288,"281":0.8647189140319824,"282":0.543297290802002,"283":-0.3556036651134491,"284":1.2771246433258057,"285":-0.8377522826194763,"286":0.8553677797317505,"287":-1.1166805028915405,"288":0.7413465976715088,"289":1.127281665802002,"290":-1.0891646146774292,"291":1.822778344154358,"292":0.8818923234939575,"293":-0.9641836881637573,"294":-0.13576462864875793,"295":-1.3515305519104004,"296":1.2929967641830444,"297":0.3728705048561096,"298":-1.6825200319290161,"299":-1.4961512088775635,"300":-0.35283127427101135,"301":-0.03631439805030823,"302":0.34671202301979065,"303":1.1066800355911255,"304":-0.43153682351112366,"305":-1.3878604173660278,"306":-0.7308805584907532,"307":-0.4346504211425781,"308":-0.24899084866046906,"309":-0.7518791556358337,"310":0.0031056900043040514,"311":0.4564620554447174,"312":0.06908470392227173,"313":0.6721358895301819,"314":-1.521331548690796,"315":0.49140194058418274,"316":-0.4445199966430664,"317":-1.3542879819869995,"318":-1.3574376106262207,"319":1.3762128353118896,"320":0.8552703857421875,"321":-0.2105163186788559,"322":-2.14963698387146,"323":-0.08788135647773743,"324":0.36309224367141724,"325":0.12567460536956787,"326":-1.847191333770752,"327":0.6074671745300293,"328":-0.9516565203666687,"329":0.023969868198037148,"330":-0.7852569222450256,"331":-1.470552682876587,"332":-1.0942562818527222,"333":1.30240797996521,"334":-1.3081722259521484,"335":0.4553423821926117,"336":-2.1680142879486084,"337":-0.7887541651725769,"338":0.31288468837738037,"339":1.071521282196045,"340":-0.013550289906561375,"341":-1.6085504293441772,"342":1.877184510231018,"343":0.6578029990196228,"344":-0.9084101319313049,"345":-0.29261472821235657,"346":1.6231099367141724,"347":-1.0694828033447266,"348":1.5397861003875732,"349":-1.8416577577590942,"350":0.24357660114765167,"351":1.1968135833740234,"352":2.1519274711608887,"353":-1.9703387022018433,"354":2.089709520339966,"355":-2.099329710006714,"356":0.374517023563385,"357":-0.6851524710655212,"358":0.8214918375015259,"359":-0.6026028990745544,"360":-0.205976665019989,"361":-0.16547217965126038,"362":1.6394566297531128,"363":-0.10367840528488159,"364":-0.6091699004173279,"365":1.8362958431243896,"366":0.7381921410560608,"367":0.8848552703857422,"368":-0.23142032325267792,"369":0.05825066938996315,"370":-0.7991243600845337,"371":-0.6764281988143921,"372":0.17959469556808472,"373":-0.012019012123346329,"374":0.4027518332004547,"375":0.013948707841336727,"376":0.017216628417372704,"377":-0.6873114705085754,"378":1.8905377388000488,"379":0.288122296333313,"380":0.36949703097343445,"381":-0.015565600246191025,"382":0.1580124795436859,"383":-1.6243360042572021,"384":-0.2263660728931427,"385":-0.09520608931779861,"386":1.3089457750320435,"387":-0.46175652742385864,"388":1.5659524202346802,"389":1.2466485500335693,"390":1.9819087982177734,"391":2.6758880615234375,"392":2.147505760192871,"393":-1.3246928453445435,"394":2.2940359115600586,"395":-2.4373068809509277,"396":0.6166915893554688,"397":0.043162159621715546,"398":0.9693824648857117,"399":-1.1072372198104858}},"inputBias":{"rows":20,"columns":1,"weights":{"0":-0.977605402469635,"1":-0.460097074508667,"2":-0.8283070921897888,"3":-0.43237775564193726,"4":0.1525719165802002,"5":-0.5551145076751709,"6":0.33102428913116455,"7":0.7724575996398926,"8":0.1847599744796753,"9":1.4237638711929321,"10":-0.611091136932373,"11":0.8281994462013245,"12":0.17485229671001434,"13":0.5016784071922302,"14":0.6474774479866028,"15":0.6600167155265808,"16":-0.26252877712249756,"17":-1.717964768409729,"18":-0.8091930747032166,"19":0.6916964054107666}},"forgetMatrix":{"rows":20,"columns":33,"weights":{"0":-1.4861985445022583,"1":-1.6132603883743286,"2":-0.37897390127182007,"3":-1.4753550291061401,"4":-0.37890350818634033,"5":-0.3228970468044281,"6":-1.8057609796524048,"7":0.22060716152191162,"8":-0.25843924283981323,"9":1.6414434909820557,"10":-0.9310163259506226,"11":-0.05866043269634247,"12":0.699371874332428,"13":-0.0910373255610466,"14":-0.025412844493985176,"15":0.05267343297600746,"16":0.1711607724428177,"17":0.13933075964450836,"18":2.2577104568481445,"19":-1.0398156642913818,"20":0.7329959869384766,"21":-1.0543034076690674,"22":0.23830510675907135,"23":-0.07344856858253479,"24":0.7686267495155334,"25":-0.2454732358455658,"26":-1.0842424631118774,"27":-1.7557674646377563,"28":-0.26067987084388733,"29":-0.15887345373630524,"30":0.9298373460769653,"31":0.5401158928871155,"32":-0.5604231953620911,"33":-1.3883198499679565,"34":1.1751632690429688,"35":-0.477817177772522,"36":0.48309066891670227,"37":-0.5487364530563354,"38":0.529604971408844,"39":-0.9547132253646851,"40":-0.2427343726158142,"41":1.5562955141067505,"42":-1.1578130722045898,"43":0.10644443333148956,"44":0.8026924729347229,"45":-0.2468542754650116,"46":-0.20261509716510773,"47":-0.4734519124031067,"48":-0.009420217014849186,"49":1.6285521984100342,"50":0.14675061404705048,"51":0.055967796593904495,"52":-0.5699376463890076,"53":-0.6377283334732056,"54":1.2016792297363281,"55":-0.21975623071193695,"56":-0.7636635899543762,"57":1.193411946296692,"58":0.48134517669677734,"59":2.1486740112304688,"60":-0.9330244064331055,"61":-0.0403953418135643,"62":-0.24862608313560486,"63":-0.5967261791229248,"64":1.1007097959518433,"65":-0.4077754318714142,"66":0.7446480989456177,"67":0.8522658348083496,"68":-0.7848373651504517,"69":0.39609983563423157,"70":0.5545904040336609,"71":-1.8912458419799805,"72":-1.5800073146820068,"73":-1.3900357484817505,"74":0.07712972909212112,"75":0.402704656124115,"76":0.02855234593153,"77":-0.21286483108997345,"78":0.325161337852478,"79":-0.9239274859428406,"80":-0.3998821973800659,"81":-0.3845742642879486,"82":-1.9143400192260742,"83":0.6346145868301392,"84":0.8338397145271301,"85":0.2699070870876312,"86":-1.1397013664245605,"87":0.5164041519165039,"88":0.6343922019004822,"89":-1.4843043088912964,"90":-0.197871133685112,"91":1.4432532787322998,"92":0.30020567774772644,"93":-0.7113248705863953,"94":1.8181307315826416,"95":-0.8151528239250183,"96":0.029899708926677704,"97":-0.22354844212532043,"98":0.081099733710289,"99":0.20181754231452942,"100":-1.47353196144104,"101":0.5509117841720581,"102":0.5876029133796692,"103":-0.14080099761486053,"104":-0.20932956039905548,"105":-0.23152698576450348,"106":0.10192986577749252,"107":-1.5401511192321777,"108":0.4685400724411011,"109":-0.35502856969833374,"110":-0.07162317633628845,"111":-0.261450856924057,"112":0.46469858288764954,"113":0.33105725049972534,"114":-0.26971107721328735,"115":-0.6617109179496765,"116":-0.8153591752052307,"117":0.32766637206077576,"118":0.43227583169937134,"119":-0.16861099004745483,"120":-1.1531589031219482,"121":1.1755025386810303,"122":0.6276695132255554,"123":-0.7147665619850159,"124":0.4519595801830292,"125":-0.4426541328430176,"126":0.11935034394264221,"127":0.1780361384153366,"128":0.5109891295433044,"129":0.3913780748844147,"130":0.27127087116241455,"131":-0.041547078639268875,"132":0.2519972324371338,"133":0.8237893581390381,"134":-0.1849929243326187,"135":0.31625691056251526,"136":0.8718827366828918,"137":1.4669582843780518,"138":0.6842295527458191,"139":1.261879801750183,"140":-0.18594731390476227,"141":-0.8540029525756836,"142":2.0037360191345215,"143":-1.8207640647888184,"144":-1.0665161609649658,"145":-0.46762803196907043,"146":-0.6794686913490295,"147":1.5590169429779053,"148":0.44655001163482666,"149":-0.09218686819076538,"150":-1.2749112844467163,"151":0.707334041595459,"152":0.540262758731842,"153":0.7535269856452942,"154":-0.6350070834159851,"155":-1.3935497999191284,"156":-0.9309157729148865,"157":0.7696316242218018,"158":0.32970836758613586,"159":0.5158360600471497,"160":-0.4948866665363312,"161":1.0884523391723633,"162":0.19679155945777893,"163":-2.07468581199646,"164":1.5078579187393188,"165":-0.6161122918128967,"166":-0.011320163495838642,"167":-0.14894481003284454,"168":0.28873810172080994,"169":-0.6562715768814087,"170":1.2499744892120361,"171":0.15624044835567474,"172":-0.43389639258384705,"173":0.016670573502779007,"174":0.5415508151054382,"175":0.23343563079833984,"176":-0.9582557082176208,"177":0.6809232234954834,"178":0.7325655817985535,"179":0.4160153865814209,"180":-0.17853817343711853,"181":0.2233874648809433,"182":-0.3141762316226959,"183":0.13731032609939575,"184":0.10702934116125107,"185":1.6219996213912964,"186":-0.6587256789207458,"187":-0.6314770579338074,"188":-0.6808839440345764,"189":0.2591874599456787,"190":-0.5121163129806519,"191":-0.3073938190937042,"192":-0.1032014787197113,"193":-0.629976212978363,"194":0.4052819609642029,"195":-0.5447663068771362,"196":-0.7421798706054688,"197":0.0757429450750351,"198":0.4002596139907837,"199":-0.20075319707393646,"200":0.7871006727218628,"201":0.4309997260570526,"202":-1.3154194355010986,"203":0.07625558972358704,"204":0.16483423113822937,"205":-1.264229416847229,"206":0.8686821460723877,"207":0.3207639157772064,"208":-0.49259576201438904,"209":0.5075327157974243,"210":0.9518881440162659,"211":0.9201220273971558,"212":0.6263111233711243,"213":-0.8746753931045532,"214":-0.1833752691745758,"215":0.00030435313237830997,"216":0.6394517421722412,"217":0.38373804092407227,"218":0.004094418603926897,"219":-0.19136148691177368,"220":0.0822019949555397,"221":0.4094751477241516,"222":0.7343668937683105,"223":0.45298153162002563,"224":0.523960530757904,"225":0.30358871817588806,"226":-0.24927446246147156,"227":-0.6188909411430359,"228":-1.5520575046539307,"229":0.23691196739673615,"230":-1.203235387802124,"231":-0.5626314282417297,"232":0.9995245933532715,"233":-0.7034792304039001,"234":-0.05320797488093376,"235":0.9145525097846985,"236":-0.28157275915145874,"237":-0.09927894920110703,"238":0.07625622302293777,"239":0.7855269312858582,"240":-0.10075654834508896,"241":0.7907050251960754,"242":-1.2226359844207764,"243":-0.9624046683311462,"244":-0.5387341976165771,"245":-1.0607202053070068,"246":0.8128732442855835,"247":0.17768625915050507,"248":-0.3635544776916504,"249":-0.5568634271621704,"250":0.2965471148490906,"251":-0.296139657497406,"252":-0.36588728427886963,"253":-0.8865196108818054,"254":-0.8614077568054199,"255":-0.14203515648841858,"256":1.3083181381225586,"257":1.1736433506011963,"258":-0.11907735466957092,"259":0.15376147627830505,"260":1.4298325777053833,"261":0.5524781346321106,"262":-1.0039325952529907,"263":1.1073567867279053,"264":-0.6333903670310974,"265":-0.027720751240849495,"266":0.29355859756469727,"267":-0.06345073878765106,"268":-0.005419494584202766,"269":0.34961292147636414,"270":-0.312435120344162,"271":-0.7275026440620422,"272":-0.00641361391171813,"273":0.9131869673728943,"274":0.011602507904171944,"275":-0.3003145754337311,"276":0.30002495646476746,"277":0.14983905851840973,"278":-0.25211790204048157,"279":0.05838177725672722,"280":0.5394686460494995,"281":-0.9627917408943176,"282":-0.1989351511001587,"283":-0.3941088616847992,"284":0.7877318263053894,"285":0.09875375777482986,"286":-0.4285518527030945,"287":-0.4634924829006195,"288":0.4337112605571747,"289":-1.1644933223724365,"290":-0.10103554278612137,"291":-0.7574618458747864,"292":0.07393741607666016,"293":-0.8846923112869263,"294":0.056733809411525726,"295":-0.07221686840057373,"296":-0.506568193435669,"297":-0.19709470868110657,"298":-1.235595703125,"299":-0.9985259771347046,"300":-0.4586103558540344,"301":0.9424636363983154,"302":0.11491032689809799,"303":-0.05497048795223236,"304":0.9085060954093933,"305":-1.9023526906967163,"306":-0.6442588567733765,"307":0.29133594036102295,"308":1.128855586051941,"309":-0.836277186870575,"310":-0.8789676427841187,"311":-0.3506760597229004,"312":1.179395318031311,"313":0.5972579717636108,"314":-0.9477825164794922,"315":-0.8888692855834961,"316":-1.1492328643798828,"317":-0.7520553469657898,"318":-0.1328466832637787,"319":0.07672779262065887,"320":1.2839158773422241,"321":-0.7696701884269714,"322":-1.2375189065933228,"323":-0.13206961750984192,"324":-0.03232313692569733,"325":-1.3659498691558838,"326":0.3813307583332062,"327":0.5616293549537659,"328":0.4161900579929352,"329":0.28721973299980164,"330":0.009552424773573875,"331":0.2896314263343811,"332":-0.9487457275390625,"333":0.2846085727214813,"334":1.0085073709487915,"335":0.10729756951332092,"336":-0.3412221670150757,"337":-0.4185367524623871,"338":0.16414794325828552,"339":-0.6638510823249817,"340":0.941575825214386,"341":-0.8839855790138245,"342":-1.4234049320220947,"343":-0.7627093195915222,"344":-1.9325158596038818,"345":0.9292216300964355,"346":-0.44614407420158386,"347":-1.0259742736816406,"348":-1.0588816404342651,"349":0.6210771203041077,"350":0.17537112534046173,"351":-0.031182168051600456,"352":0.299694687128067,"353":-1.5662108659744263,"354":-0.35524246096611023,"355":0.6334158182144165,"356":0.9082502126693726,"357":-0.20137670636177063,"358":1.4151719808578491,"359":1.4767913818359375,"360":0.40813493728637695,"361":-0.8274734020233154,"362":1.092295527458191,"363":-0.294587641954422,"364":0.5101938843727112,"365":1.6166943311691284,"366":1.5517873764038086,"367":-1.0347518920898438,"368":0.8614091277122498,"369":-0.12131214886903763,"370":0.6684829592704773,"371":1.1650269031524658,"372":-1.6522623300552368,"373":-0.5760568976402283,"374":0.1750263273715973,"375":0.7594259977340698,"376":1.1137912273406982,"377":1.4932771921157837,"378":-0.847230076789856,"379":0.3410322368144989,"380":0.211436927318573,"381":0.0727439746260643,"382":0.04451477527618408,"383":0.9004941582679749,"384":1.1423436403274536,"385":0.5149145126342773,"386":-1.1222734451293945,"387":2.415682315826416,"388":-0.19060204923152924,"389":-0.8442879915237427,"390":-0.2810598313808441,"391":-0.33549562096595764,"392":-0.5340550541877747,"393":-1.4002246856689453,"394":0.5001233816146851,"395":-0.8926361203193665,"396":-1.3513529300689697,"397":-1.172226905822754,"398":1.1344883441925049,"399":-1.0339391231536865,"400":0.5087063312530518,"401":-1.2745048999786377,"402":0.3271917402744293,"403":1.4815236330032349,"404":0.06913021206855774,"405":-1.279365062713623,"406":0.5885322093963623,"407":0.4614799916744232,"408":-0.4232337474822998,"409":0.1861974596977234,"410":0.7752798795700073,"411":0.23936736583709717,"412":0.9844444394111633,"413":-0.20001733303070068,"414":-0.5908551812171936,"415":-1.7096439599990845,"416":-0.13224567472934723,"417":-0.24176743626594543,"418":-0.7989248037338257,"419":0.4879853427410126,"420":1.1172467470169067,"421":-1.2594568729400635,"422":-1.2490136623382568,"423":-1.4829421043395996,"424":-1.7225927114486694,"425":0.6529589295387268,"426":0.18806718289852142,"427":0.7018989324569702,"428":0.25217893719673157,"429":0.690605640411377,"430":0.16030572354793549,"431":0.7436662912368774,"432":0.43352270126342773,"433":-1.6683919429779053,"434":-0.5062637329101562,"435":-0.35389024019241333,"436":-0.8648834228515625,"437":0.1716541051864624,"438":0.4875164031982422,"439":-1.5377476215362549,"440":-0.17089757323265076,"441":0.49957752227783203,"442":1.2183085680007935,"443":0.6038529276847839,"444":-1.7722176313400269,"445":-0.8556144833564758,"446":0.6712281703948975,"447":1.0754120349884033,"448":0.24073109030723572,"449":0.007697662804275751,"450":-1.1439647674560547,"451":0.9243505597114563,"452":-0.8184914588928223,"453":0.2656770646572113,"454":0.700190544128418,"455":-0.20949088037014008,"456":-0.20238514244556427,"457":-0.2509525716304779,"458":0.2625581920146942,"459":-0.23919226229190826,"460":0.00585282314568758,"461":-1.528875470161438,"462":-0.3873955309391022,"463":-0.05297830328345299,"464":-0.638360321521759,"465":0.6405328512191772,"466":-0.7361939549446106,"467":-1.8525882959365845,"468":-0.8173391819000244,"469":-2.423588275909424,"470":0.8138042688369751,"471":1.765564203262329,"472":-1.027860164642334,"473":-1.0125691890716553,"474":0.33410272002220154,"475":-0.28317952156066895,"476":-0.6778565645217896,"477":-0.5005209445953369,"478":0.2313714176416397,"479":0.393703430891037,"480":1.0053223371505737,"481":-0.03339025005698204,"482":-1.5434014797210693,"483":-0.8200276494026184,"484":-0.3951192796230316,"485":-0.12046167254447937,"486":-0.3809524476528168,"487":1.267716884613037,"488":1.7935123443603516,"489":-1.2123973369598389,"490":0.06028786674141884,"491":0.13234136998653412,"492":1.067358374595642,"493":-0.2886068820953369,"494":-1.2468862533569336,"495":-0.12508445978164673,"496":-0.002533956663683057,"497":-0.19905687868595123,"498":-0.5503469109535217,"499":-0.5987505912780762,"500":-0.3876718282699585,"501":0.08616885542869568,"502":-1.618282437324524,"503":1.0878840684890747,"504":2.3977279663085938,"505":-0.26567620038986206,"506":-0.12579967081546783,"507":0.8104588389396667,"508":-0.12105972319841385,"509":-0.19593574106693268,"510":-1.4048101902008057,"511":0.2738383114337921,"512":2.2661173343658447,"513":1.5476956367492676,"514":-0.4445812702178955,"515":-0.09775707125663757,"516":-0.6401066780090332,"517":-1.2383242845535278,"518":-0.1407313346862793,"519":-1.0291281938552856,"520":1.1501551866531372,"521":-0.10318692028522491,"522":-0.3786778151988983,"523":-1.6089293956756592,"524":-0.004679024685174227,"525":0.43215736746788025,"526":-0.19443798065185547,"527":-0.5327555537223816,"528":1.6674962043762207,"529":2.042595863342285,"530":-0.37367385625839233,"531":1.2957814931869507,"532":0.8248884677886963,"533":0.828423023223877,"534":0.5715042948722839,"535":-0.3423745632171631,"536":0.8005346655845642,"537":-0.5012707710266113,"538":0.4603794515132904,"539":0.6018354892730713,"540":0.2227315604686737,"541":-1.1541690826416016,"542":-0.384277880191803,"543":0.2634125351905823,"544":0.26096370816230774,"545":0.9534082412719727,"546":-0.4383445680141449,"547":1.4400901794433594,"548":-0.6215011477470398,"549":1.9922012090682983,"550":-0.6362136602401733,"551":-0.8333795666694641,"552":-0.9463054537773132,"553":0.40642908215522766,"554":1.1421853303909302,"555":1.774922251701355,"556":0.9520010352134705,"557":-1.0491605997085571,"558":-0.277975469827652,"559":-0.3447401523590088,"560":0.30087944865226746,"561":1.167001724243164,"562":-0.9244815111160278,"563":-0.641273021697998,"564":1.2591508626937866,"565":-0.06263642758131027,"566":0.03125976026058197,"567":0.37049752473831177,"568":-0.30959662795066833,"569":-0.9860972166061401,"570":1.5318199396133423,"571":-0.6460922956466675,"572":-0.21957458555698395,"573":0.5606837868690491,"574":-0.6620842814445496,"575":-0.4915091395378113,"576":0.10932330787181854,"577":-1.315327763557434,"578":-0.6576271653175354,"579":0.46442312002182007,"580":0.7042275667190552,"581":-0.09862974286079407,"582":0.18236277997493744,"583":0.6933619976043701,"584":-0.5645478367805481,"585":-0.5251128673553467,"586":1.230279564857483,"587":-0.49062371253967285,"588":0.49085840582847595,"589":0.9658689498901367,"590":-0.04719198867678642,"591":-0.9541258811950684,"592":-1.130845069885254,"593":-0.9128694534301758,"594":0.44011932611465454,"595":1.042559027671814,"596":-0.24785898625850677,"597":-0.23033037781715393,"598":0.4520437717437744,"599":0.1652079075574875,"600":-0.2897931933403015,"601":0.40351560711860657,"602":0.874793529510498,"603":-1.7733486890792847,"604":0.04039980471134186,"605":0.6572655439376831,"606":0.30714428424835205,"607":-0.7367133498191833,"608":-0.4239811897277832,"609":-0.2813543975353241,"610":0.015961458906531334,"611":0.8325260877609253,"612":-0.0075108702294528484,"613":-0.6161186099052429,"614":-0.5587009191513062,"615":1.270858883857727,"616":-1.0548627376556396,"617":-0.414914071559906,"618":0.5730510354042053,"619":0.8196976184844971,"620":0.6683835387229919,"621":0.19466561079025269,"622":-0.10921867936849594,"623":-0.43106183409690857,"624":-0.16978751122951508,"625":-0.8428908586502075,"626":0.6407065987586975,"627":0.3484051525592804,"628":0.7720682621002197,"629":0.1129625216126442,"630":0.2246093899011612,"631":-0.8307099938392639,"632":-0.23749558627605438,"633":0.7500975728034973,"634":-1.4210807085037231,"635":1.1879156827926636,"636":1.3786801099777222,"637":-0.20201119780540466,"638":-0.6156594753265381,"639":1.2080785036087036,"640":0.38853123784065247,"641":0.4875219762325287,"642":-1.871120572090149,"643":0.1666060984134674,"644":1.7530856132507324,"645":0.9792385101318359,"646":0.4872446656227112,"647":-0.08223313838243484,"648":-0.3223639726638794,"649":-0.5321722030639648,"650":0.037849411368370056,"651":-0.46342554688453674,"652":0.6713461875915527,"653":-0.2357853353023529,"654":0.5199667811393738,"655":-1.033321499824524,"656":-0.9150040149688721,"657":0.2287239134311676,"658":-0.14176607131958008,"659":-0.6265052556991577}},"forgetHidden":{"rows":20,"columns":20,"weights":{"0":0.8679641485214233,"1":0.9438239932060242,"2":-1.3120217323303223,"3":1.078822374343872,"4":2.140746593475342,"5":1.2284834384918213,"6":-0.7348078489303589,"7":0.028862541541457176,"8":0.6637563705444336,"9":0.9313814640045166,"10":-1.205775499343872,"11":0.7198605537414551,"12":-0.6171030402183533,"13":-0.168539360165596,"14":-0.5852112174034119,"15":-0.666096031665802,"16":-0.3924008011817932,"17":0.13595224916934967,"18":0.6960849165916443,"19":-0.14884553849697113,"20":1.3679206371307373,"21":0.21904583275318146,"22":-0.5407148599624634,"23":0.33745864033699036,"24":-0.5448458194732666,"25":0.26184484362602234,"26":-1.194486141204834,"27":0.020724739879369736,"28":-2.1690244674682617,"29":-1.1094071865081787,"30":0.9966376423835754,"31":-1.6076583862304688,"32":-1.2179304361343384,"33":1.7785098552703857,"34":-0.7501040697097778,"35":2.4459564685821533,"36":-0.9155061841011047,"37":-1.850024700164795,"38":0.09625203907489777,"39":1.6107672452926636,"40":-0.9822158217430115,"41":-0.31193310022354126,"42":-0.5604650378227234,"43":0.2511777877807617,"44":1.9839732646942139,"45":-0.7706051468849182,"46":1.1156154870986938,"47":-1.300856590270996,"48":-0.05782443657517433,"49":1.4897468090057373,"50":0.6911978125572205,"51":1.752656102180481,"52":0.16567066311836243,"53":-0.1419723927974701,"54":0.7527382969856262,"55":0.14683955907821655,"56":0.51043701171875,"57":0.8568975925445557,"58":-0.4624748229980469,"59":0.27163153886795044,"60":0.7384472489356995,"61":0.1052313968539238,"62":-0.1326153576374054,"63":-1.120036005973816,"64":-0.4706742763519287,"65":0.07112255692481995,"66":-1.0323020219802856,"67":0.7828070521354675,"68":0.11964266747236252,"69":1.1805925369262695,"70":-0.6231554746627808,"71":0.560821533203125,"72":-0.07143963128328323,"73":0.5769161581993103,"74":-0.37977758049964905,"75":0.13739128410816193,"76":0.054376501590013504,"77":0.9702909588813782,"78":0.2242027223110199,"79":-1.2714903354644775,"80":0.268219918012619,"81":-0.8219243884086609,"82":-0.5163257122039795,"83":0.29685673117637634,"84":-0.12272436916828156,"85":-0.17818403244018555,"86":-0.22585999965667725,"87":0.3690125644207001,"88":-0.33658841252326965,"89":-0.2466951608657837,"90":-0.7244144082069397,"91":0.26736292243003845,"92":-0.1187230795621872,"93":0.2811185419559479,"94":0.059134069830179214,"95":0.06535746902227402,"96":0.282821387052536,"97":-0.9574428200721741,"98":-0.273533433675766,"99":0.3885292112827301,"100":-0.040624216198921204,"101":-0.5527968406677246,"102":-0.029899638146162033,"103":0.07006853818893433,"104":0.5766965746879578,"105":-1.2371398210525513,"106":1.0046305656433105,"107":-1.1927732229232788,"108":0.4646511375904083,"109":0.561554491519928,"110":0.7720385193824768,"111":0.18085932731628418,"112":1.1246947050094604,"113":-0.5238114595413208,"114":0.3332939147949219,"115":0.8742115497589111,"116":-0.39490073919296265,"117":0.12064158916473389,"118":0.05508029833436012,"119":0.3895283639431,"120":-0.9842014908790588,"121":0.23263278603553772,"122":2.2270865440368652,"123":-2.083618402481079,"124":-1.7674286365509033,"125":0.8621824383735657,"126":-1.3061213493347168,"127":1.4859378337860107,"128":0.2892853617668152,"129":1.5629961490631104,"130":0.7928180694580078,"131":-0.3486528694629669,"132":-0.4198378622531891,"133":1.1440188884735107,"134":0.2775155305862427,"135":0.8969148397445679,"136":1.2604862451553345,"137":1.0941822528839111,"138":1.9396376609802246,"139":-0.9279826283454895,"140":0.4695003628730774,"141":1.4579981565475464,"142":-0.620019257068634,"143":-0.8871695399284363,"144":-0.7798239588737488,"145":0.3146481215953827,"146":0.6365082263946533,"147":1.262298822402954,"148":-1.3762152194976807,"149":-0.049048494547605515,"150":0.35718634724617004,"151":-0.3419661521911621,"152":-1.1149930953979492,"153":0.06632557511329651,"154":-1.1171045303344727,"155":0.548004686832428,"156":-0.5461534857749939,"157":-1.1682558059692383,"158":0.623467743396759,"159":0.4979963004589081,"160":-1.1578633785247803,"161":-3.0184361934661865,"162":1.5458571910858154,"163":-0.828341007232666,"164":0.12668928503990173,"165":0.9991810917854309,"166":0.7522467374801636,"167":-0.0013356886338442564,"168":0.8943252563476562,"169":0.28532397747039795,"170":-0.9063952565193176,"171":1.252325415611267,"172":1.3963462114334106,"173":-0.7154066562652588,"174":2.003441572189331,"175":-2.125119209289551,"176":1.8981393575668335,"177":0.6085307002067566,"178":-1.9164375066757202,"179":-2.1664788722991943,"180":0.3593860864639282,"181":-0.721264660358429,"182":-1.800486445426941,"183":0.9139837026596069,"184":0.4310963749885559,"185":-0.26994723081588745,"186":-0.46868929266929626,"187":-0.7029009461402893,"188":0.36675533652305603,"189":-0.2947455644607544,"190":0.358358234167099,"191":-0.2366933822631836,"192":-0.8440920114517212,"193":0.935541033744812,"194":-0.2774386405944824,"195":0.9033151865005493,"196":-0.7697718739509583,"197":0.5379070043563843,"198":-1.9870047569274902,"199":0.29171323776245117,"200":0.7322965264320374,"201":-0.9285869002342224,"202":-0.4892617464065552,"203":2.494734048843384,"204":-2.1412227153778076,"205":0.03111661598086357,"206":-0.35324162244796753,"207":0.1059587150812149,"208":0.09177622944116592,"209":0.5922510027885437,"210":0.7318860292434692,"211":-0.6103245615959167,"212":-0.32703107595443726,"213":-0.0007335498812608421,"214":0.5358920693397522,"215":1.3474801778793335,"216":-0.38097554445266724,"217":-1.3353447914123535,"218":1.2625386714935303,"219":-0.3663554787635803,"220":-1.5682518482208252,"221":-0.5695014595985413,"222":2.6763312816619873,"223":0.3370721638202667,"224":0.016567420214414597,"225":-0.732389509677887,"226":1.674289584159851,"227":-0.5051625967025757,"228":1.3779059648513794,"229":0.5020160675048828,"230":-2.3386881351470947,"231":0.14945966005325317,"232":0.4214603006839752,"233":-1.5393370389938354,"234":0.43874675035476685,"235":0.06689716875553131,"236":-0.04438908398151398,"237":0.3287959396839142,"238":1.8332798480987549,"239":-0.8594703078269958,"240":-1.6789519786834717,"241":-0.3651559352874756,"242":-0.8801186084747314,"243":-1.9405802488327026,"244":-1.3140590190887451,"245":-0.8531768321990967,"246":-0.40017780661582947,"247":-1.812113881111145,"248":1.9365971088409424,"249":0.04020005092024803,"250":0.8361349105834961,"251":1.4561362266540527,"252":0.7141709327697754,"253":0.4710436761379242,"254":-0.7896117568016052,"255":0.7586498260498047,"256":-0.01952998898923397,"257":2.4565799236297607,"258":-0.46489110589027405,"259":0.5267645716667175,"260":0.08181539177894592,"261":0.23347508907318115,"262":0.7267821431159973,"263":-0.3442426025867462,"264":-0.11947590112686157,"265":-0.33801621198654175,"266":0.2896258533000946,"267":0.3329179883003235,"268":1.0885034799575806,"269":0.5803087949752808,"270":0.5370780229568481,"271":0.5099653005599976,"272":0.6156883835792542,"273":0.5504152774810791,"274":1.0216423273086548,"275":-1.4221227169036865,"276":0.8168423175811768,"277":2.1258246898651123,"278":0.20514732599258423,"279":-1.1784698963165283,"280":-1.6026510000228882,"281":-0.9201828837394714,"282":0.7233467102050781,"283":-0.30397355556488037,"284":-0.9134768843650818,"285":-0.38581132888793945,"286":0.6081182956695557,"287":-1.2183282375335693,"288":0.01936398632824421,"289":0.20558208227157593,"290":1.2336103916168213,"291":-0.8021780848503113,"292":0.7169032692909241,"293":-1.030299186706543,"294":0.08223181962966919,"295":1.2607839107513428,"296":-0.725703775882721,"297":-0.6457375288009644,"298":-0.48595231771469116,"299":0.2501089572906494,"300":-0.6275051832199097,"301":-1.2896641492843628,"302":1.187806248664856,"303":-0.3224533200263977,"304":2.686062812805176,"305":-0.2635309398174286,"306":0.5855453610420227,"307":0.8330932259559631,"308":0.8968685269355774,"309":2.32519268989563,"310":-0.3579604923725128,"311":-0.04608238860964775,"312":0.3945125937461853,"313":-0.6440592408180237,"314":0.523954451084137,"315":0.47067350149154663,"316":1.2668229341506958,"317":-0.6544195413589478,"318":0.0021613845601677895,"319":0.730121910572052,"320":-1.8355780839920044,"321":-1.1242296695709229,"322":0.10815006494522095,"323":-0.413948118686676,"324":0.3092937171459198,"325":0.44487395882606506,"326":1.3285291194915771,"327":0.5131717920303345,"328":-0.27927929162979126,"329":0.4363135099411011,"330":1.1396256685256958,"331":-1.2076809406280518,"332":0.2298455834388733,"333":-0.09885161370038986,"334":1.38590407371521,"335":0.34878087043762207,"336":1.0615421533584595,"337":-0.6375852823257446,"338":-0.02179422229528427,"339":0.22578668594360352,"340":1.3617833852767944,"341":1.5197852849960327,"342":-0.16556793451309204,"343":0.7170590162277222,"344":-0.2701353430747986,"345":-0.8383521437644958,"346":0.17909540235996246,"347":0.08412595093250275,"348":0.5054336190223694,"349":-2.08691143989563,"350":-0.8253583908081055,"351":0.9506791234016418,"352":0.2873036563396454,"353":-0.6034514904022217,"354":0.061750490218400955,"355":-2.8797473907470703,"356":-1.3114103078842163,"357":1.7684053182601929,"358":-0.11816024780273438,"359":-1.4599897861480713,"360":-0.5026547908782959,"361":-0.1751408576965332,"362":0.1928836554288864,"363":-0.2859058678150177,"364":0.03269582614302635,"365":0.5724313259124756,"366":-0.11825387179851532,"367":0.7400393486022949,"368":-0.5616302490234375,"369":0.6396998763084412,"370":-0.6120582222938538,"371":0.10747084766626358,"372":-0.11312162131071091,"373":-0.18175452947616577,"374":0.3701801300048828,"375":-0.07625620812177658,"376":0.8752154111862183,"377":-0.8083859086036682,"378":1.0119831562042236,"379":-0.6210488677024841,"380":-0.16676437854766846,"381":-0.734245777130127,"382":-0.733242928981781,"383":-0.28799980878829956,"384":1.1348098516464233,"385":-0.14086472988128662,"386":0.34053587913513184,"387":-0.5383013486862183,"388":-0.9840694069862366,"389":-1.0521186590194702,"390":0.645203173160553,"391":0.8346706032752991,"392":0.8457003235816956,"393":-0.28743070363998413,"394":0.5138302445411682,"395":-0.7152557969093323,"396":1.7074564695358276,"397":2.392796039581299,"398":-0.6030573844909668,"399":-1.2125974893569946}},"forgetBias":{"rows":20,"columns":1,"weights":{"0":0,"1":0,"2":0,"3":0,"4":0,"5":0,"6":0,"7":0,"8":0,"9":0,"10":0,"11":0,"12":0,"13":0,"14":0,"15":0,"16":0,"17":0,"18":0,"19":0}},"outputMatrix":{"rows":20,"columns":33,"weights":{"0":0.3405558466911316,"1":1.0374534130096436,"2":-0.3711406886577606,"3":-1.4168283939361572,"4":-0.9606149792671204,"5":-0.19066227972507477,"6":-0.4319816827774048,"7":0.28333067893981934,"8":0.38389649987220764,"9":0.30449098348617554,"10":-0.5191256403923035,"11":1.0251632928848267,"12":1.3214043378829956,"13":0.9497433304786682,"14":0.5598455667495728,"15":0.3224678933620453,"16":0.4283507168292999,"17":0.6679165959358215,"18":1.0098985433578491,"19":-0.3540847897529602,"20":0.22746789455413818,"21":0.8579837679862976,"22":0.6941304206848145,"23":0.5553774237632751,"24":1.343222737312317,"25":-0.9619979858398438,"26":0.2376806139945984,"27":0.2553074061870575,"28":-0.3975638449192047,"29":-2.425440549850464,"30":-0.518717348575592,"31":0.5219560861587524,"32":-0.18594825267791748,"33":0.9125726222991943,"34":0.9900093078613281,"35":0.9794695377349854,"36":1.2468955516815186,"37":-1.1320464611053467,"38":-0.835216224193573,"39":0.7193644642829895,"40":-0.5844186544418335,"41":0.7179328203201294,"42":-1.7477483749389648,"43":-1.7057384252548218,"44":-0.17089062929153442,"45":1.5353838205337524,"46":0.3838839530944824,"47":0.5662205219268799,"48":-1.5308088064193726,"49":-0.7501487135887146,"50":1.3530231714248657,"51":1.307675838470459,"52":0.5276266932487488,"53":-1.125178575515747,"54":0.2149488776922226,"55":-0.3005034327507019,"56":0.5360640287399292,"57":0.2381782829761505,"58":2.1812641620635986,"59":-0.14826415479183197,"60":0.6063835024833679,"61":0.4802226424217224,"62":-0.638360321521759,"63":-0.693606972694397,"64":-0.33582234382629395,"65":-0.9327208399772644,"66":0.9277191162109375,"67":1.3871569633483887,"68":1.6147947311401367,"69":0.747475266456604,"70":-1.7809548377990723,"71":-0.1948293298482895,"72":0.9595236778259277,"73":-1.0296403169631958,"74":2.0118308067321777,"75":-0.5863372087478638,"76":-0.7613946199417114,"77":0.9262824654579163,"78":1.5717827081680298,"79":0.7433345317840576,"80":-0.2561574876308441,"81":-1.0872344970703125,"82":-1.0585323572158813,"83":1.5680112838745117,"84":0.5701255798339844,"85":0.9814592003822327,"86":-0.3208543360233307,"87":0.8910669684410095,"88":-0.19194962084293365,"89":-0.714073657989502,"90":0.20880085229873657,"91":0.9927397966384888,"92":-0.16376958787441254,"93":0.18027155101299286,"94":0.7130439877510071,"95":-1.910093069076538,"96":-1.4517245292663574,"97":0.41243690252304077,"98":-0.4304792881011963,"99":-1.1238707304000854,"100":-1.8238983154296875,"101":-0.3039551377296448,"102":0.13173770904541016,"103":0.4634857773780823,"104":0.03540552034974098,"105":-0.20451435446739197,"106":-0.534459114074707,"107":-2.68550443649292,"108":0.08050568401813507,"109":0.4077271521091461,"110":-1.5527698993682861,"111":-1.0147532224655151,"112":-0.27431291341781616,"113":0.06688667833805084,"114":0.877515971660614,"115":-1.2516733407974243,"116":-1.7614519596099854,"117":0.3030508756637573,"118":-0.044736821204423904,"119":0.9711039662361145,"120":-1.8668135404586792,"121":0.53238844871521,"122":1.3804599046707153,"123":-0.5454432964324951,"124":0.0037026030477136374,"125":-0.30859559774398804,"126":-0.12691433727741241,"127":0.5419295430183411,"128":0.5750781893730164,"129":0.9319134950637817,"130":-0.5552200078964233,"131":0.41335296630859375,"132":2.576047897338867,"133":0.601809024810791,"134":1.257227897644043,"135":0.4547964334487915,"136":-0.8183680176734924,"137":0.8211498260498047,"138":1.616166114807129,"139":-0.9507878422737122,"140":1.5057419538497925,"141":-0.4102741777896881,"142":0.12672090530395508,"143":0.9163250923156738,"144":-0.0278819240629673,"145":0.7588561773300171,"146":-0.5017386674880981,"147":-0.21058514714241028,"148":0.044686902314424515,"149":0.11800020188093185,"150":-0.4483640789985657,"151":1.5313211679458618,"152":0.3709264099597931,"153":0.483346164226532,"154":0.02776685357093811,"155":-0.9046064615249634,"156":-0.08156173676252365,"157":-0.04315429925918579,"158":-0.3001428544521332,"159":0.9804812669754028,"160":-1.2340482473373413,"161":-0.8383079767227173,"162":-1.71451735496521,"163":0.4659494459629059,"164":0.2559288442134857,"165":0.12914766371250153,"166":1.0785770416259766,"167":1.6982543468475342,"168":0.9304952621459961,"169":0.0892617478966713,"170":0.7984017133712769,"171":0.6923152804374695,"172":1.7635040283203125,"173":-0.4752035140991211,"174":-1.2328526973724365,"175":0.22486761212348938,"176":-1.0420680046081543,"177":0.5894481539726257,"178":0.8362119793891907,"179":0.1888701170682907,"180":0.12883123755455017,"181":0.2485620528459549,"182":0.5795940160751343,"183":0.6333248019218445,"184":0.4871627390384674,"185":0.2620701193809509,"186":0.7986223697662354,"187":0.947209358215332,"188":-0.3327157497406006,"189":-0.6084797382354736,"190":0.08844888210296631,"191":-1.1499654054641724,"192":1.5620925426483154,"193":0.06682857871055603,"194":0.5462111234664917,"195":-0.5648789405822754,"196":-1.5734792947769165,"197":0.9886018633842468,"198":0.04851550608873367,"199":0.16918234527111053,"200":0.044913601130247116,"201":0.49504777789115906,"202":-0.8491171002388,"203":-0.9082311391830444,"204":-0.011739596724510193,"205":-2.104963541030884,"206":-0.01105260569602251,"207":1.5023994445800781,"208":-1.2437543869018555,"209":0.13055121898651123,"210":0.8191093802452087,"211":0.5518785715103149,"212":0.4955732524394989,"213":-1.6174392700195312,"214":-0.7049056887626648,"215":0.37323635816574097,"216":1.8767168521881104,"217":1.0097670555114746,"218":-0.3278278410434723,"219":-1.1979035139083862,"220":1.0611987113952637,"221":-1.252479076385498,"222":0.042329322546720505,"223":0.9670754075050354,"224":-0.03124832920730114,"225":0.417906790971756,"226":1.3873745203018188,"227":0.11882317811250687,"228":-0.05200815945863724,"229":0.5621649026870728,"230":-0.8635169267654419,"231":1.3972231149673462,"232":0.6525746583938599,"233":-0.706512987613678,"234":-0.7980773448944092,"235":0.8638362884521484,"236":-1.0528002977371216,"237":0.23351706564426422,"238":-0.2791787087917328,"239":-0.16890020668506622,"240":-0.28727802634239197,"241":1.1582061052322388,"242":-0.21000979840755463,"243":-0.9955998063087463,"244":-0.1226879432797432,"245":-0.8241122364997864,"246":0.9785240888595581,"247":-0.82960444688797,"248":-0.9461029767990112,"249":-1.497654914855957,"250":0.5181183815002441,"251":-0.8785008788108826,"252":1.4653143882751465,"253":-0.1565628945827484,"254":-1.3492894172668457,"255":-0.06969621032476425,"256":0.4261537790298462,"257":1.0664093494415283,"258":0.7959609031677246,"259":1.6448838710784912,"260":-0.8639411330223083,"261":0.19533425569534302,"262":-0.2812059223651886,"263":1.4973766803741455,"264":1.2806745767593384,"265":-0.718443751335144,"266":0.2754072844982147,"267":0.12498950213193893,"268":-0.7376748323440552,"269":-0.6813410520553589,"270":0.8468950390815735,"271":-0.06417861580848694,"272":-0.5435693860054016,"273":0.32507485151290894,"274":-0.8612424731254578,"275":-0.8124327063560486,"276":0.8510466814041138,"277":-0.26659512519836426,"278":-0.0951801985502243,"279":0.38815879821777344,"280":-0.963266909122467,"281":0.12586520612239838,"282":0.07487192004919052,"283":0.01101068127900362,"284":-0.03456370532512665,"285":0.3662252724170685,"286":0.8404269814491272,"287":-0.4221668243408203,"288":0.6914113163948059,"289":-0.09636325389146805,"290":-0.46841639280319214,"291":0.4847443699836731,"292":-0.16469153761863708,"293":-0.7100210189819336,"294":-0.6245847344398499,"295":-1.6678143739700317,"296":-1.2146861553192139,"297":-0.33310577273368835,"298":0.04828759655356407,"299":-1.3064626455307007,"300":-1.6069996356964111,"301":-0.11253934353590012,"302":-0.2680506110191345,"303":-1.2870830297470093,"304":-1.3241209983825684,"305":0.8122825622558594,"306":0.8533698320388794,"307":0.13332615792751312,"308":1.4019126892089844,"309":-0.0033271685242652893,"310":-0.966610312461853,"311":-0.9692198634147644,"312":-0.5619044303894043,"313":-0.06345237791538239,"314":0.34864935278892517,"315":-0.9823294878005981,"316":-1.2696056365966797,"317":-0.47498422861099243,"318":0.5513150691986084,"319":-0.9925971627235413,"320":-0.9103010892868042,"321":-0.13739800453186035,"322":-0.267040878534317,"323":1.5773166418075562,"324":-2.1310417652130127,"325":0.5195724964141846,"326":-0.6186041831970215,"327":0.11935388296842575,"328":1.013741135597229,"329":-0.37976816296577454,"330":1.2196067571640015,"331":1.1231368780136108,"332":-0.5446281433105469,"333":-0.13641579449176788,"334":-0.49701353907585144,"335":1.6377242803573608,"336":0.7311230301856995,"337":0.3662309944629669,"338":0.8079109191894531,"339":0.05498308688402176,"340":0.2759571075439453,"341":0.6767691373825073,"342":0.45439833402633667,"343":0.4437062740325928,"344":-0.006630768999457359,"345":0.7019726037979126,"346":0.29918354749679565,"347":-0.1510494351387024,"348":-0.1671818345785141,"349":0.7380532026290894,"350":1.2361907958984375,"351":2.590993642807007,"352":0.970423698425293,"353":-1.172592043876648,"354":0.06940516829490662,"355":-0.45539870858192444,"356":0.33851945400238037,"357":1.5772125720977783,"358":0.28842636942863464,"359":-1.5617039203643799,"360":-2.1284191608428955,"361":-0.2947535812854767,"362":0.41668814420700073,"363":-1.0593268871307373,"364":-0.8794409036636353,"365":0.8380753993988037,"366":0.9299675822257996,"367":0.6235488057136536,"368":-0.05174397677183151,"369":-2.4874584674835205,"370":0.8759698867797852,"371":-1.216673731803894,"372":-0.28220710158348083,"373":0.21527884900569916,"374":0.7417230606079102,"375":-0.8056772351264954,"376":-0.7256855368614197,"377":-0.7693332433700562,"378":0.7741272449493408,"379":1.0216180086135864,"380":-0.7693894505500793,"381":0.3850346803665161,"382":0.38227006793022156,"383":-0.6252582669258118,"384":0.3908440172672272,"385":1.2660343647003174,"386":0.38460665941238403,"387":0.5725401043891907,"388":0.012009448371827602,"389":0.8741438984870911,"390":-0.41150569915771484,"391":0.8216118812561035,"392":0.29588186740875244,"393":-0.6662706732749939,"394":0.9010552763938904,"395":0.47311991453170776,"396":0.5110169649124146,"397":1.119276523590088,"398":1.9938980340957642,"399":-0.026546930894255638,"400":-1.7583993673324585,"401":1.0654065608978271,"402":-0.9067668914794922,"403":1.159762978553772,"404":1.400396704673767,"405":-1.3009847402572632,"406":-0.41212198138237,"407":0.18916970491409302,"408":1.2134613990783691,"409":1.443172574043274,"410":0.32718193531036377,"411":-0.43946564197540283,"412":0.7551590800285339,"413":0.25944286584854126,"414":-0.3761010468006134,"415":-0.47830137610435486,"416":0.5094248652458191,"417":2.4555320739746094,"418":0.5905619263648987,"419":-1.2363297939300537,"420":1.6810967922210693,"421":-0.6096270680427551,"422":0.4936177730560303,"423":-0.8103231191635132,"424":0.13653957843780518,"425":-0.664750874042511,"426":-2.290903329849243,"427":0.7032574415206909,"428":-0.9913501739501953,"429":-0.7438293099403381,"430":0.2812715172767639,"431":0.30717456340789795,"432":0.5839300751686096,"433":-0.15336276590824127,"434":-0.748264491558075,"435":-1.4204522371292114,"436":-2.613743305206299,"437":-0.1264975219964981,"438":1.9563930034637451,"439":-0.5306628346443176,"440":-0.4932176172733307,"441":0.14408178627490997,"442":0.4349927306175232,"443":0.8934845924377441,"444":-1.9062843322753906,"445":-0.473935604095459,"446":-0.4693361520767212,"447":1.7199326753616333,"448":1.0351881980895996,"449":-0.42845427989959717,"450":-0.9189204573631287,"451":0.17465467751026154,"452":0.07157161831855774,"453":-0.3092328608036041,"454":-0.39949026703834534,"455":0.5305684804916382,"456":-0.14796099066734314,"457":2.2094733715057373,"458":-0.7227038145065308,"459":0.7604519724845886,"460":1.397308111190796,"461":0.19545336067676544,"462":-0.917585015296936,"463":-1.4501320123672485,"464":0.8779268860816956,"465":-0.731351375579834,"466":-0.41223087906837463,"467":-0.6276339888572693,"468":0.31533578038215637,"469":-0.7281608581542969,"470":-0.5976746678352356,"471":0.32959306240081787,