export default function anonymous(rawInput,isSampleI,temperature
/*``*/) {

  if (typeof rawInput === 'undefined') rawInput = [];
  if (typeof isSampleI === 'undefined') isSampleI = false;
  if (typeof temperature === 'undefined') temperature = 1;
  
var characterTable = {"0":"d","1":"r","2":"i","3":"v","4":"e","5":"h","6":"a","7":"w","8":" ","9":"n","10":"p","11":"o","12":"s","13":"u","14":"l","15":"y","16":".","17":"m","18":"t","19":"-","20":"f","21":"g","22":"2","23":"T","24":"B","25":"c","26":",","27":"b","28":null,"29":null,"30":null};
var indexTable = {"2":22,"d":0,"r":1,"i":2,"v":3,"e":4,"h":5,"a":6,"w":7," ":8,"n":9,"p":10,"o":11,"s":12,"u":13,"l":14,"y":15,".":16,"m":17,"t":18,"-":19,"f":20,"g":21,"T":23,"B":24,"c":25,",":26,"b":27,"stop-input":28,"start-output":29,"unrecognized":30};
var characters = ["d","r","i","v","e","h","a","w"," ","n","p","o","s","u","l","y",".","m","t","-","f","g","2","T","B","c",",","b","stop-input","start-output","unrecognized"];
function toIndexes(value) {
      var maxThreshold = arguments.length > 1 && arguments[1] !== undefined ? arguments[1] : 0;

      var result = [];
      
      for (var i = 0, max = value.length; i < max; i++) {
        var character = value[i];
        var index = indexTable[character];
        if (index === undefined) {
          if (indexTable['unrecognized']) {
            index = indexTable['unrecognized'];
          } else {
            throw new Error('unrecognized character "' + character + '"');
          }
        }
        if (index < maxThreshold) continue;
        result.push(index);
      }

      return result;
    }
function toIndexesInputOutput(value1) {
      var value2 = arguments.length > 1 && arguments[1] !== undefined ? arguments[1] : null;
      var maxThreshold = arguments.length > 2 && arguments[2] !== undefined ? arguments[2] : 0;

      var result = void 0;
      if (typeof value1 === 'string') {
        result = toIndexes(value1.split('').concat(['stop-input', 'start-output']), maxThreshold);
      } else {
        result = toIndexes(value1.concat(['stop-input', 'start-output']), maxThreshold);
      }

      if (value2 === null) return result;

      if (typeof value2 === 'string') {
        return result.concat(toIndexes(value2.split(''), maxThreshold));
      } else {
        return result.concat(toIndexes(value2, maxThreshold));
      }
    }
function toCharacters(indices) {
      var maxThreshold = arguments.length > 1 && arguments[1] !== undefined ? arguments[1] : 0;

      var result = [];
            var indexTable = indexTable;

      for (var i = 0, max = indices.length; i < max; i++) {
        var index = indices[i];
        if (index < maxThreshold) continue;
        var character = characterTable[index];
        if (character === undefined) {
          if (indexTable['unrecognized']) {
            character = characterTable[indexTable['unrecognized']];
          } else {
            throw new Error('unrecognized index "' + index + '"');
          }
        } else if (character !== null) {
          result.push(character);
        }
      }

      return result;
    }

  
  var input = formatDataIn(rawInput);
  var json = {"type":"LSTM","options":{"inputSize":31,"inputRange":31,"hiddenLayers":[20,20],"outputSize":31,"decayRate":0.999,"smoothEps":1e-8,"regc":0.000001,"clipval":5,"maxPredictionLength":100,"dataFormatter":{"values":["drive","hardware","i need a new power supply.","my unit-tests failed.","power supply","program","software","the drive has a 2TB capacity.","tried the program, but it was buggy.","unit-tests"],"indexTable":{"2":22,"d":0,"r":1,"i":2,"v":3,"e":4,"h":5,"a":6,"w":7," ":8,"n":9,"p":10,"o":11,"s":12,"u":13,"l":14,"y":15,".":16,"m":17,"t":18,"-":19,"f":20,"g":21,"T":23,"B":24,"c":25,",":26,"b":27,"stop-input":28,"start-output":29,"unrecognized":30},"characterTable":{"0":"d","1":"r","2":"i","3":"v","4":"e","5":"h","6":"a","7":"w","8":" ","9":"n","10":"p","11":"o","12":"s","13":"u","14":"l","15":"y","16":".","17":"m","18":"t","19":"-","20":"f","21":"g","22":"2","23":"T","24":"B","25":"c","26":",","27":"b","28":null,"29":null,"30":null},"characters":["d","r","i","v","e","h","a","w"," ","n","p","o","s","u","l","y",".","m","t","-","f","g","2","T","B","c",",","b","stop-input","start-output","unrecognized"],"specialIndexes":[28,29,30]}},"input":{"rows":32,"columns":31,"weights":{"0":-0.4589354693889618,"1":-0.044704098254442215,"2":-0.6802246570587158,"3":0.08052341639995575,"4":-1.7674329280853271,"5":-0.641727864742279,"6":0.8465529680252075,"7":0.8756504654884338,"8":0.6710665822029114,"9":0.1686142385005951,"10":0.7034766674041748,"11":-0.030876589938998222,"12":-0.5256531238555908,"13":0.14293643832206726,"14":-0.14286495745182037,"15":0.0690845474600792,"16":0.18863025307655334,"17":-0.01194710098206997,"18":0.3082548975944519,"19":0.07814446836709976,"20":-0.031919192522764206,"21":0.5292044281959534,"22":0.2575981616973877,"23":-1.0644971132278442,"24":0.1088949516415596,"25":-1.1999807357788086,"26":0.06863060593605042,"27":0.31191447377204895,"28":-0.5013231635093689,"29":-0.08178051561117172,"30":0.21847309172153473,"31":0.011169175617396832,"32":0.004104122053831816,"33":-1.9100430011749268,"34":-0.4292486906051636,"35":-0.7561529874801636,"36":-0.5773610472679138,"37":1.3600739240646362,"38":0.856133759021759,"39":0.3112943470478058,"40":1.7616368532180786,"41":1.0975933074951172,"42":-0.5869938135147095,"43":-0.5460837483406067,"44":0.7927642464637756,"45":0.5382872819900513,"46":0.5135530829429626,"47":-0.26465630531311035,"48":0.9961104989051819,"49":0.9126212000846863,"50":3.6518170833587646,"51":1.2924175262451172,"52":-0.3148464858531952,"53":-0.39885297417640686,"54":1.8675715923309326,"55":-0.08446404337882996,"56":-1.0910168886184692,"57":0.8538315296173096,"58":0.008272181265056133,"59":-1.424851894378662,"60":1.1202542781829834,"61":0.23538914322853088,"62":-0.541437566280365,"63":-0.6959069967269897,"64":0.9335877895355225,"65":0.4798925518989563,"66":0.2462415248155594,"67":0.20742537081241608,"68":-0.6681509613990784,"69":-0.18204709887504578,"70":-0.3035486042499542,"71":-0.38871273398399353,"72":-0.45572492480278015,"73":0.619279682636261,"74":0.520057737827301,"75":-0.801254153251648,"76":-0.5434391498565674,"77":0.018076259642839432,"78":0.05768416076898575,"79":-0.7052111625671387,"80":0.44567734003067017,"81":-0.16920562088489532,"82":-0.40374892950057983,"83":0.8396316170692444,"84":0.7381916642189026,"85":-0.6266875863075256,"86":0.2824692130088806,"87":0.140899658203125,"88":-0.7788351774215698,"89":0.3058207929134369,"90":0.3670986294746399,"91":0.08149700611829758,"92":0.43743279576301575,"93":1.0916388034820557,"94":-0.5577639937400818,"95":0.4473605155944824,"96":1.1219425201416016,"97":-0.07639075070619583,"98":-1.3759039640426636,"99":-0.295045405626297,"100":-0.06371836364269257,"101":0.051411908119916916,"102":-2.0214524269104004,"103":0.11282234638929367,"104":1.1542268991470337,"105":0.28293561935424805,"106":-0.3824719190597534,"107":-1.7332897186279297,"108":-0.29527297616004944,"109":-0.8933521509170532,"110":-2.0392696857452393,"111":-0.6274011135101318,"112":0.4836749732494354,"113":-0.4336269199848175,"114":1.5415973663330078,"115":1.5136899948120117,"116":-0.04914619401097298,"117":-0.031289584934711456,"118":-0.5977970361709595,"119":-1.3918267488479614,"120":0.04290356859564781,"121":0.0106138801202178,"122":-1.238492727279663,"123":-0.23393908143043518,"124":0.2531123161315918,"125":3.4976449012756348,"126":-0.9136773347854614,"127":-0.23453061282634735,"128":-1.6903986930847168,"129":2.1909372806549072,"130":-2.6121795177459717,"131":1.0404034852981567,"132":-2.342655658721924,"133":-2.050370693206787,"134":-0.392325222492218,"135":-0.4201791286468506,"136":0.039184484630823135,"137":0.13255742192268372,"138":0.6036292910575867,"139":-3.2930891513824463,"140":-2.804962396621704,"141":-0.3005901575088501,"142":-2.865856885910034,"143":-3.5604889392852783,"144":-2.19804048538208,"145":-0.5263280272483826,"146":0.4150199294090271,"147":3.0862183570861816,"148":-1.8701345920562744,"149":3.2115235328674316,"150":-0.20984753966331482,"151":-1.7229641675949097,"152":0.9904823899269104,"153":-1.8062604665756226,"154":-1.6026313304901123,"155":-0.3730402886867523,"156":1.4460134506225586,"157":0.5096108913421631,"158":0.019029051065444946,"159":-0.22066344320774078,"160":-1.105007529258728,"161":-1.06354820728302,"162":-0.12496301531791687,"163":-0.8446474671363831,"164":0.30381593108177185,"165":0.07283210009336472,"166":-0.4908691942691803,"167":0.07758446037769318,"168":-0.2984403073787689,"169":1.0890834331512451,"170":-1.38238525390625,"171":-0.6783233284950256,"172":-0.5620900988578796,"173":-0.8092876076698303,"174":-0.5331940650939941,"175":-0.6973628401756287,"176":-0.6026424169540405,"177":0.6005254983901978,"178":1.5197495222091675,"179":0.16504141688346863,"180":1.9268132448196411,"181":-0.7849334478378296,"182":0.09051141142845154,"183":-0.08321556448936462,"184":-1.1712406873703003,"185":-0.022914687171578407,"186":2.1233835220336914,"187":0.2284797877073288,"188":0.11886178702116013,"189":0.16903352737426758,"190":1.3373020887374878,"191":0.11425060033798218,"192":0.3141302168369293,"193":-1.7090646028518677,"194":-1.5522816181182861,"195":-1.05167555809021,"196":-0.8089259266853333,"197":1.172467589378357,"198":1.38289213180542,"199":-1.0284892320632935,"200":-1.1799265146255493,"201":-1.1245216131210327,"202":-0.4294959604740143,"203":-0.2995882034301758,"204":-1.0905150175094604,"205":0.8145549893379211,"206":0.005042419768869877,"207":0.9288673996925354,"208":0.2627118229866028,"209":3.249882936477661,"210":-1.0178873538970947,"211":1.0028527975082397,"212":-0.5823573470115662,"213":-1.3291330337524414,"214":0.9778037667274475,"215":-0.06559498608112335,"216":-1.3529936075210571,"217":-0.8427425026893616,"218":0.31224098801612854,"219":-0.3555055856704712,"220":-0.17146973311901093,"221":-0.6079840064048767,"222":0.5616294145584106,"223":0.4288160502910614,"224":0.5820863842964172,"225":0.6891250014305115,"226":-0.7388185858726501,"227":0.26957836747169495,"228":-0.6474724411964417,"229":-0.5319652557373047,"230":0.5407658219337463,"231":-0.48436659574508667,"232":0.8550313711166382,"233":1.2064584493637085,"234":-0.6158158779144287,"235":0.5156304836273193,"236":-1.5955196619033813,"237":-0.5581772327423096,"238":-0.012511979788541794,"239":0.25569120049476624,"240":0.6062474250793457,"241":0.8806694149971008,"242":-0.43755173683166504,"243":-0.2351340353488922,"244":0.8842653632164001,"245":0.05858719348907471,"246":-0.9304441213607788,"247":0.5374230742454529,"248":0.9842236042022705,"249":0.3850577473640442,"250":0.7697687149047852,"251":0.39905399084091187,"252":0.6453750729560852,"253":-0.44809362292289734,"254":-0.6681823134422302,"255":-0.9489722847938538,"256":-0.4288945198059082,"257":0.11080752313137054,"258":-0.40473368763923645,"259":0.037364717572927475,"260":0.3121654987335205,"261":-0.38103020191192627,"262":0.6164870262145996,"263":-0.4357292652130127,"264":-0.5238194465637207,"265":0.36123210191726685,"266":-0.12687750160694122,"267":-0.28867456316947937,"268":-0.0847800001502037,"269":-0.33910757303237915,"270":-0.6318405270576477,"271":1.4050607681274414,"272":-0.2378598004579544,"273":0.8253301382064819,"274":0.42461085319519043,"275":-0.09932894259691238,"276":0.43648311495780945,"277":-0.38282954692840576,"278":-0.7521862983703613,"279":0.25855669379234314,"280":1.2411707639694214,"281":-2.088043451309204,"282":-0.27506810426712036,"283":-1.3046430349349976,"284":-0.34216347336769104,"285":1.0624172687530518,"286":-0.11164305359125137,"287":2.23923921585083,"288":1.4667366743087769,"289":1.3622742891311646,"290":-0.7328974008560181,"291":-2.895739793777466,"292":2.7277920246124268,"293":0.9374498128890991,"294":0.09594257175922394,"295":0.6987499594688416,"296":-0.10970393568277359,"297":0.354801207780838,"298":0.7009640336036682,"299":1.4851797819137573,"300":-2.057818651199341,"301":-0.6050161123275757,"302":1.3889405727386475,"303":0.8623990416526794,"304":0.31843066215515137,"305":-0.021667469292879105,"306":-0.00680897943675518,"307":-0.784106433391571,"308":-0.09665378928184509,"309":1.150697946548462,"310":-0.9765104651451111,"311":1.3146549463272095,"312":1.8767380714416504,"313":-1.1312543153762817,"314":-1.4931949377059937,"315":1.8594449758529663,"316":1.0546709299087524,"317":1.2968049049377441,"318":1.5965849161148071,"319":-0.9035272002220154,"320":1.3459217548370361,"321":-1.4874871969223022,"322":-1.1029400825500488,"323":1.338517665863037,"324":-0.583992600440979,"325":2.351778984069824,"326":2.09421443939209,"327":-0.8479745388031006,"328":0.14961589872837067,"329":-2.0864763259887695,"330":-0.5926096439361572,"331":-1.033154845237732,"332":-0.04764900356531143,"333":-1.1864036321640015,"334":2.2674105167388916,"335":-2.3061888217926025,"336":-0.4351300895214081,"337":2.3762073516845703,"338":-1.0258738994598389,"339":-1.0538625717163086,"340":2.5239739418029785,"341":0.01768108271062374,"342":0.9004225730895996,"343":-1.2943978309631348,"344":-1.5216504335403442,"345":-1.4807538986206055,"346":0.10701946914196014,"347":1.0410531759262085,"348":1.5582915544509888,"349":1.1231772899627686,"350":-2.381242513656616,"351":1.1812015771865845,"352":-0.6827185153961182,"353":-1.3857191801071167,"354":1.6047450304031372,"355":0.5816469788551331,"356":0.47809240221977234,"357":0.1423298716545105,"358":0.9023814797401428,"359":0.09064171463251114,"360":-0.11796065419912338,"361":1.2416456937789917,"362":-0.850893497467041,"363":-1.5459959506988525,"364":-0.515235960483551,"365":0.48763447999954224,"366":-1.196455955505371,"367":1.5712820291519165,"368":0.2537912130355835,"369":-0.46133923530578613,"370":-0.007303338963538408,"371":-0.15495502948760986,"372":2.1233954429626465,"373":0.8670691847801208,"374":-1.6054083108901978,"375":0.3193018436431885,"376":0.6916579008102417,"377":-0.6204401850700378,"378":0.9922827482223511,"379":-0.9699254035949707,"380":0.12268895655870438,"381":1.2023584842681885,"382":0.7379827499389648,"383":-1.2783656120300293,"384":-0.22294795513153076,"385":0.6707459688186646,"386":0.8514805436134338,"387":0.023777250200510025,"388":-0.3747777044773102,"389":0.9396222829818726,"390":-2.3813655376434326,"391":0.8006117343902588,"392":-0.7604014873504639,"393":-1.5381009578704834,"394":-1.1419230699539185,"395":1.5752081871032715,"396":-1.783818244934082,"397":0.8470169901847839,"398":0.8625670075416565,"399":-1.7567543983459473,"400":-1.0070115327835083,"401":-0.7601209282875061,"402":-1.200818419456482,"403":-0.47611016035079956,"404":-0.2654549479484558,"405":0.20203083753585815,"406":-0.6628751158714294,"407":-0.9187026619911194,"408":2.2787106037139893,"409":0.11529409140348434,"410":0.5670865178108215,"411":0.5931583642959595,"412":0.7073462605476379,"413":0.5197049975395203,"414":-0.44570982456207275,"415":0.29784753918647766,"416":-0.701021134853363,"417":0.38721343874931335,"418":1.740770697593689,"419":0.6800685524940491,"420":0.2132454216480255,"421":1.3106497526168823,"422":-1.1305040121078491,"423":0.2980097532272339,"424":0.22083497047424316,"425":-0.10152754187583923,"426":-1.1207773685455322,"427":1.2592843770980835,"428":-1.4479527473449707,"429":0.0826520323753357,"430":1.4652241468429565,"431":-0.3381708860397339,"432":1.158962607383728,"433":1.5351288318634033,"434":-1.9425609111785889,"435":-0.17148485779762268,"436":-0.2064821869134903,"437":0.7393285632133484,"438":0.16440124809741974,"439":0.8769195675849915,"440":-0.37278279662132263,"441":-0.7457011342048645,"442":0.9235048294067383,"443":-1.833553671836853,"444":0.10105358809232712,"445":1.1237324476242065,"446":-0.8318873643875122,"447":0.9847261309623718,"448":-0.8628125190734863,"449":1.0751036405563354,"450":0.8870530128479004,"451":-0.48329490423202515,"452":1.407361626625061,"453":-0.6011596918106079,"454":-0.6625569462776184,"455":-0.4821912944316864,"456":0.0328986831009388,"457":-0.7954457998275757,"458":0.7275540232658386,"459":-0.21550680696964264,"460":-0.2807788550853729,"461":1.1651833057403564,"462":-0.17151859402656555,"463":0.7508510947227478,"464":1.1192961931228638,"465":-0.35013511776924133,"466":-1.2561135292053223,"467":0.8162651062011719,"468":1.8361016511917114,"469":2.4869048595428467,"470":0.8580620884895325,"471":-0.7215770483016968,"472":-2.7058770656585693,"473":-2.6244869232177734,"474":-0.539168119430542,"475":-2.4661788940429688,"476":0.3561073839664459,"477":2.3437082767486572,"478":-2.1077258586883545,"479":-0.8492053747177124,"480":0.23787808418273926,"481":0.8695758581161499,"482":-0.44499489665031433,"483":-0.36541908979415894,"484":-0.19924598932266235,"485":-2.3436217308044434,"486":0.6832367181777954,"487":0.25582000613212585,"488":-1.1653753519058228,"489":-0.17968644201755524,"490":2.2078664302825928,"491":-0.7075481414794922,"492":-0.30602315068244934,"493":1.1139719486236572,"494":-0.8999031782150269,"495":0.16041521728038788,"496":-0.3545127809047699,"497":-1.3511263132095337,"498":1.7497488260269165,"499":0.7213186025619507,"500":1.7224713563919067,"501":0.41839081048965454,"502":-1.4985105991363525,"503":-1.1231683492660522,"504":-1.2116656303405762,"505":-1.1803531646728516,"506":-1.4530469179153442,"507":1.636763334274292,"508":1.4611952304840088,"509":-1.481958270072937,"510":-0.7406323552131653,"511":-0.7597749829292297,"512":-0.3845055401325226,"513":-0.6851237416267395,"514":0.2432791143655777,"515":0.8999845385551453,"516":-0.37329649925231934,"517":0.9567902684211731,"518":1.1505664587020874,"519":-0.34292760491371155,"520":-0.25007039308547974,"521":1.3468327522277832,"522":-1.2949479818344116,"523":-0.40682414174079895,"524":1.0019670724868774,"525":0.3755752146244049,"526":0.020159803330898285,"527":-1.520337700843811,"528":-0.7234631776809692,"529":-2.1981592178344727,"530":1.186338186264038,"531":1.864719033241272,"532":3.1885342597961426,"533":-1.086241364479065,"534":-1.972962737083435,"535":-1.5589479207992554,"536":0.1255251169204712,"537":-1.8775984048843384,"538":1.9499009847640991,"539":1.950089454650879,"540":-1.549294352531433,"541":-1.1239498853683472,"542":-1.460548996925354,"543":-0.6297833323478699,"544":-0.7641156315803528,"545":0.027234626933932304,"546":-0.546673595905304,"547":-1.2597424983978271,"548":0.6093937754631042,"549":1.154222846031189,"550":1.8913873434066772,"551":-0.9195894598960876,"552":3.2197272777557373,"553":-0.8292470574378967,"554":-1.1007689237594604,"555":1.1314243078231812,"556":0.7416284084320068,"557":-0.5298656821250916,"558":-2.97054123878479,"559":-0.5471070408821106,"560":0.6055047512054443,"561":-0.2757052481174469,"562":-1.6194684505462646,"563":2.1593194007873535,"564":-2.259216070175171,"565":0.14353562891483307,"566":1.2883836030960083,"567":-0.24907344579696655,"568":0.556260347366333,"569":-0.4964747726917267,"570":0.702877402305603,"571":-0.3165193796157837,"572":0.476601243019104,"573":0.9529904723167419,"574":0.7331858277320862,"575":0.050739072263240814,"576":-0.14828379452228546,"577":-1.7421009540557861,"578":-1.4480502605438232,"579":0.5747325420379639,"580":0.6312716007232666,"581":-0.8586798310279846,"582":1.713519811630249,"583":-0.2200556993484497,"584":-0.18041673302650452,"585":1.8663766384124756,"586":-0.5297088623046875,"587":-1.3334136009216309,"588":2.700754165649414,"589":-0.5555962324142456,"590":0.0014630249934270978,"591":0.905137300491333,"592":-0.3675096333026886,"593":0.2793090045452118,"594":0.9507362842559814,"595":-0.7107407450675964,"596":-0.0633242279291153,"597":0.1617504507303238,"598":1.8062959909439087,"599":0.02527754008769989,"600":0.9274409413337708,"601":-0.23619014024734497,"602":0.12280583381652832,"603":1.6241265535354614,"604":-0.2532702684402466,"605":0.31870752573013306,"606":0.2915564477443695,"607":0.33263400197029114,"608":0.4862242043018341,"609":0.09531914442777634,"610":-0.5059260725975037,"611":0.6424877047538757,"612":-0.20532211661338806,"613":0.4248097240924835,"614":0.6771188378334045,"615":-0.3813740909099579,"616":0.5338205695152283,"617":-0.6995492577552795,"618":0.37330198287963867,"619":1.4894744157791138,"620":-0.22519372403621674,"621":0.5876559019088745,"622":-1.0621587038040161,"623":-1.582304835319519,"624":-2.5788421630859375,"625":-0.6608654260635376,"626":0.6133913397789001,"627":1.3907644748687744,"628":1.086254358291626,"629":2.6033170223236084,"630":1.4775285720825195,"631":-0.6420440077781677,"632":-1.2266513109207153,"633":0.7857577204704285,"634":0.478810578584671,"635":1.9279152154922485,"636":1.3575160503387451,"637":-1.4974653720855713,"638":-1.4454455375671387,"639":1.288195252418518,"640":-0.5897765755653381,"641":-0.43777981400489807,"642":0.002713059540838003,"643":1.0735692977905273,"644":1.9916449785232544,"645":-2.1879568099975586,"646":0.10771895200014114,"647":0.2704640030860901,"648":-2.0837764739990234,"649":-2.5383388996124268,"650":2.489062786102295,"651":1.4763946533203125,"652":0.4322156012058258,"653":-0.889262318611145,"654":-0.35259267687797546,"655":0.12060454487800598,"656":-0.7800107598304749,"657":0.7425628900527954,"658":0.6641879081726074,"659":0.39576616883277893,"660":0.6131515502929688,"661":0.2728109061717987,"662":-1.2063393592834473,"663":-0.9797912240028381,"664":0.6223186254501343,"665":1.2459638118743896,"666":-0.7071924209594727,"667":0.05597803741693497,"668":0.4612835943698883,"669":-1.7303411960601807,"670":-0.5118510723114014,"671":0.11991707235574722,"672":-0.8377861976623535,"673":-0.6010143756866455,"674":1.178541898727417,"675":0.042208801954984665,"676":0.8730105757713318,"677":0.5024203062057495,"678":-0.6506620049476624,"679":-0.6835408806800842,"680":0.49255019426345825,"681":-1.1059658527374268,"682":1.3451008796691895,"683":0.4177624583244324,"684":-2.091719388961792,"685":-0.6410815715789795,"686":-0.0330696664750576,"687":0.4742485582828522,"688":2.4415929317474365,"689":-0.37831369042396545,"690":0.5110302567481995,"691":0.6078113913536072,"692":1.016934871673584,"693":-0.009033656679093838,"694":-0.4477759003639221,"695":0.7117224335670471,"696":0.25275102257728577,"697":-0.02559099905192852,"698":0.7996469140052795,"699":1.9634886980056763,"700":1.0329095125198364,"701":3.558346748352051,"702":2.8133490085601807,"703":-1.0355808734893799,"704":-3.7457475662231445,"705":0.17611271142959595,"706":-0.19774729013442993,"707":0.43794387578964233,"708":2.412008762359619,"709":-1.1918537616729736,"710":-0.836975634098053,"711":2.0485143661499023,"712":-0.2726954221725464,"713":0.15223711729049683,"714":2.0223710536956787,"715":-2.4807162284851074,"716":-2.466886520385742,"717":-0.3174686133861542,"718":0.6631054282188416,"719":2.3837530612945557,"720":0.7234123349189758,"721":0.15251588821411133,"722":1.1093276739120483,"723":1.842871069908142,"724":-2.5647621154785156,"725":-0.5600308179855347,"726":0.5435404777526855,"727":2.4890296459198,"728":0.9954380989074707,"729":-0.24286983907222748,"730":2.7815959453582764,"731":0.6151828169822693,"732":-2.1460413932800293,"733":2.270220994949341,"734":-2.351268768310547,"735":-3.3255982398986816,"736":0.5142437219619751,"737":-0.1327349841594696,"738":-1.7919068336486816,"739":3.1825926303863525,"740":0.2112266719341278,"741":-1.9824748039245605,"742":2.433842182159424,"743":-0.5911239385604858,"744":-4.09351921081543,"745":2.5511913299560547,"746":0.8442670106887817,"747":-2.3033952713012695,"748":-2.78682017326355,"749":-1.5454223155975342,"750":1.3525573015213013,"751":2.42056941986084,"752":0.450868159532547,"753":-0.05539650097489357,"754":1.4242641925811768,"755":-2.4114229679107666,"756":0.08607270568609238,"757":-0.4445240795612335,"758":1.0209381580352783,"759":2.2415547370910645,"760":3.6218984127044678,"761":-0.3708878755569458,"762":1.710201382637024,"763":-0.9667614102363586,"764":2.0120835304260254,"765":-0.5328540802001953,"766":-0.8027823567390442,"767":-1.2506945133209229,"768":3.292663335800171,"769":-2.6107380390167236,"770":0.8334969878196716,"771":3.2862389087677,"772":-0.7908017635345459,"773":0.3497637212276459,"774":2.541289806365967,"775":0.6688549518585205,"776":-2.1175575256347656,"777":2.168696641921997,"778":1.8467165231704712,"779":0.6077247262001038,"780":-1.751145839691162,"781":-1.5983123779296875,"782":-0.6151025295257568,"783":0.14340391755104065,"784":-5.1774773597717285,"785":-1.3014538288116455,"786":2.100511074066162,"787":1.2806535959243774,"788":-1.1520518064498901,"789":-3.075066566467285,"790":-0.7823842763900757,"791":-1.0776726007461548,"792":-3.023625135421753,"793":-1.1816303730010986,"794":0.8706282377243042,"795":-1.841630458831787,"796":2.6425082683563232,"797":3.8998172283172607,"798":1.0780521631240845,"799":-0.5488275289535522,"800":-0.12859010696411133,"801":-4.246853828430176,"802":-0.5355080366134644,"803":2.0786869525909424,"804":-2.10719895362854,"805":-0.6765300631523132,"806":-1.3215910196304321,"807":-2.0245561599731445,"808":1.1310007572174072,"809":2.019441843032837,"810":1.7321666479110718,"811":0.20244431495666504,"812":-1.0560381412506104,"813":-1.7559802532196045,"814":-0.9718161225318909,"815":-0.6716886758804321,"816":-1.8544327020645142,"817":1.9458504915237427,"818":1.4727063179016113,"819":-1.3319778442382812,"820":-1.6532788276672363,"821":-0.8113599419593811,"822":-0.09373173117637634,"823":-1.6426702737808228,"824":-0.12135319411754608,"825":1.6811407804489136,"826":-0.6542158722877502,"827":1.8053735494613647,"828":2.1021952629089355,"829":-1.7431411743164062,"830":-0.8457741737365723,"831":1.6812539100646973,"832":-2.5101892948150635,"833":-0.8058247566223145,"834":1.4741928577423096,"835":-0.5991304516792297,"836":0.3992226719856262,"837":-1.4567852020263672,"838":-1.4802128076553345,"839":2.6910839080810547,"840":1.9794529676437378,"841":2.5939929485321045,"842":-2.978001832962036,"843":-3.014561176300049,"844":0.7827025651931763,"845":-1.635153889656067,"846":-1.8683468103408813,"847":-2.3367459774017334,"848":0.2066643387079239,"849":1.2756876945495605,"850":-2.223098039627075,"851":-1.1028735637664795,"852":-1.2238447666168213,"853":-3.2706503868103027,"854":-1.967663288116455,"855":-0.752568244934082,"856":0.07697772234678268,"857":-2.610081911087036,"858":2.291565179824829,"859":3.3686070442199707,"860":1.9392739534378052,"861":2.70630145072937,"862":1.3303732872009277,"863":-3.3521482944488525,"864":2.0572476387023926,"865":1.8082590103149414,"866":-1.7031831741333008,"867":-0.9645322561264038,"868":2.8339691162109375,"869":4.132552623748779,"870":-0.9825258255004883,"871":-2.3816592693328857,"872":-0.6448277831077576,"873":-0.0094980513677001,"874":1.0537058115005493,"875":1.077406644821167,"876":2.1839098930358887,"877":-1.6546976566314697,"878":2.5807583332061768,"879":-2.078420877456665,"880":-2.2135965824127197,"881":1.7374826669692993,"882":1.7697384357452393,"883":1.6472790241241455,"884":0.7687894701957703,"885":1.9985804557800293,"886":0.18478195369243622,"887":-2.990730047225952,"888":1.2435603141784668,"889":-2.0794637203216553,"890":-4.857023239135742,"891":-0.6518218517303467,"892":1.98811936378479,"893":-3.4652888774871826,"894":5.464946269989014,"895":1.9224079847335815,"896":-1.384605884552002,"897":-0.6799625754356384,"898":0.07432489097118378,"899":-0.22249260544776917,"900":-0.6745744943618774,"901":-0.005979354493319988,"902":0.33005616068840027,"903":0.633296549320221,"904":0.9601529240608215,"905":0.0756564512848854,"906":-0.6966489553451538,"907":0.053238362073898315,"908":-0.15946219861507416,"909":-0.30926984548568726,"910":0.3491798937320709,"911":0.1588675081729889,"912":0.026128748431801796,"913":-0.20877322554588318,"914":0.5689175724983215,"915":1.0989258289337158,"916":0.20910127460956573,"917":1.3403373956680298,"918":1.8943003416061401,"919":0.6500536203384399,"920":0.3083575963973999,"921":-0.15379610657691956,"922":-1.5466957092285156,"923":-0.0013133484171703458,"924":-0.0485374853014946,"925":-0.12553931772708893,"926":-0.0561068132519722,"927":0.1865672618150711,"928":1.5467544794082642,"929":0.5768755078315735,"930":-0.34547367691993713,"931":-1.2202098369598389,"932":0.4680693745613098,"933":0.9269240498542786,"934":0.9967089295387268,"935":0.07932332158088684,"936":-0.40909549593925476,"937":-0.7200461626052856,"938":-0.5050550103187561,"939":1.1885013580322266,"940":-0.9280461668968201,"941":0.46895837783813477,"942":0.7803725004196167,"943":-0.7848462462425232,"944":0.06939838826656342,"945":0.362101286649704,"946":0.12134862691164017,"947":0.1941060572862625,"948":0.3889453411102295,"949":0.6916189193725586,"950":-0.09286978840827942,"951":0.8125883340835571,"952":-0.6388350129127502,"953":-0.7146574854850769,"954":0.054085489362478256,"955":0.7562876343727112,"956":0.6872956156730652,"957":0.12277217954397202,"958":0.3380170464515686,"959":0.10446823388338089,"960":0.20978960394859314,"961":0.014189694076776505,"962":0.010676916688680649,"963":-0.04512317106127739,"964":0.058227527886629105,"965":0.07906408607959747,"966":0.0741448700428009,"967":-0.028800806030631065,"968":0.04788804054260254,"969":0.03347747400403023,"970":-0.043838340789079666,"971":-0.07522536814212799,"972":0.002927453489974141,"973":-0.0722222551703453,"974":-0.0670393854379654,"975":-0.0021495383698493242,"976":-0.04011788219213486,"977":0.003029999788850546,"978":-0.049097009003162384,"979":-0.0708225667476654,"980":-0.027213657274842262,"981":0.05891672894358635,"982":-0.032617781311273575,"983":-0.05246163532137871,"984":-0.06154900789260864,"985":-0.03927585855126381,"986":-0.029468797147274017,"987":0.02892892248928547,"988":0.008777187205851078,"989":-0.00403752364218235,"990":-0.01839214190840721,"991":0.02632301114499569}},"hiddenLayers":[{"inputMatrix":{"rows":20,"columns":31,"weights":{"0":0.2722115218639374,"1":-0.7653418183326721,"2":1.0964287519454956,"3":0.3992842435836792,"4":1.2859615087509155,"5":-1.4819729328155518,"6":-0.9744977951049805,"7":0.3046652376651764,"8":-1.635502815246582,"9":0.7771263718605042,"10":-1.4769824743270874,"11":0.5820990800857544,"12":0.7773270606994629,"13":-1.568220615386963,"14":0.7693261504173279,"15":-1.788564920425415,"16":-1.019121766090393,"17":-0.4468451142311096,"18":-1.1792994737625122,"19":0.06150359660387039,"20":-0.6488961577415466,"21":0.6283875703811646,"22":1.0456984043121338,"23":-0.10042260587215424,"24":-0.050015807151794434,"25":0.709174394607544,"26":-0.6399447917938232,"27":-0.12386436015367508,"28":0.26739922165870667,"29":-0.27404651045799255,"30":-0.13720418512821198,"31":0.7906672954559326,"32":-0.4624258875846863,"33":0.399931937456131,"34":1.0296783447265625,"35":1.4130340814590454,"36":-1.0294996500015259,"37":-0.3383140563964844,"38":-1.2133214473724365,"39":-1.8060414791107178,"40":-0.6191310882568359,"41":-0.9213593602180481,"42":-0.4827112853527069,"43":1.1845341920852661,"44":-1.4176143407821655,"45":-0.5273584127426147,"46":-0.5870283842086792,"47":-0.8919229507446289,"48":-0.2677762508392334,"49":-0.37088942527770996,"50":0.33839285373687744,"51":-0.8039939999580383,"52":0.597879946231842,"53":-0.3944486379623413,"54":0.6830143928527832,"55":-0.4690502882003784,"56":0.8563130497932434,"57":0.18189489841461182,"58":-0.8089599013328552,"59":0.9387509822845459,"60":-0.6481547355651855,"61":-1.2014765739440918,"62":-0.19925947487354279,"63":-0.19235844910144806,"64":0.8254842162132263,"65":0.22392553091049194,"66":0.7080239653587341,"67":-0.5420082807540894,"68":-1.5579843521118164,"69":-0.4158262014389038,"70":-0.6121734380722046,"71":1.0560760498046875,"72":-0.1930219680070877,"73":0.5421791076660156,"74":0.7055136561393738,"75":-1.0743075609207153,"76":0.9959543347358704,"77":-0.988365888595581,"78":-1.1585674285888672,"79":0.2333560585975647,"80":-2.075613021850586,"81":0.24462994933128357,"82":-1.7477518320083618,"83":-0.1259586662054062,"84":0.8779461979866028,"85":0.14880238473415375,"86":-0.48747289180755615,"87":1.5134375095367432,"88":-0.4420677721500397,"89":-0.5431172847747803,"90":-0.5050836801528931,"91":-0.7530772089958191,"92":0.4739534258842468,"93":-0.5391461849212646,"94":-0.8418365120887756,"95":0.760270357131958,"96":-0.2014334797859192,"97":-0.5720688700675964,"98":0.15361426770687103,"99":0.2678680121898651,"100":0.44015592336654663,"101":-0.4538433849811554,"102":1.0414677858352661,"103":0.07520579546689987,"104":0.2944262623786926,"105":0.5468801259994507,"106":-1.304270625114441,"107":0.3263426125049591,"108":0.009350384585559368,"109":-0.24269360303878784,"110":0.6388999819755554,"111":0.4496156573295593,"112":0.9085725545883179,"113":0.42911291122436523,"114":0.8201863169670105,"115":0.6252481937408447,"116":-0.3062811493873596,"117":-0.12564750015735626,"118":-0.7598530650138855,"119":-0.4690825939178467,"120":0.09008142352104187,"121":-0.4610097408294678,"122":1.0909204483032227,"123":0.2501368820667267,"124":0.6776190400123596,"125":0.02393251657485962,"126":-0.697624921798706,"127":-0.8113227486610413,"128":0.26302531361579895,"129":0.40996792912483215,"130":0.2299058884382248,"131":0.09906785190105438,"132":-0.1741023063659668,"133":1.3606656789779663,"134":0.025407670065760612,"135":-0.13558544218540192,"136":0.45856162905693054,"137":-0.6972898840904236,"138":1.1518173217773438,"139":0.26512959599494934,"140":-0.24996644258499146,"141":2.338409900665283,"142":0.6055996417999268,"143":1.3873400688171387,"144":1.3532466888427734,"145":-0.3434309959411621,"146":-1.586673378944397,"147":-0.7120745182037354,"148":-0.41685980558395386,"149":-0.5810048580169678,"150":1.4617862701416016,"151":-0.6175733804702759,"152":-0.4713696837425232,"153":1.9162356853485107,"154":-0.4073002338409424,"155":0.15874765813350677,"156":0.48408615589141846,"157":-1.2215468883514404,"158":-0.8604902029037476,"159":-0.8505623936653137,"160":0.38120365142822266,"161":0.29059529304504395,"162":1.001469612121582,"163":-0.11205969750881195,"164":0.5424472093582153,"165":0.22422292828559875,"166":-0.39717650413513184,"167":0.013353900983929634,"168":-0.3096737861633301,"169":0.5387885570526123,"170":0.11515017598867416,"171":-0.38073793053627014,"172":0.8272382616996765,"173":0.26581844687461853,"174":-0.48516687750816345,"175":0.1682058423757553,"176":0.2202327996492386,"177":-0.9634461402893066,"178":1.347197413444519,"179":-0.5428770780563354,"180":-0.44340813159942627,"181":1.3193713426589966,"182":-0.5403934717178345,"183":-0.1705753207206726,"184":0.20799757540225983,"185":-0.939572274684906,"186":-0.9351961016654968,"187":-0.7834566831588745,"188":-0.32336974143981934,"189":0.1729576736688614,"190":0.40452373027801514,"191":1.7275694608688354,"192":0.03847147151827812,"193":-0.3458934724330902,"194":0.06702328473329544,"195":0.7380171418190002,"196":-0.5071271061897278,"197":0.6245010495185852,"198":0.33816468715667725,"199":-0.09773118048906326,"200":0.06889869272708893,"201":0.6234701871871948,"202":0.842228889465332,"203":0.3616454303264618,"204":0.638801097869873,"205":0.35779327154159546,"206":0.23854395747184753,"207":0.14529190957546234,"208":-0.07727670669555664,"209":-1.4950716495513916,"210":0.06444546580314636,"211":0.5287758708000183,"212":0.09421969205141068,"213":0.09178534150123596,"214":-0.033199701458215714,"215":0.37006044387817383,"216":1.0169416666030884,"217":1.2870705127716064,"218":1.4631537199020386,"219":-0.39526063203811646,"220":-0.4109843969345093,"221":-0.1388321965932846,"222":-0.30737701058387756,"223":-0.19667401909828186,"224":0.12536416947841644,"225":-0.556617259979248,"226":-0.3602202236652374,"227":0.17300836741924286,"228":-0.2249053418636322,"229":-0.09076759219169617,"230":0.537943422794342,"231":1.0343966484069824,"232":-1.2627506256103516,"233":-1.1240466833114624,"234":0.43909764289855957,"235":-0.30964893102645874,"236":0.39812740683555603,"237":0.6467705368995667,"238":-1.458227276802063,"239":-1.165464162826538,"240":1.2012808322906494,"241":-0.8882634043693542,"242":0.9375138282775879,"243":0.5134459733963013,"244":-1.2613554000854492,"245":-0.05279579013586044,"246":0.21974702179431915,"247":-1.3083252906799316,"248":0.9739428758621216,"249":0.32892096042633057,"250":-1.4214708805084229,"251":-0.059580620378255844,"252":-0.2485285997390747,"253":-0.8920964598655701,"254":1.1582071781158447,"255":0.08125434070825577,"256":-0.2016305923461914,"257":-0.44587379693984985,"258":0.3429013192653656,"259":-0.1560993194580078,"260":-0.08615639060735703,"261":0.4307885766029358,"262":-0.6571587324142456,"263":-0.5517592430114746,"264":-0.681992769241333,"265":0.47028234601020813,"266":-0.35781627893447876,"267":0.9610762596130371,"268":0.8659163117408752,"269":0.16926078498363495,"270":-0.9761275053024292,"271":0.2660543620586395,"272":-0.8562613129615784,"273":-0.5140880942344666,"274":1.079564094543457,"275":-1.175611972808838,"276":0.22559551894664764,"277":0.06819110363721848,"278":-1.2002590894699097,"279":0.11408715695142746,"280":0.4618767201900482,"281":0.02599974535405636,"282":0.0793137475848198,"283":-0.6314945220947266,"284":-0.9854657649993896,"285":-0.05274011567234993,"286":0.3141840100288391,"287":0.8238424062728882,"288":-0.6579521894454956,"289":0.8336796164512634,"290":0.12709391117095947,"291":-0.41187772154808044,"292":0.21692921221256256,"293":-0.22096648812294006,"294":0.18797752261161804,"295":-0.657670259475708,"296":-0.881213366985321,"297":-0.15146009624004364,"298":-1.0298118591308594,"299":-0.09804695844650269,"300":0.26463383436203003,"301":0.864828884601593,"302":-0.4991190731525421,"303":0.810730516910553,"304":-0.829081118106842,"305":-0.3144443929195404,"306":1.0290029048919678,"307":-0.3661445379257202,"308":-0.5158860087394714,"309":0.4465705156326294,"310":1.5527358055114746,"311":0.03393782302737236,"312":0.04067075997591019,"313":-0.40694165229797363,"314":0.5153684020042419,"315":-0.6640770435333252,"316":0.3084232211112976,"317":-0.30088722705841064,"318":0.38816773891448975,"319":-0.23149767518043518,"320":-0.0017120778793469071,"321":-0.022030318155884743,"322":0.18191678822040558,"323":0.12198804318904877,"324":0.06863588839769363,"325":0.23950646817684174,"326":-0.2672669589519501,"327":0.6836251020431519,"328":-0.053613703697919846,"329":0.4109833836555481,"330":1.0192621946334839,"331":-0.6315804719924927,"332":-2.148827075958252,"333":1.142072319984436,"334":-0.2805491089820862,"335":-0.25494351983070374,"336":1.9260457754135132,"337":-0.3669125735759735,"338":0.05734716355800629,"339":-0.2927952706813812,"340":-1.637287974357605,"341":1.434277057647705,"342":1.9896000623703003,"343":-0.20098833739757538,"344":-1.2387075424194336,"345":-0.5263742208480835,"346":-0.8876155614852905,"347":0.2106574922800064,"348":0.7992843985557556,"349":0.1988985687494278,"350":0.057654548436403275,"351":0.8887208700180054,"352":-0.5046678781509399,"353":-0.4222398102283478,"354":0.836469829082489,"355":0.9826785922050476,"356":-0.35728344321250916,"357":-0.07952773571014404,"358":0.7676181793212891,"359":-0.5082688927650452,"360":-0.11697641760110855,"361":0.606087327003479,"362":-1.316695213317871,"363":-1.091879963874817,"364":1.639605164527893,"365":-0.14657656848430634,"366":-0.0019361459417268634,"367":0.9459614753723145,"368":-0.3042694628238678,"369":-0.8066811561584473,"370":-0.13494399189949036,"371":-0.933904230594635,"372":0.009217956103384495,"373":-0.2741653323173523,"374":0.5464990139007568,"375":0.5494635701179504,"376":0.9153136014938354,"377":0.5711203217506409,"378":-1.222852349281311,"379":-1.016685962677002,"380":-0.3450152277946472,"381":-0.34551578760147095,"382":-0.7213383913040161,"383":0.6820018887519836,"384":0.8540381789207458,"385":-0.9653070569038391,"386":-0.6003878712654114,"387":0.11982717365026474,"388":0.24884432554244995,"389":-1.026208758354187,"390":0.344910591840744,"391":-0.5196291208267212,"392":-0.3750075697898865,"393":0.3934542238712311,"394":1.0669140815734863,"395":0.12148232758045197,"396":0.5026940107345581,"397":0.49469608068466187,"398":-0.8551586866378784,"399":0.38939720392227173,"400":0.9250159859657288,"401":-0.06260210275650024,"402":0.4367692470550537,"403":-0.30666983127593994,"404":-1.099921703338623,"405":0.8678150773048401,"406":0.8531371355056763,"407":0.932250440120697,"408":0.607406497001648,"409":-1.1211495399475098,"410":-0.9276562333106995,"411":-0.17633549869060516,"412":-0.9752770662307739,"413":-0.8297269940376282,"414":1.460597276687622,"415":0.7963559627532959,"416":-0.7455753087997437,"417":-0.9711353182792664,"418":-0.09526556730270386,"419":0.2524675726890564,"420":-0.9659642577171326,"421":0.41979876160621643,"422":-0.24271701276302338,"423":-0.03208479657769203,"424":1.0418150424957275,"425":0.9822901487350464,"426":-0.6335844993591309,"427":0.14683932065963745,"428":0.2929595708847046,"429":-0.8134632706642151,"430":0.13078564405441284,"431":0.7885199189186096,"432":0.6192864775657654,"433":0.8030505776405334,"434":0.7380932569503784,"435":1.118104100227356,"436":-0.1678331047296524,"437":-0.4213820993900299,"438":-0.1000455766916275,"439":-0.3134922683238983,"440":0.10408874601125717,"441":-0.12162359058856964,"442":0.19233794510364532,"443":-0.4579402208328247,"444":-0.04016977548599243,"445":-0.27893826365470886,"446":-0.567589282989502,"447":0.5385135412216187,"448":0.7581295967102051,"449":-1.0075236558914185,"450":-0.34364500641822815,"451":0.2827701270580292,"452":-1.4470152854919434,"453":-0.875562310218811,"454":0.25566914677619934,"455":-0.9860060214996338,"456":-0.537377655506134,"457":0.9692087173461914,"458":-0.410589337348938,"459":1.0843534469604492,"460":-0.29244813323020935,"461":-0.9903803467750549,"462":0.24473176896572113,"463":-0.18096889555454254,"464":-0.7532637119293213,"465":0.02740844152867794,"466":-1.3493461608886719,"467":-0.4882763624191284,"468":0.2045714259147644,"469":0.6487865447998047,"470":1.4388740062713623,"471":0.23840489983558655,"472":-0.49486660957336426,"473":-0.5985578298568726,"474":0.10259842872619629,"475":-0.9503459334373474,"476":1.580830454826355,"477":0.961067259311676,"478":-0.6555916666984558,"479":-0.29174360632896423,"480":-0.004163107369095087,"481":-0.01139287929981947,"482":0.6343534588813782,"483":1.3051780462265015,"484":0.42943811416625977,"485":0.4649293124675751,"486":0.5847744941711426,"487":-0.5891777276992798,"488":-0.8254926800727844,"489":-1.1542439460754395,"490":0.1934388428926468,"491":0.5738524198532104,"492":-0.9619617462158203,"493":0.380400151014328,"494":1.2463021278381348,"495":-0.25750628113746643,"496":-0.20046080648899078,"497":0.7168158888816833,"498":-0.46775397658348083,"499":0.07804010808467865,"500":-0.8565771579742432,"501":-0.5028875470161438,"502":0.6450738310813904,"503":0.3095301389694214,"504":0.4027068018913269,"505":0.5463988780975342,"506":0.6154395937919617,"507":-0.7092110514640808,"508":-0.8515509366989136,"509":0.7989925146102905,"510":0.6065981984138489,"511":0.31961336731910706,"512":0.3684190809726715,"513":0.6325516104698181,"514":0.049349572509527206,"515":-0.08645539730787277,"516":0.38748225569725037,"517":-0.9976567625999451,"518":-1.0218346118927002,"519":-0.028897851705551147,"520":0.31355583667755127,"521":-0.6800187826156616,"522":1.0795811414718628,"523":0.5112795233726501,"524":-0.7540389895439148,"525":0.6584230661392212,"526":-0.004976585973054171,"527":0.12877807021141052,"528":-1.3459866046905518,"529":0.5905055999755859,"530":0.1934192031621933,"531":0.004758358933031559,"532":-0.19058124721050262,"533":-0.3757619857788086,"534":0.2144775688648224,"535":0.14255836606025696,"536":0.3192659914493561,"537":-0.46060922741889954,"538":0.4422878921031952,"539":0.44421935081481934,"540":-0.6919721364974976,"541":-0.2975904941558838,"542":-0.030503202229738235,"543":-0.07566113770008087,"544":-0.0017366665415465832,"545":0.7301525473594666,"546":0.6336824893951416,"547":0.1448499709367752,"548":1.1047650575637817,"549":0.5991666316986084,"550":-0.20588305592536926,"551":0.10607266426086426,"552":-0.20645740628242493,"553":-0.3209095299243927,"554":0.07258908450603485,"555":0.3788030743598938,"556":0.2992222309112549,"557":-0.0017643109895288944,"558":-0.0454413928091526,"559":0.63038170337677,"560":-1.3051836490631104,"561":-0.5151882767677307,"562":0.04918600991368294,"563":0.31521663069725037,"564":1.8478378057479858,"565":0.06920824199914932,"566":0.8628133535385132,"567":-0.819248616695404,"568":0.4991310238838196,"569":-0.9630494117736816,"570":-1.062949299812317,"571":1.2024879455566406,"572":-0.8062108159065247,"573":1.4280682802200317,"574":0.7919572591781616,"575":0.800055980682373,"576":1.2867069244384766,"577":0.14467716217041016,"578":1.4084302186965942,"579":-0.7922198176383972,"580":-1.6288365125656128,"581":-0.4436863660812378,"582":0.0807429626584053,"583":-1.4790383577346802,"584":1.0930798053741455,"585":0.1444084197282791,"586":-0.2146737277507782,"587":1.066304326057434,"588":-0.17795293033123016,"589":0.9984909892082214,"590":1.2456607818603516,"591":-0.8187817931175232,"592":-0.37288355827331543,"593":-0.2534436583518982,"594":0.3473930060863495,"595":0.22134530544281006,"596":-0.11240260303020477,"597":-0.2010946124792099,"598":-0.8012387156486511,"599":-0.11085870862007141,"600":-0.5043094158172607,"601":-0.0190256480127573,"602":0.29174691438674927,"603":0.5615947842597961,"604":-0.5620164275169373,"605":-1.052608847618103,"606":0.7702810764312744,"607":-0.4909239411354065,"608":-0.5962071418762207,"609":0.3661327362060547,"610":-0.8045465350151062,"611":-1.0671700239181519,"612":1.757079005241394,"613":-0.9236481785774231,"614":0.8222429752349854,"615":0.8960885405540466,"616":-0.9935522675514221,"617":0.2378074675798416,"618":0.28680458664894104,"619":-1.8830723762512207}},"inputHidden":{"rows":20,"columns":20,"weights":{"0":-0.24885843694210052,"1":0.1623871773481369,"2":-1.3092268705368042,"3":0.9517999887466431,"4":-0.6239216327667236,"5":-0.47755640745162964,"6":0.45099177956581116,"7":-0.212492898106575,"8":1.1649346351623535,"9":-0.5076807141304016,"10":-0.41371244192123413,"11":-1.6624178886413574,"12":-1.394896149635315,"13":0.48551997542381287,"14":0.3061409592628479,"15":-0.39346644282341003,"16":-1.0232932567596436,"17":-0.41954320669174194,"18":-0.576729416847229,"19":-0.6111059784889221,"20":-0.04935197904706001,"21":-0.009006363339722157,"22":-0.6489587426185608,"23":0.8629739880561829,"24":-0.8156263828277588,"25":-0.629797637462616,"26":0.6150404810905457,"27":-0.1761057823896408,"28":0.25788432359695435,"29":0.7993295192718506,"30":-0.6600809097290039,"31":-0.42990100383758545,"32":0.8623467683792114,"33":-0.19952073693275452,"34":-0.5153400301933289,"35":-0.2772582769393921,"36":-0.3791411221027374,"37":1.2618401050567627,"38":0.2251756340265274,"39":-0.8471466898918152,"40":0.35783761739730835,"41":-0.38020530343055725,"42":-0.44321927428245544,"43":0.3159901797771454,"44":-0.8407309651374817,"45":0.4499457776546478,"46":-0.22738341987133026,"47":0.3943253457546234,"48":0.31081509590148926,"49":0.5927688479423523,"50":-0.27895909547805786,"51":-0.48991718888282776,"52":1.2473357915878296,"53":-0.9116456508636475,"54":-0.039219509810209274,"55":-0.2077726274728775,"56":-0.9569201469421387,"57":1.1729543209075928,"58":0.05595305189490318,"59":-0.11425294727087021,"60":-0.33146196603775024,"61":0.0033905331511050463,"62":0.09720058739185333,"63":-0.23676851391792297,"64":-1.0140281915664673,"65":0.341233491897583,"66":-0.7285324931144714,"67":-1.0388915538787842,"68":0.9932814836502075,"69":0.5806277394294739,"70":-0.46948885917663574,"71":-1.9549479484558105,"72":0.46804994344711304,"73":-0.855647087097168,"74":1.1659246683120728,"75":-0.5273955464363098,"76":-0.7034268975257874,"77":1.232120156288147,"78":0.277060866355896,"79":-1.1262036561965942,"80":-0.23019729554653168,"81":0.08865714818239212,"82":0.280643492937088,"83":0.00044103607069700956,"84":-0.09234340488910675,"85":-0.6736426949501038,"86":-0.14650361239910126,"87":0.14900124073028564,"88":0.4966863989830017,"89":-0.15328755974769592,"90":0.4543667137622833,"91":-0.6411287188529968,"92":0.05094290152192116,"93":-0.37085703015327454,"94":0.11373230814933777,"95":0.00802602432668209,"96":0.15226730704307556,"97":0.6767666339874268,"98":-0.44644448161125183,"99":0.02568701282143593,"100":-0.36842915415763855,"101":-1.5265636444091797,"102":1.2214804887771606,"103":0.35256123542785645,"104":0.07117806375026703,"105":0.6628821492195129,"106":0.30163121223449707,"107":-1.5572140216827393,"108":0.22293265163898468,"109":-0.2539239823818207,"110":-1.227614402770996,"111":-0.5655986070632935,"112":-0.05219288542866707,"113":-1.0925027132034302,"114":1.1453986167907715,"115":-1.6316676139831543,"116":-1.2020710706710815,"117":0.7545913457870483,"118":-0.8981629610061646,"119":-1.412139892578125,"120":-0.8008973598480225,"121":1.1567264795303345,"122":0.41782546043395996,"123":1.0361847877502441,"124":-1.3500498533248901,"125":-0.6355593800544739,"126":1.0891273021697998,"127":-1.091395378112793,"128":-1.06148362159729,"129":-1.1957818269729614,"130":-1.0825707912445068,"131":-1.1572275161743164,"132":-1.0145747661590576,"133":1.6969655752182007,"134":1.0443036556243896,"135":-0.056107569485902786,"136":-0.6109269261360168,"137":-1.0040360689163208,"138":-1.4455803632736206,"139":-0.9350141882896423,"140":0.002196056069806218,"141":0.12071604281663895,"142":-0.6546428799629211,"143":0.35759496688842773,"144":-0.015904229134321213,"145":-1.0839415788650513,"146":-0.5215936899185181,"147":-0.7028521299362183,"148":0.3951704204082489,"149":0.22310058772563934,"150":-0.9840320944786072,"151":-0.5990229845046997,"152":0.12469727545976639,"153":-0.19331160187721252,"154":0.2915836572647095,"155":0.4511319100856781,"156":-0.8417966961860657,"157":1.3194589614868164,"158":-0.09807772189378738,"159":-1.3057942390441895,"160":-0.22509849071502686,"161":0.9279017448425293,"162":0.46005821228027344,"163":-1.7706570625305176,"164":0.14913980662822723,"165":1.963364839553833,"166":-0.5764545202255249,"167":1.674627423286438,"168":-0.550075888633728,"169":-0.42952820658683777,"170":0.6763372421264648,"171":1.8277685642242432,"172":-0.17795953154563904,"173":2.017099380493164,"174":-1.5111562013626099,"175":1.6026467084884644,"176":2.3194141387939453,"177":-0.5493225455284119,"178":-0.8458326458930969,"179":2.940669536590576,"180":-1.652181625366211,"181":0.9943596124649048,"182":2.0699660778045654,"183":1.4360798597335815,"184":-1.2967716455459595,"185":-0.5787089467048645,"186":0.5508636236190796,"187":-1.0176993608474731,"188":0.21926218271255493,"189":-1.0388973951339722,"190":-0.85245680809021,"191":-0.04048042371869087,"192":-0.6539103388786316,"193":0.1630445271730423,"194":0.5857386589050293,"195":-1.6390005350112915,"196":-0.7285083532333374,"197":-0.3747928738594055,"198":-0.321931928396225,"199":-0.4810246229171753,"200":0.6116750240325928,"201":-1.4081852436065674,"202":-0.022534556686878204,"203":-0.5447465777397156,"204":1.7177294492721558,"205":-0.7431350946426392,"206":-0.7301360964775085,"207":0.16762477159500122,"208":0.02279379777610302,"209":0.7328352332115173,"210":-0.34935277700424194,"211":-0.2953951060771942,"212":0.9874573349952698,"213":-0.9654713869094849,"214":0.033827539533376694,"215":-1.1824572086334229,"216":0.1745690107345581,"217":0.23613080382347107,"218":-2.4718515872955322,"219":-0.2954242527484894,"220":-0.5402452349662781,"221":-0.11501885950565338,"222":0.5463998317718506,"223":0.8055027723312378,"224":-0.5605493783950806,"225":0.12221072614192963,"226":2.0528268814086914,"227":-0.8701440691947937,"228":0.390747994184494,"229":-0.1955154836177826,"230":-0.5461552739143372,"231":-1.1072239875793457,"232":-1.299180269241333,"233":1.3747868537902832,"234":1.0332731008529663,"235":-0.051243096590042114,"236":-0.8703116178512573,"237":-0.6018993258476257,"238":0.17576967179775238,"239":-0.7915165424346924,"240":-1.374292016029358,"241":1.6533427238464355,"242":0.9660454988479614,"243":-2.1496856212615967,"244":1.4473872184753418,"245":0.2082383632659912,"246":0.5876888036727905,"247":0.9840885400772095,"248":-0.0029157998505979776,"249":-1.141158938407898,"250":0.9324731230735779,"251":1.3835595846176147,"252":-0.7415263056755066,"253":0.3264445662498474,"254":-1.0369306802749634,"255":1.0615941286087036,"256":1.3672902584075928,"257":0.7291391491889954,"258":-1.8498432636260986,"259":0.7829532623291016,"260":-1.3629428148269653,"261":2.110619068145752,"262":1.4581294059753418,"263":0.4208347797393799,"264":-0.05449552834033966,"265":-1.0233124494552612,"266":0.6570023894309998,"267":0.14414271712303162,"268":0.5961225032806396,"269":1.0854345560073853,"270":0.4402129054069519,"271":1.2097933292388916,"272":0.599377453327179,"273":0.09827539324760437,"274":-1.4791326522827148,"275":-0.5211398005485535,"276":1.1281205415725708,"277":-0.8467890620231628,"278":1.071708083152771,"279":1.0314433574676514,"280":-0.5447884202003479,"281":-0.026121484115719795,"282":0.8629274368286133,"283":0.7938080430030823,"284":-1.1933873891830444,"285":-0.4155253767967224,"286":-0.17244386672973633,"287":-1.3623340129852295,"288":1.688619613647461,"289":1.6057252883911133,"290":-0.8422993421554565,"291":-1.1216768026351929,"292":0.9286800026893616,"293":-0.7971110939979553,"294":1.360757827758789,"295":0.7875638008117676,"296":-1.5805608034133911,"297":1.8359906673431396,"298":0.6410924196243286,"299":0.5476389527320862,"300":1.057944655418396,"301":-1.2041540145874023,"302":-0.6964359879493713,"303":1.0100253820419312,"304":-1.8483057022094727,"305":-1.1860750913619995,"306":-0.5367151498794556,"307":-2.084298610687256,"308":1.8331975936889648,"309":1.6805955171585083,"310":-1.6373803615570068,"311":-2.182206869125366,"312":1.5007244348526,"313":0.2408307045698166,"314":1.564676284790039,"315":-0.22384661436080933,"316":-1.9295811653137207,"317":0.18114495277404785,"318":0.8017471432685852,"319":-1.5095746517181396,"320":1.782189130783081,"321":-2.2230138778686523,"322":-0.2526467442512512,"323":1.4150553941726685,"324":-0.5476667284965515,"325":-1.765518307685852,"326":-1.2099462747573853,"327":-1.2391711473464966,"328":0.7555205225944519,"329":1.076111078262329,"330":-1.037515640258789,"331":-0.10031571984291077,"332":1.0077052116394043,"333":-0.5379958748817444,"334":1.2006497383117676,"335":-1.6936755180358887,"336":-0.43638819456100464,"337":-1.2800514698028564,"338":0.42580080032348633,"339":-1.3458002805709839,"340":-1.758878469467163,"341":2.078885316848755,"342":1.4140498638153076,"343":-0.6207547783851624,"344":0.11036784946918488,"345":-0.24931542575359344,"346":1.6911555528640747,"347":1.557273268699646,"348":0.7378355860710144,"349":-1.4078776836395264,"350":0.5705855488777161,"351":0.03111194632947445,"352":-1.8182998895645142,"353":2.1745171546936035,"354":-1.3905881643295288,"355":1.6073623895645142,"356":-0.27959898114204407,"357":-1.8747034072875977,"358":-0.1513659656047821,"359":1.075372576713562,"360":-0.60883629322052,"361":0.46576830744743347,"362":-0.6226499080657959,"363":0.4851026237010956,"364":-0.507599413394928,"365":2.037118434906006,"366":-0.19400319457054138,"367":-0.10723815858364105,"368":-0.31376662850379944,"369":-0.3230082392692566,"370":-0.2477724403142929,"371":1.1494022607803345,"372":-1.5008713006973267,"373":0.2915799915790558,"374":-1.2579107284545898,"375":0.24174387753009796,"376":-0.4955039918422699,"377":0.5027351975440979,"378":1.375927448272705,"379":0.0798644945025444,"380":0.3748212456703186,"381":-0.4145933985710144,"382":0.649746835231781,"383":0.1364532709121704,"384":-0.14937655627727509,"385":-0.40743139386177063,"386":0.4319799244403839,"387":0.3203267455101013,"388":0.738589882850647,"389":0.24941545724868774,"390":0.5766902565956116,"391":-0.7724964618682861,"392":0.5625003576278687,"393":-0.9113556146621704,"394":0.22188466787338257,"395":0.1834443062543869,"396":0.10229349136352539,"397":0.5822432637214661,"398":0.19073092937469482,"399":-0.8293870687484741}},"inputBias":{"rows":20,"columns":1,"weights":{"0":0.0610659085214138,"1":0.028981521725654602,"2":-0.014229371212422848,"3":0.8662596940994263,"4":0.28119727969169617,"5":0.7085888981819153,"6":-0.38911089301109314,"7":-1.0535082817077637,"8":0.4531005322933197,"9":0.4472584128379822,"10":-0.4687703847885132,"11":-0.6375736594200134,"12":-1.3620160818099976,"13":-0.07378381490707397,"14":-0.7597368955612183,"15":-0.2851268947124481,"16":0.990861177444458,"17":1.3322653770446777,"18":0.44363340735435486,"19":-1.2117444276809692}},"forgetMatrix":{"rows":20,"columns":31,"weights":{"0":0.05319131910800934,"1":0.9253931641578674,"2":-1.7581411600112915,"3":-0.4064564108848572,"4":-0.2655925750732422,"5":0.1744130253791809,"6":1.2055436372756958,"7":-0.14446420967578888,"8":0.26538896560668945,"9":-0.4248526096343994,"10":0.01810593530535698,"11":-0.3910015821456909,"12":-0.36187079548835754,"13":0.7678358554840088,"14":-0.3431800603866577,"15":0.12672670185565948,"16":-0.0030774769838899374,"17":0.696399986743927,"18":-0.5950480699539185,"19":-1.233691930770874,"20":0.11535174399614334,"21":-0.886540412902832,"22":-0.8543939590454102,"23":1.8392746448516846,"24":0.28748342394828796,"25":1.2730602025985718,"26":0.971078097820282,"27":-0.0006066751666367054,"28":-0.23001842200756073,"29":0.02612805739045143,"30":-1.076082706451416,"31":0.11085781455039978,"32":0.9335455894470215,"33":-1.4109376668930054,"34":-0.8552151322364807,"35":-1.003974199295044,"36":-0.05614454671740532,"37":0.38227400183677673,"38":0.747016966342926,"39":0.7427389025688171,"40":0.6903678178787231,"41":0.6455342173576355,"42":-0.7933274507522583,"43":-0.868446946144104,"44":0.7112045884132385,"45":0.5126542448997498,"46":-0.3793647885322571,"47":-0.9030026793479919,"48":0.5379193425178528,"49":-0.6054803133010864,"50":-0.8632052540779114,"51":-0.13786348700523376,"52":-0.9230782985687256,"53":-0.6232593059539795,"54":1.156468391418457,"55":-0.4626074731349945,"56":0.42611730098724365,"57":1.021349310874939,"58":-0.20186208188533783,"59":-0.8811661005020142,"60":-0.28224700689315796,"61":-0.8352242708206177,"62":0.784271776676178,"63":0.9320777654647827,"64":-0.10345333814620972,"65":-0.8274105787277222,"66":-0.8207221627235413,"67":-0.5595219135284424,"68":0.8645989894866943,"69":0.5975961089134216,"70":0.883872926235199,"71":0.174650639295578,"72":0.8653405904769897,"73":-1.4130393266677856,"74":-0.7855106592178345,"75":0.5684118866920471,"76":0.3127116858959198,"77":0.2521851658821106,"78":-0.6551513075828552,"79":-0.11871156096458435,"80":-0.7057415843009949,"81":-1.1089717149734497,"82":-0.29457470774650574,"83":-0.7700070142745972,"84":-0.628803551197052,"85":1.7690815925598145,"86":-0.08314551413059235,"87":-0.7731302976608276,"88":0.6326740980148315,"89":0.08523251861333847,"90":-0.7032257914543152,"91":-0.8459606766700745,"92":-0.39746564626693726,"93":-0.7026923894882202,"94":0.8152269124984741,"95":-0.2699736952781677,"96":-0.752918541431427,"97":-1.1624311208724976,"98":0.08019217848777771,"99":0.22980675101280212,"100":1.3212895393371582,"101":1.3029834032058716,"102":0.10490169376134872,"103":0.8560245633125305,"104":-0.7171370387077332,"105":-1.3403702974319458,"106":1.036531686782837,"107":0.1750117838382721,"108":0.5721095204353333,"109":0.29138240218162537,"110":-0.3841330111026764,"111":-0.058368612080812454,"112":-2.087465763092041,"113":0.02191932126879692,"114":-0.8940309286117554,"115":0.706822395324707,"116":-0.198597714304924,"117":1.543375015258789,"118":-0.41138792037963867,"119":-0.20119911432266235,"120":1.2405389547348022,"121":-1.0240310430526733,"122":0.10380221158266068,"123":0.9671290516853333,"124":-1.5659035444259644,"125":0.25071460008621216,"126":-0.06556518375873566,"127":-0.4570659399032593,"128":-0.9212584495544434,"129":1.5059154033660889,"130":-0.07166106253862381,"131":0.477936327457428,"132":0.9572924971580505,"133":0.5472646951675415,"134":0.1793956607580185,"135":0.22647221386432648,"136":-0.5652357339859009,"137":0.6290168166160583,"138":0.31985121965408325,"139":1.6074588298797607,"140":0.7424581050872803,"141":0.07274603098630905,"142":1.0128885507583618,"143":-1.6283904314041138,"144":-0.1788061112165451,"145":-0.21793250739574432,"146":0.8460078835487366,"147":-1.609060525894165,"148":0.47703954577445984,"149":-0.7121478915214539,"150":-0.20797258615493774,"151":0.3561980426311493,"152":-0.6025049090385437,"153":0.18529826402664185,"154":1.372353196144104,"155":-0.34547409415245056,"156":0.07335593551397324,"157":-0.1747673600912094,"158":0.14230473339557648,"159":-0.3304007947444916,"160":-0.06171245500445366,"161":0.24592061340808868,"162":0.31891724467277527,"163":0.017709041014313698,"164":-0.8312559127807617,"165":0.2832798659801483,"166":-0.45186904072761536,"167":-0.24982886016368866,"168":0.2029266655445099,"169":-0.4692571759223938,"170":0.34729838371276855,"171":0.7873634099960327,"172":-1.0730623006820679,"173":-0.10314841568470001,"174":-0.7733289003372192,"175":-0.531984269618988,"176":0.17616449296474457,"177":1.0496013164520264,"178":-1.530144214630127,"179":1.0889006853103638,"180":0.44007959961891174,"181":-0.8728207945823669,"182":0.6122896075248718,"183":-0.18755967915058136,"184":-0.15047764778137207,"185":1.0941647291183472,"186":0.6478168368339539,"187":0.8510990738868713,"188":0.2381075918674469,"189":0.0791548416018486,"190":-0.1831078827381134,"191":-1.7492501735687256,"192":-0.005786859430372715,"193":0.2721932530403137,"194":-0.8910136818885803,"195":-1.232882022857666,"196":0.05079382285475731,"197":0.3293026089668274,"198":-0.20002849400043488,"199":0.05780008062720299,"200":-0.7391793131828308,"201":-1.569524884223938,"202":-0.5490712523460388,"203":-0.8633908033370972,"204":-1.587507724761963,"205":-1.0699946880340576,"206":-0.2612551748752594,"207":0.025871289893984795,"208":1.3473588228225708,"209":1.3240350484848022,"210":-0.6469510793685913,"211":-0.08685517311096191,"212":-1.4124369621276855,"213":-0.5211511850357056,"214":0.010803875513374805,"215":-0.953981339931488,"216":-1.629526972770691,"217":-0.8273435235023499,"218":0.37497639656066895,"219":-1.0402129888534546,"220":-1.0141562223434448,"221":-1.3448821306228638,"222":0.49868151545524597,"223":0.960178017616272,"224":1.2949053049087524,"225":1.1895564794540405,"226":0.5056914687156677,"227":0.6516967415809631,"228":-0.23441633582115173,"229":-0.9341382384300232,"230":0.7540386915206909,"231":0.5038287043571472,"232":0.7267266511917114,"233":0.8611254692077637,"234":0.7375854253768921,"235":0.4356498122215271,"236":0.17597118020057678,"237":1.0523195266723633,"238":-0.32372066378593445,"239":-0.2929050624370575,"240":-0.565095067024231,"241":0.8310061693191528,"242":-1.1292903423309326,"243":0.7626931071281433,"244":0.5751696825027466,"245":-0.8463931679725647,"246":0.6091178059577942,"247":0.6868030428886414,"248":2.3831257820129395,"249":-0.009786968119442463,"250":-1.4657397270202637,"251":-0.04431581869721413,"252":-0.22195354104042053,"253":-0.6722978353500366,"254":0.8358741998672485,"255":0.5343275666236877,"256":0.12534251809120178,"257":-0.4876697361469269,"258":0.3379526138305664,"259":1.358536720275879,"260":-0.23082882165908813,"261":0.1754778027534485,"262":-0.8469518423080444,"263":-0.6787944436073303,"264":-1.0135961771011353,"265":0.049467720091342926,"266":-0.685975193977356,"267":1.2600860595703125,"268":0.7526566386222839,"269":0.2906005084514618,"270":-0.3999568223953247,"271":0.3375088572502136,"272":-0.5311710238456726,"273":-1.0589320659637451,"274":0.5385075807571411,"275":-1.1419892311096191,"276":0.1444976031780243,"277":-0.5151464939117432,"278":-1.3822778463363647,"279":0.504662036895752,"280":-0.3029240667819977,"281":0.864815890789032,"282":0.3768702745437622,"283":0.8319599032402039,"284":-1.3256049156188965,"285":0.022720007225871086,"286":-0.11338581144809723,"287":-1.9625200033187866,"288":-0.8920764923095703,"289":-0.9311806559562683,"290":0.4314201772212982,"291":1.032038927078247,"292":-0.9971848726272583,"293":-0.9813442826271057,"294":-0.8060309290885925,"295":-0.9229232668876648,"296":-0.6516702175140381,"297":-0.5330535769462585,"298":0.6046812534332275,"299":-0.33121761679649353,"300":0.687501072883606,"301":1.0058023929595947,"302":0.7390694618225098,"303":-0.34182748198509216,"304":1.0028917789459229,"305":-1.055111050605774,"306":-0.7877199649810791,"307":0.5688483715057373,"308":-0.5764466524124146,"309":-0.8576705455780029,"310":-0.525880753993988,"311":0.616301953792572,"312":-0.5105764865875244,"313":-0.6308948993682861,"314":-0.8382981419563293,"315":0.0318753719329834,"316":0.5586404800415039,"317":0.8241379261016846,"318":0.9032197594642639,"319":1.1336079835891724,"320":0.899583637714386,"321":-0.5229387879371643,"322":-0.8193143606185913,"323":0.7619768381118774,"324":0.8322538733482361,"325":0.5583587288856506,"326":0.5091244578361511,"327":0.8503661155700684,"328":0.2339547574520111,"329":-0.3247860372066498,"330":0.21921783685684204,"331":-0.45210692286491394,"332":0.19925987720489502,"333":-0.22653505206108093,"334":0.33256715536117554,"335":-0.33885902166366577,"336":0.5005943179130554,"337":0.49888044595718384,"338":-1.1204323768615723,"339":0.15510669350624084,"340":0.770346462726593,"341":0.2307858020067215,"342":-0.9948708415031433,"343":-0.02131008543074131,"344":0.9312294125556946,"345":1.027851939201355,"346":0.06882894039154053,"347":0.10158228874206543,"348":-0.5799874663352966,"349":-0.5633021593093872,"350":-0.11578939110040665,"351":-0.8674512505531311,"352":0.7623447775840759,"353":0.9119275212287903,"354":-0.41295701265335083,"355":-0.9234179258346558,"356":-0.22205783426761627,"357":-0.5202606320381165,"358":-0.35374268889427185,"359":-0.3350841999053955,"360":1.0509216785430908,"361":-0.8668565154075623,"362":0.5282557010650635,"363":0.8755815625190735,"364":-0.5199238657951355,"365":-0.8097256422042847,"366":0.7022156119346619,"367":-0.7079780101776123,"368":-1.1464675664901733,"369":0.49026960134506226,"370":-0.401956170797348,"371":-0.22110751271247864,"372":0.014159093610942364,"373":-0.07940162718296051,"374":0.42197397351264954,"375":0.8374362587928772,"376":0.7369810938835144,"377":-1.073614478111267,"378":-0.7322537302970886,"379":-0.8009515404701233,"380":-1.4614161252975464,"381":-0.8072440028190613,"382":-0.46557125449180603,"383":0.4747346341609955,"384":0.7515745759010315,"385":-0.8382323980331421,"386":-1.1665775775909424,"387":-0.8793909549713135,"388":-0.9690460562705994,"389":-1.3751171827316284,"390":-1.0830966234207153,"391":-0.3164697587490082,"392":-0.8026072978973389,"393":0.28189340233802795,"394":0.54697585105896,"395":0.7145376205444336,"396":-0.28652745485305786,"397":0.8076342344284058,"398":-0.80232834815979,"399":-0.38290244340896606,"400":0.6523851752281189,"401":-1.1071062088012695,"402":-0.8414424061775208,"403":-0.16389448940753937,"404":-1.0639675855636597,"405":0.5821120142936707,"406":0.5697556138038635,"407":1.2307000160217285,"408":0.27972787618637085,"409":-0.4129040241241455,"410":-0.62633216381073,"411":-1.2194123268127441,"412":0.07330258935689926,"413":-1.1670359373092651,"414":2.534672737121582,"415":0.40868306159973145,"416":-0.4600079655647278,"417":-0.6642772555351257,"418":-1.0396796464920044,"419":-0.009127157740294933,"420":-0.33513450622558594,"421":0.15132871270179749,"422":1.0774749517440796,"423":0.6993917226791382,"424":0.7343152761459351,"425":1.6109954118728638,"426":-0.6108655333518982,"427":-0.45217955112457275,"428":0.8065007925033569,"429":-1.1623715162277222,"430":-0.2098270207643509,"431":0.22914989292621613,"432":1.01017165184021,"433":0.2954395115375519,"434":0.35695773363113403,"435":0.1897377222776413,"436":-0.8351247310638428,"437":-0.12137899547815323,"438":0.1014728993177414,"439":-0.34810322523117065,"440":0.884334146976471,"441":-0.07158219069242477,"442":0.5312259793281555,"443":1.2434707880020142,"444":0.5428394079208374,"445":-0.5526621341705322,"446":-0.38687664270401,"447":0.8149430155754089,"448":0.3545191287994385,"449":-0.8834287524223328,"450":-0.2659158706665039,"451":0.6279584169387817,"452":-0.7573021054267883,"453":0.9970648288726807,"454":0.3870863914489746,"455":-0.834808886051178,"456":-0.13194230198860168,"457":1.4085556268692017,"458":-0.9532980918884277,"459":0.9955148100852966,"460":-0.09643764793872833,"461":-1.1771934032440186,"462":-0.7166662812232971,"463":-0.15786005556583405,"464":-0.4168473780155182,"465":-1.4846150875091553,"466":0.8562026619911194,"467":-0.9625702500343323,"468":-0.39422786235809326,"469":-0.6876596212387085,"470":-0.4072691798210144,"471":-0.602892279624939,"472":0.5914849042892456,"473":0.3793701231479645,"474":0.6990819573402405,"475":0.6774628758430481,"476":0.36177369952201843,"477":-1.1720526218414307,"478":1.0763752460479736,"479":0.3852146863937378,"480":-1.5867106914520264,"481":-1.3195102214813232,"482":0.01715797185897827,"483":-1.0116978883743286,"484":-1.4062917232513428,"485":0.4494567811489105,"486":-0.13975587487220764,"487":2.0061357021331787,"488":0.7455177307128906,"489":0.4004323482513428,"490":1.3027899265289307,"491":-1.060361385345459,"492":0.20102013647556305,"493":-0.8691706657409668,"494":-0.1404077559709549,"495":-0.1498723179101944,"496":0.6072263121604919,"497":1.308691143989563,"498":-1.2436649799346924,"499":-0.6989874243736267,"500":-0.45806074142456055,"501":-0.4638548791408539,"502":1.2098253965377808,"503":0.23789648711681366,"504":0.7063679099082947,"505":-0.10922211408615112,"506":1.3942863941192627,"507":-0.8606296181678772,"508":-0.6424202919006348,"509":0.765294075012207,"510":-0.09320910274982452,"511":0.3413054347038269,"512":-0.161269873380661,"513":-0.1565033197402954,"514":-0.7766751646995544,"515":-0.7806731462478638,"516":0.27375730872154236,"517":-1.3799649477005005,"518":-0.905103325843811,"519":0.6860054731369019,"520":0.2039514034986496,"521":0.12425795942544937,"522":0.5618994235992432,"523":-0.2644789218902588,"524":-0.5438477993011475,"525":-0.4898504316806793,"526":-0.5062457323074341,"527":0.6018670201301575,"528":-0.4485720694065094,"529":-0.20099015533924103,"530":0.7467589378356934,"531":1.6562906503677368,"532":-0.3655760586261749,"533":0.7483809590339661,"534":-0.4829302132129669,"535":-1.207387089729309,"536":-0.8148926496505737,"537":-0.10327189415693283,"538":0.3898940980434418,"539":0.4797095060348511,"540":-0.17787428200244904,"541":-1.6097688674926758,"542":0.5413602590560913,"543":0.11066924035549164,"544":-0.07225258648395538,"545":0.5945819020271301,"546":2.100553035736084,"547":0.6468366384506226,"548":0.5506491661071777,"549":-0.08342371135950089,"550":-0.00748771196231246,"551":-0.5449923872947693,"552":-0.2069157510995865,"553":-0.3188534080982208,"554":-0.23561979830265045,"555":0.216808021068573,"556":0.9433068037033081,"557":-0.27410051226615906,"558":0.09417611360549927,"559":-0.4378407895565033,"560":1.8486406803131104,"561":0.6588355302810669,"562":-0.20352937281131744,"563":-0.7465544939041138,"564":-2.099886894226074,"565":-0.1873433142900467,"566":-0.29283440113067627,"567":0.8094617128372192,"568":-0.6281144022941589,"569":0.5736243724822998,"570":0.6902607083320618,"571":-1.1768379211425781,"572":1.2022870779037476,"573":-1.5995001792907715,"574":-1.0282435417175293,"575":-0.5177813172340393,"576":-1.5147528648376465,"577":0.32058608531951904,"578":-1.022464632987976,"579":0.8310983180999756,"580":1.7560871839523315,"581":0.41622650623321533,"582":-0.48241129517555237,"583":1.2031363248825073,"584":-1.0222731828689575,"585":-0.35191163420677185,"586":0.39668917655944824,"587":-1.1823784112930298,"588":0.2439531832933426,"589":0.6060979962348938,"590":0.4770503342151642,"591":-1.053017258644104,"592":-0.006908814422786236,"593":0.22699058055877686,"594":0.05381142720580101,"595":0.6414124369621277,"596":-0.2517895996570587,"597":0.5354076027870178,"598":0.613067626953125,"599":0.6505571007728577,"600":-0.02194269746541977,"601":-0.5356069207191467,"602":0.9068470597267151,"603":0.015820661559700966,"604":-0.6615670919418335,"605":-0.4179040193557739,"606":0.1998119354248047,"607":-0.7933905720710754,"608":1.3307119607925415,"609":-0.07554371654987335,"610":-0.6440783739089966,"611":-0.08134529739618301,"612":-0.2712723910808563,"613":-0.8452989459037781,"614":1.007956624031067,"615":-0.3586316704750061,"616":-1.1814104318618774,"617":-0.5145718455314636,"618":-0.7099359631538391,"619":-0.24307335913181305}},"forgetHidden":{"rows":20,"columns":20,"weights":{"0":-1.4385994672775269,"1":0.6981581449508667,"2":1.7756050825119019,"3":0.2741742730140686,"4":-0.5178314447402954,"5":-0.8589363694190979,"6":1.1994903087615967,"7":-0.32900768518447876,"8":0.6112809181213379,"9":-1.5206321477890015,"10":-0.4746021628379822,"11":0.07907348871231079,"12":-0.9312635064125061,"13":1.2762212753295898,"14":0.17022457718849182,"15":0.5619825124740601,"16":-0.5708239078521729,"17":-0.7117869257926941,"18":-1.1002448797225952,"19":-0.23742297291755676,"20":-0.004245700780302286,"21":0.5636624097824097,"22":0.19338829815387726,"23":-0.8754101395606995,"24":0.3356199860572815,"25":0.10156955569982529,"26":0.16723743081092834,"27":1.0333890914916992,"28":-0.24912166595458984,"29":-0.49687570333480835,"30":1.0934878587722778,"31":1.0560470819473267,"32":-0.6591615080833435,"33":0.5999926328659058,"34":-0.8813440799713135,"35":0.028623245656490326,"36":1.3543058633804321,"37":-0.3773672878742218,"38":0.058695271611213684,"39":0.6389080286026001,"40":-1.5271453857421875,"41":1.3859384059906006,"42":1.493356704711914,"43":-0.796614944934845,"44":-0.7611903548240662,"45":0.06816676259040833,"46":0.5125532150268555,"47":0.7833454012870789,"48":1.1249901056289673,"49":-0.6303696036338806,"50":0.23097985982894897,"51":0.8452897667884827,"52":-0.23813369870185852,"53":0.7819241285324097,"54":-0.9901350140571594,"55":0.7927492260932922,"56":0.9802587628364563,"57":-0.2955258786678314,"58":1.3270906209945679,"59":0.6937088370323181,"60":0.977975606918335,"61":-0.2746703624725342,"62":-0.424926221370697,"63":-0.26375794410705566,"64":0.3398156464099884,"65":0.2794618308544159,"66":0.1330498307943344,"67":0.3826671242713928,"68":-0.02056986279785633,"69":-0.2438831627368927,"70":0.6750909686088562,"71":0.42390385270118713,"72":-0.10407985001802444,"73":0.2268117219209671,"74":-0.24481897056102753,"75":0.6042813658714294,"76":0.254880428314209,"77":-0.21850547194480896,"78":0.14890055358409882,"79":0.806980550289154,"80":0.7295915484428406,"81":-0.21506327390670776,"82":-0.611562967300415,"83":-0.1149815022945404,"84":-0.17352038621902466,"85":-0.7443295121192932,"86":-0.2672126293182373,"87":-0.5451352000236511,"88":-1.5509488582611084,"89":-0.09334465861320496,"90":-0.30944669246673584,"91":-0.00496337516233325,"92":0.32033535838127136,"93":-0.08334748446941376,"94":0.5055963397026062,"95":-0.16825203597545624,"96":1.3034961223602295,"97":0.14090408384799957,"98":0.05760961025953293,"99":-0.01077522523701191,"100":-0.07591839134693146,"101":0.2655256390571594,"102":-0.5109961628913879,"103":1.2183763980865479,"104":-1.912371039390564,"105":-1.2676877975463867,"106":0.25315356254577637,"107":-0.540337085723877,"108":0.7825597524642944,"109":-0.5612053275108337,"110":-0.6023415923118591,"111":-0.34539738297462463,"112":-0.13408946990966797,"113":-0.021841423586010933,"114":0.34746286273002625,"115":-1.0194474458694458,"116":0.44491419196128845,"117":-0.013687933795154095,"118":2.0099735260009766,"119":-0.23782387375831604,"120":-0.27039340138435364,"121":0.2771507799625397,"122":0.39231520891189575,"123":-0.543322741985321,"124":0.8173114657402039,"125":0.42294129729270935,"126":-0.2816254198551178,"127":0.16541855037212372,"128":0.3595368564128876,"129":0.3091001808643341,"130":0.34440404176712036,"131":0.05661940947175026,"132":-0.06745918840169907,"133":-0.6787441968917847,"134":0.3595428466796875,"135":0.5734570622444153,"136":0.9093828797340393,"137":-0.6892776489257812,"138":0.43448764085769653,"139":-0.7450306415557861,"140":-0.017620667815208435,"141":-0.23064349591732025,"142":-0.18919700384140015,"143":-0.19745635986328125,"144":0.30585870146751404,"145":-0.23024630546569824,"146":0.3311774432659149,"147":-0.15838970243930817,"148":0.17169325053691864,"149":-0.4360174834728241,"150":0.2579931914806366,"151":-0.2567002475261688,"152":-0.39558133482933044,"153":-0.11964400857686996,"154":0.1999543011188507,"155":-0.4332573711872101,"156":-0.11993135511875153,"157":-0.04211398959159851,"158":0.3559982478618622,"159":-0.28076085448265076,"160":0.717015266418457,"161":-0.44989779591560364,"162":0.4376329481601715,"163":0.3024877607822418,"164":-0.46915727853775024,"165":-0.2424827367067337,"166":-0.4081782102584839,"167":-0.2278943508863449,"168":0.8863680362701416,"169":0.7215832471847534,"170":0.13793256878852844,"171":-0.18842820823192596,"172":0.36116504669189453,"173":-0.4311763048171997,"174":-0.5791965126991272,"175":-0.1392480581998825,"176":-0.35099175572395325,"177":-0.6124582290649414,"178":0.027051126584410667,"179":0.051793355494737625,"180":-0.007836815901100636,"181":-0.014911361038684845,"182":0.10201005637645721,"183":-0.7708552479743958,"184":0.8042334914207458,"185":0.2809896171092987,"186":-0.07235950976610184,"187":0.1380280703306198,"188":0.123894102871418,"189":0.0614275187253952,"190":0.0005477796075865626,"191":0.054394446313381195,"192":-0.03131008520722389,"193":-0.34699389338493347,"194":0.23720106482505798,"195":0.18687833845615387,"196":0.4264853596687317,"197":-0.02824811451137066,"198":0.3028954267501831,"199":-0.19393113255500793,"200":-0.2499779462814331,"201":0.2132139354944229,"202":-0.2533360719680786,"203":0.20546001195907593,"204":-0.3097772002220154,"205":0.01962779276072979,"206":-0.23049737513065338,"207":-0.14245392382144928,"208":0.7083050012588501,"209":0.1719365417957306,"210":-0.21555855870246887,"211":-0.21630817651748657,"212":0.059465441852808,"213":-0.05903422459959984,"214":0.18968906998634338,"215":-0.0018706906121224165,"216":0.5890339612960815,"217":0.13432082533836365,"218":0.7385409474372864,"219":-0.1876503974199295,"220":-1.4594095945358276,"221":0.8541890382766724,"222":3.383056640625,"223":-0.685935914516449,"224":1.0915110111236572,"225":0.030995769426226616,"226":0.3533543646335602,"227":1.5843009948730469,"228":-0.46631115674972534,"229":-1.4619200229644775,"230":1.309374451637268,"231":1.5181938409805298,"232":-0.636076033115387,"233":-0.5846984386444092,"234":-1.509112000465393,"235":0.22065678238868713,"236":1.5320370197296143,"237":0.15588340163230896,"238":-0.6995896100997925,"239":1.650760531425476,"240":0.07520294934511185,"241":-0.2508431077003479,"242":0.08989764750003815,"243":-0.17294159531593323,"244":0.2226542830467224,"245":0.062168776988983154,"246":-0.5372166633605957,"247":-0.22555968165397644,"248":0.22586573660373688,"249":-0.17993876338005066,"250":-0.0015311944298446178,"251":-0.24922913312911987,"252":0.23604878783226013,"253":-0.47429075837135315,"254":-0.10332900285720825,"255":-0.5303639769554138,"256":0.4824868440628052,"257":0.20190681517124176,"258":-0.47349271178245544,"259":-0.4966430366039276,"260":0.42173564434051514,"261":-0.6800104379653931,"262":-0.21636426448822021,"263":0.16200746595859528,"264":0.0007605692953802645,"265":0.35994985699653625,"266":-0.377106249332428,"267":-1.09413743019104,"268":0.9792811870574951,"269":0.09873095899820328,"270":0.4585205316543579,"271":-1.2736645936965942,"272":0.635844349861145,"273":0.1526588648557663,"274":1.5634028911590576,"275":-0.1729191541671753,"276":-0.7422208189964294,"277":-0.03294259309768677,"278":-0.044158585369586945,"279":0.18302154541015625,"280":-0.7905871868133545,"281":0.7459717392921448,"282":-0.742202877998352,"283":-0.7926856875419617,"284":0.5925281643867493,"285":0.6463627219200134,"286":0.5279330015182495,"287":1.2082301378250122,"288":-0.06885372847318649,"289":0.1387624889612198,"290":0.5302707552909851,"291":1.5435973405838013,"292":0.0018958506407216191,"293":-0.9052761197090149,"294":-1.4023027420043945,"295":-0.43143323063850403,"296":1.1455931663513184,"297":0.5413459539413452,"298":-0.10331285744905472,"299":0.7200239896774292,"300":0.2518039643764496,"301":-0.09790513664484024,"302":-0.7506019473075867,"303":-0.743200957775116,"304":0.9150378704071045,"305":0.21179932355880737,"306":-0.3986864686012268,"307":0.5843966603279114,"308":-0.895348072052002,"309":-0.6842644214630127,"310":-0.022557439282536507,"311":1.2997863292694092,"312":-0.4609951972961426,"313":0.5992403626441956,"314":-0.33199524879455566,"315":0.881723940372467,"316":0.24385923147201538,"317":-0.17723052203655243,"318":-0.5639646649360657,"319":-0.12539061903953552,"320":-0.25755107402801514,"321":0.9394257664680481,"322":0.3334573805332184,"323":-0.6821568012237549,"324":0.4233635663986206,"325":0.5338917374610901,"326":-0.44290590286254883,"327":0.7721156477928162,"328":-0.0605151541531086,"329":0.25161150097846985,"330":0.8084288239479065,"331":0.9069713354110718,"332":0.14964446425437927,"333":0.09423065185546875,"334":-1.0247420072555542,"335":1.2023276090621948,"336":1.0063306093215942,"337":0.3806759715080261,"338":-0.2923945188522339,"339":1.2541953325271606,"340":-0.8346372246742249,"341":0.38923221826553345,"342":0.8056018948554993,"343":0.03862297907471657,"344":-0.21495220065116882,"345":0.26819053292274475,"346":-0.6997910737991333,"347":0.3688725233078003,"348":0.8934825658798218,"349":0.02335018664598465,"350":-0.30886125564575195,"351":0.05036068335175514,"352":0.310220330953598,"353":0.10850478708744049,"354":-0.7524963617324829,"355":0.4378683865070343,"356":0.1934541016817093,"357":-0.21919386088848114,"358":0.26149269938468933,"359":-0.21760082244873047,"360":0.14296288788318634,"361":-0.2644946277141571,"362":-0.09071406722068787,"363":0.27184659242630005,"364":-0.3168737292289734,"365":-0.5460242629051208,"366":-0.7056413888931274,"367":0.22675547003746033,"368":0.1658479869365692,"369":-0.5353315472602844,"370":-0.20741760730743408,"371":-0.2244166135787964,"372":0.008274574764072895,"373":-0.027862049639225006,"374":-0.10642841458320618,"375":0.007396480068564415,"376":-0.6940097212791443,"377":0.47907862067222595,"378":-0.12653402984142303,"379":0.1494932472705841,"380":-0.2809360921382904,"381":0.46932822465896606,"382":-0.27697667479515076,"383":-2.051450252532959,"384":1.6743072271347046,"385":1.0566719770431519,"386":0.40354445576667786,"387":1.3007067441940308,"388":-0.5941868424415588,"389":-1.5011214017868042,"390":0.5435996055603027,"391":1.058500051498413,"392":-0.8127894401550293,"393":0.571010410785675,"394":-1.2689707279205322,"395":0.6268768906593323,"396":1.3635516166687012,"397":0.5288634896278381,"398":-1.143689751625061,"399":1.7299630641937256}},"forgetBias":{"rows":20,"columns":1,"weights":{"0":0,"1":0,"2":0,"3":0,"4":0,"5":0,"6":0,"7":0,"8":0,"9":0,"10":0,"11":0,"12":0,"13":0,"14":0,"15":0,"16":0,"17":0,"18":0,"19":0}},"outputMatrix":{"rows":20,"columns":31,"weights":{"0":0.6042992472648621,"1":-0.43141940236091614,"2":0.18184734880924225,"3":0.5922623872756958,"4":0.14427784085273743,"5":-0.5083203315734863,"6":-0.37362563610076904,"7":-0.02648395672440529,"8":-0.8237175345420837,"9":0.8978343605995178,"10":-0.6910502314567566,"11":0.7376224398612976,"12":0.38602831959724426,"13":-0.7553001642227173,"14":0.45966672897338867,"15":-1.1322505474090576,"16":-0.41856175661087036,"17":-0.3297179043292999,"18":-0.9882774949073792,"19":0.21330277621746063,"20":-0.9653001427650452,"21":0.5652685165405273,"22":1.051576852798462,"23":-0.08089863508939743,"24":-0.9700798988342285,"25":0.5130095481872559,"26":-0.4629843533039093,"27":-0.7494403123855591,"28":-0.14171507954597473,"29":-0.5937766432762146,"30":-0.3584396243095398,"31":0.3354068398475647,"32":-0.4415091276168823,"33":0.2711588442325592,"34":1.150987148284912,"35":1.4821057319641113,"36":-1.177384376525879,"37":-0.410140722990036,"38":-0.4385664463043213,"39":-1.931089162826538,"40":-0.41398799419403076,"41":-0.9952000379562378,"42":-0.4635191857814789,"43":0.8213722109794617,"44":-0.8602643609046936,"45":-0.5279598832130432,"46":-0.6376221179962158,"47":-1.0559736490249634,"48":-0.3916783034801483,"49":-0.606559693813324,"50":-0.22811342775821686,"51":-1.0519565343856812,"52":0.5659201145172119,"53":-0.0808892771601677,"54":0.9768956899642944,"55":-0.49219372868537903,"56":1.1305054426193237,"57":-0.19502295553684235,"58":-0.5605421662330627,"59":0.9143170714378357,"60":-0.6498137712478638,"61":-1.110612154006958,"62":-0.48979249596595764,"63":0.6206611394882202,"64":-0.38111400604248047,"65":-0.1055501401424408,"66":-0.06885149329900742,"67":1.0582358837127686,"68":0.024164939299225807,"69":-0.3349911868572235,"70":-1.0513092279434204,"71":0.7870748043060303,"72":-0.04519277065992355,"73":-0.37337085604667664,"74":0.33756640553474426,"75":-0.31970521807670593,"76":0.6130992770195007,"77":0.11975256353616714,"78":0.6382265686988831,"79":0.3251973092556,"80":-0.3887852430343628,"81":-1.1251449584960938,"82":-0.5125369429588318,"83":-0.5210052728652954,"84":-0.43356773257255554,"85":-0.16626162827014923,"86":-0.06711637228727341,"87":0.9155563116073608,"88":0.48702457547187805,"89":0.03701481968164444,"90":-0.3627775013446808,"91":-0.20668591558933258,"92":0.2414078563451767,"93":-1.1557166576385498,"94":0.06238338351249695,"95":-0.45229634642601013,"96":-1.1327472925186157,"97":-1.4482344388961792,"98":1.087997317314148,"99":0.4041784703731537,"100":1.3638759851455688,"101":1.221968412399292,"102":0.47030389308929443,"103":0.6978726983070374,"104":0.09115784615278244,"105":-1.1327810287475586,"106":0.5440938472747803,"107":0.6143624186515808,"108":0.35672158002853394,"109":0.7922192215919495,"110":0.35401928424835205,"111":1.3529914617538452,"112":-0.6321638822555542,"113":0.99604332447052,"114":-0.19886994361877441,"115":-0.047748830169439316,"116":-0.5690334439277649,"117":1.2883634567260742,"118":-0.7049193978309631,"119":0.2634938061237335,"120":0.8587448596954346,"121":-0.7703268527984619,"122":2.250319480895996,"123":1.0604312419891357,"124":-1.3689578771591187,"125":0.6448973417282104,"126":-0.6577351093292236,"127":-1.1541348695755005,"128":-0.9698644876480103,"129":1.0691051483154297,"130":0.10067222267389297,"131":1.0031124353408813,"132":0.6854250431060791,"133":0.20508351922035217,"134":0.4053286910057068,"135":-0.35683774948120117,"136":-0.39842838048934937,"137":0.3381654620170593,"138":0.9186633229255676,"139":1.2048553228378296,"140":1.1223515272140503,"141":0.8031352758407593,"142":1.5456568002700806,"143":-0.4403301477432251,"144":0.9536533951759338,"145":-0.6863119006156921,"146":-0.2229045331478119,"147":-0.6168999671936035,"148":1.5553357601165771,"149":-0.9253482222557068,"150":0.6246644854545593,"151":1.413160800933838,"152":-0.6884316205978394,"153":1.4389240741729736,"154":1.6688921451568604,"155":-0.1353273242712021,"156":0.47171640396118164,"157":-0.15641462802886963,"158":-0.45845767855644226,"159":-0.6115542650222778,"160":-0.14783024787902832,"161":0.0868738442659378,"162":0.5756009817123413,"163":-0.3126515746116638,"164":-1.1589480638504028,"165":0.010150418616831303,"166":-0.32428449392318726,"167":-0.1418401449918747,"168":-0.09268256276845932,"169":-0.06086103618144989,"170":0.20857174694538116,"171":-0.5520585775375366,"172":0.05923604592680931,"173":0.13011358678340912,"174":-2.5858802795410156,"175":-0.17506645619869232,"176":0.07020924985408783,"177":0.039634447544813156,"178":-0.6105019450187683,"179":-0.435719758272171,"180":-1.0506155490875244,"181":0.04292531684041023,"182":0.13779816031455994,"183":0.1921582967042923,"184":0.020525647327303886,"185":-1.0244358777999878,"186":-0.7768398523330688,"187":-1.3031457662582397,"188":0.12300553917884827,"189":0.7215231657028198,"190":0.8030946254730225,"191":0.5764132738113403,"192":-1.1437480449676514,"193":-0.9330389499664307,"194":-0.15964722633361816,"195":-0.25445857644081116,"196":-0.5867056250572205,"197":0.8355066180229187,"198":0.5607928037643433,"199":-0.5188245177268982,"200":-0.19138458371162415,"201":-0.02354530431330204,"202":0.14987792074680328,"203":0.08527261018753052,"204":0.39221522212028503,"205":0.16015778481960297,"206":0.4320533871650696,"207":0.7676666975021362,"208":0.7952218651771545,"209":-0.702579140663147,"210":0.3147367835044861,"211":0.8873766660690308,"212":-0.624018132686615,"213":0.3435579240322113,"214":0.2655524015426636,"215":1.111348032951355,"216":0.6586461067199707,"217":1.2261426448822021,"218":1.3958184719085693,"219":-0.24187275767326355,"220":-0.5474343299865723,"221":-0.15691234171390533,"222":-0.8145351409912109,"223":0.06951433420181274,"224":-0.15484105050563812,"225":-0.4707963466644287,"226":0.2558743357658386,"227":0.3091994524002075,"228":-0.5739572644233704,"229":-0.31810152530670166,"230":0.32312431931495667,"231":0.85841304063797,"232":-0.8354970216751099,"233":-1.124881625175476,"234":0.5904340744018555,"235":-0.6030229926109314,"236":-0.019750311970710754,"237":0.5130961537361145,"238":-1.0456359386444092,"239":-1.2030829191207886,"240":1.2445850372314453,"241":-0.7377430200576782,"242":0.327755868434906,"243":0.8567930459976196,"244":-0.9179771542549133,"245":-0.1267804354429245,"246":-0.18698522448539734,"247":-1.751577615737915,"248":-0.3962147533893585,"249":-0.6189427375793457,"250":-0.710814893245697,"251":0.6193947196006775,"252":0.1845802366733551,"253":-0.08672372251749039,"254":0.7671679854393005,"255":-0.0009250835282728076,"256":0.6903435587882996,"257":-0.8907355070114136,"258":-0.19411179423332214,"259":0.6254594922065735,"260":-0.12335427105426788,"261":0.49215471744537354,"262":-1.0214061737060547,"263":-0.09724432229995728,"264":0.19160769879817963,"265":-0.3245978057384491,"266":1.271712064743042,"267":1.786657452583313,"268":1.518898606300354,"269":0.6551015973091125,"270":0.3687954545021057,"271":-0.9727603793144226,"272":-0.35857462882995605,"273":-0.34999752044677734,"274":-0.48349735140800476,"275":-0.361089825630188,"276":0.3891725242137909,"277":1.1400750875473022,"278":0.3703645169734955,"279":-0.35711541771888733,"280":-0.1804947704076767,"281":0.00032098425435833633,"282":0.2713673412799835,"283":-0.5491304397583008,"284":-0.5794643759727478,"285":0.3806944787502289,"286":0.11671283841133118,"287":0.26674556732177734,"288":-2.304088830947876,"289":0.07753660529851913,"290":-0.20622999966144562,"291":0.39269140362739563,"292":-0.3480531573295593,"293":-1.4563974142074585,"294":1.8068605661392212,"295":0.9534072875976562,"296":-0.7997995615005493,"297":0.30181407928466797,"298":-1.1230366230010986,"299":-0.4598483443260193,"300":0.6983842253684998,"301":-0.3452688157558441,"302":-1.2999064922332764,"303":0.7964478731155396,"304":-1.867472529411316,"305":0.3285672068595886,"306":0.7384613156318665,"307":0.5440074801445007,"308":-0.4796678423881531,"309":0.010600436478853226,"310":0.5852609872817993,"311":-0.4689640700817108,"312":0.47532254457473755,"313":-0.19576908648014069,"314":0.7615904211997986,"315":-0.34957802295684814,"316":-0.06085537001490593,"317":-0.07724200934171677,"318":-0.4892459213733673,"319":0.8012646436691284,"320":-0.41571640968322754,"321":-0.033415231853723526,"322":0.5588114261627197,"323":-0.5694822669029236,"324":0.5124916434288025,"325":-0.1908833384513855,"326":-0.7296532392501831,"327":1.1848381757736206,"328":0.10235341638326645,"329":0.8482561111450195,"330":0.6810401082038879,"331":0.29302412271499634,"332":-1.5448936223983765,"333":0.3585667610168457,"334":-0.7825227975845337,"335":0.0767415389418602,"336":1.8151923418045044,"337":-0.6543411612510681,"338":-0.010102611035108566,"339":0.513108491897583,"340":-1.09395432472229,"341":0.6999660730361938,"342":0.492205411195755,"343":-0.37136730551719666,"344":0.015543274581432343,"345":0.5695472955703735,"346":-0.9297903776168823,"347":0.49577927589416504,"348":-0.01696423441171646,"349":-0.3640902638435364,"350":-0.3064154088497162,"351":0.06405913084745407,"352":-0.20058229565620422,"353":-0.09746559709310532,"354":0.3849993348121643,"355":0.13751253485679626,"356":-0.35774606466293335,"357":-0.02728966809809208,"358":1.0314936637878418,"359":-0.18021176755428314,"360":0.3922845125198364,"361":0.7745131850242615,"362":-0.27237093448638916,"363":-1.2973761558532715,"364":0.8197696208953857,"365":-0.5188808441162109,"366":0.4450705647468567,"367":1.0627306699752808,"368":-0.7939323782920837,"369":0.00954053271561861,"370":0.601077675819397,"371":-1.3396632671356201,"372":0.5951701998710632,"373":-0.09782043099403381,"374":0.05868722125887871,"375":-0.22669944167137146,"376":0.2790316343307495,"377":0.17975351214408875,"378":0.44624820351600647,"379":-0.12125400453805923,"380":-0.03904374688863754,"381":-0.14453358948230743,"382":0.3239925503730774,"383":-0.08919752389192581,"384":0.13868917524814606,"385":-0.07431798428297043,"386":-0.33257806301116943,"387":0.787520706653595,"388":0.5996248126029968,"389":-0.00010345198097638786,"390":0.8226425647735596,"391":-0.0013574279146268964,"392":1.110595941543579,"393":-0.1144411563873291,"394":-0.529744565486908,"395":-0.22914643585681915,"396":0.3195405900478363,"397":-0.8362630009651184,"398":0.4059782326221466,"399":0.23909178376197815,"400":-0.13380937278270721,"401":0.6805517673492432,"402":0.14937013387680054,"403":-0.0014456884237006307,"404":-0.9648893475532532,"405":-0.00909213162958622,"406":1.262550950050354,"407":1.4457719326019287,"408":0.3495512306690216,"409":-0.48502615094184875,"410":-1.3492757081985474,"411":-0.7921656966209412,"412":-0.34963056445121765,"413":-1.008328914642334,"414":1.5861271619796753,"415":0.1715870499610901,"416":-0.3126569986343384,"417":-0.7672787308692932,"418":0.5617337822914124,"419":0.5246725678443909,"420":-0.4943385422229767,"421":1.0571684837341309,"422":-0.12342335283756256,"423":0.5718405246734619,"424":0.501465916633606,"425":0.7130185961723328,"426":-0.6753534078598022,"427":0.08606234937906265,"428":0.7291929721832275,"429":-0.6784819960594177,"430":0.14306989312171936,"431":0.7877748608589172,"432":1.6425281763076782,"433":0.15886931121349335,"434":0.6069889664649963,"435":1.1921149492263794,"436":-0.6849400401115417,"437":-1.0087796449661255,"438":-0.4525677263736725,"439":-0.9105862975120544,"440":0.5309033989906311,"441":0.25988060235977173,"442":0.7261162400245667,"443":0.3267343044281006,"444":0.86024409532547,"445":-0.728182852268219,"446":-1.0471247434616089,"447":1.1414655447006226,"448":1.2183514833450317,"449":-0.55987548828125,"450":-1.3567417860031128,"451":0.8961535692214966,"452":-1.711729884147644,"453":-0.22387589514255524,"454":0.2400578111410141,"455":-1.3888365030288696,"456":-0.5634520649909973,"457":2.3614134788513184,"458":-0.5378444790840149,"459":0.3043075203895569,"460":0.8877185583114624,"461":-0.6785432696342468,"462":-0.7753577828407288,"463":-0.5502522587776184,"464":-2.0816898345947266,"465":-0.19773395359516144,"466":0.7748134732246399,"467":0.47931045293807983,"468":-0.2555883824825287,"469":0.9579675793647766,"470":0.23277169466018677,"471":-0.4905582666397095,"472":-0.5540643334388733,"473":-0.9004634022712708,"474":0.4604587256908417,"475":-0.08939597755670547,"476":0.0780024304986,"477":-0.09956281632184982,"478":-0.33610567450523376,"479":1.0904359817504883,"480":-0.7547192573547363,"481":-0.13314859569072723,"482":0.5288331508636475,"483":0.5288878679275513,"484":-0.4230216443538666,"485":0.556334912776947,"486":-1.0374202728271484,"487":-0.0454854853451252,"488":-0.32077616453170776,"489":0.13480781018733978,"490":1.9130030870437622,"491":0.016277696937322617,"492":0.0592818483710289,"493":-0.16705229878425598,"494":1.4394997358322144,"495":0.31408289074897766,"496":0.8501530885696411,"497":0.6750738620758057,"498":-0.776252269744873,"499":0.04576703906059265,"500":-0.9819121360778809,"501":-1.6221610307693481,"502":0.555751383304596,"503":0.2146138995885849,"504":0.06450245529413223,"505":0.5890277624130249,"506":0.5965161919593811,"507":0.6735760569572449,"508":-0.7044668793678284,"509":0.5719455480575562,"510":-0.2203269600868225,"511":-0.9681411385536194,"512":-0.3889380991458893,"513":-0.37488195300102234,"514":-0.8180500268936157,"515":1.3939144611358643,"516":0.251583069562912,"517":-0.30272358655929565,"518":0.18049342930316925,"519":1.151607632637024,"520":-0.5089600086212158,"521":0.01570192165672779,"522":-0.03690580651164055,"523":-1.0703595876693726,"524":-0.8453330993652344,"525":-0.524100124835968,"526":-0.5982279181480408,"527":-0.37049296498298645,"528":-0.27832719683647156,"529":-0.8505968451499939,"530":-0.053264278918504715,"531":-0.3679888844490051,"532":0.6975252032279968,"533":0.09704402089118958,"534":0.2373056560754776,"535":0.15062780678272247,"536":-1.0257174968719482,"537":0.1640302836894989,"538":0.5270456075668335,"539":-0.008539854548871517,"540":0.09499552100896835,"541":-1.0381335020065308,"542":0.2695339024066925,"543":0.22605463862419128,"544":-0.5314472913742065,"545":0.10464490205049515,"546":-0.18585187196731567,"547":0.10263251513242722,"548":0.4186705946922302,"549":1.2203562259674072,"550":0.3356974422931671,"551":-0.04354191571474075,"552":-0.7082550525665283,"553":-0.7887482643127441,"554":-0.059768419712781906,"555":0.050014231353998184,"556":0.3250797688961029,"557":-0.07280884683132172,"558":-0.7987686395645142,"559":0.03057502955198288,"560":0.678922176361084,"561":-0.775081217288971,"562":-0.7996060848236084,"563":0.7200888991355896,"564":0.0163506418466568,"565":0.8730164766311646,"566":1.2295492887496948,"567":-1.0611494779586792,"568":0.4932836890220642,"569":-0.1504429429769516,"570":-0.9236217141151428,"571":0.5788960456848145,"572":0.19217455387115479,"573":0.9778403043746948,"574":1.0302547216415405,"575":0.13547684252262115,"576":1.3275104761123657,"577":0.1444929838180542,"578":1.6648011207580566,"579":-0.017796555534005165,"580":-0.05552912503480911,"581":-1.2292486429214478,"582":2.0980379581451416,"583":-1.6656595468521118,"584":-0.16734851896762848,"585":1.4264163970947266,"586":-0.2755853831768036,"587":0.9792866706848145,"588":1.0965849161148071,"589":1.3069255352020264,"590":1.403698205947876,"591":-0.9644380807876587,"592":-0.6406525373458862,"593":-0.007448260672390461,"594":-0.41002634167671204,"595":0.05558190867304802,"596":-0.00176803523208946,"597":-0.144330695271492,"598":0.7302888631820679,"599":0.4944697618484497,"600":-0.2660701274871826,"601":-0.5432491898536682,"602":0.7505449056625366,"603":1.0591129064559937,"604":-1.0634583234786987,"605":-1.4450575113296509,"606":0.965192437171936,"607":-0.7944730520248413,"608":-0.6980571746826172,"609":0.25632110238075256,"610":-1.1901811361312866,"611":-1.1053617000579834,"612":2.188645839691162,"613":-0.9267613291740417,"614":0.6582143902778625,"615":1.1567884683609009,"616":-0.9430202841758728,"617":-0.40706026554107666,"618":0.04327797889709473,"619":-1.8494318723678589}},"outputHidden":{"rows":20,"columns":20,"weights":{"0":-1.0413150787353516,"1":0.43842628598213196,"2":-0.6499479413032532,"3":1.3982497453689575,"4":-0.5578311085700989,"5":-2.184295415878296,"6":0.31617283821105957,"7":-1.1398228406906128,"8":1.0619844198226929,"9":-0.5280284881591797,"10":-2.4117586612701416,"11":-1.2640358209609985,"12":1.170938491821289,"13":0.29148486256599426,"14":0.5801897048950195,"15":-0.35942646861076355,"16":-2.2350237369537354,"17":1.7929643392562866,"18":-0.5462064146995544,"19":-1.6207958459854126,"20":-0.008973373100161552,"21":-0.036058902740478516,"22":-0.38822439312934875,"23":0.46496936678886414,"24":-0.7061733603477478,"25":-0.7314563989639282,"26":0.5063039064407349,"27":-0.16602832078933716,"28":0.14924222230911255,"29":0.3121929168701172,"30":-0.3553833067417145,"31":-0.2623136043548584,"32":0.7188169360160828,"33":-0.24473784863948822,"34":-0.4601444602012634,"35":-0.004254231695085764,"36":-0.3774913251399994,"37":1.2309842109680176,"38":0.010909436270594597,"39":-0.5430753827095032,"40":0.7549108266830444,"41":-0.7889174818992615,"42":-1.614089012145996,"43":1.5382107496261597,"44":-1.611476182937622,"45":-0.27408623695373535,"46":-1.6965446472167969,"47":-1.5673127174377441,"48":1.375056505203247,"49":1.2766703367233276,"50":-2.1289761066436768,"51":-1.09638249874115,"52":0.2083715945482254,"53":-0.23061378300189972,